0.076215
0.100127
-0.051055
-0.041983
-0.086057
0.051580
0.069800
0.075062
-0.038579
0.023281
-0.069048
-0.020750
0.041524
0.018096
-0.020078
0.084673
0.077026
-0.058099
0.016435
0.008658
0.014661
0.017100
-0.046369
-0.054898
-0.022595
-0.082430
-0.036804
-0.058212
-0.005204
0.088400
0.018534
-0.068112
-0.008452
0.078180
0.067323
-0.036290
-0.026121
0.106659
-0.047349
-0.065100
0.053577
-0.011217
0.043716
0.079263
0.078449
0.050575
0.004666
0.043301
0.083329
-0.097605
0.028961
-0.043856
-0.070450
0.033265
0.057832
0.066843
-0.066632
-0.000099
-0.013766
0.036191
0.042595
-0.031965
0.009689
0.014465
0.092743
-0.005409
-0.054143
0.069683
-0.067274
-0.065973
0.035573
-0.077690
-0.078794
0.023297
0.009899
-0.077156
0.004904
0.000262
0.072704
-0.088170
0.095076
0.036709
-0.017326
-0.016807
-0.057304
0.036167
-0.085926
0.031734
0.009281
0.018726
-0.015616
-0.019079
0.058891
0.050346
0.026471
-0.022190
-0.089147
0.007336
0.066836
-0.099418
0.096840
-0.065887
-0.033246
-0.070533
-0.012658
-0.041207
-0.023896
-0.034087
0.056177
-0.094025
0.031675
-0.071933
0.063183
-0.097824
-0.012384
0.111660
0.095785
0.012691
-0.041989
0.062428
0.084570
-0.033075
-0.013950
-0.006831
-0.073392
0.050910
-0.094599
-0.066130
-0.069197
-0.051782
-0.018713
-0.082832
0.099370
-0.032952
0.022711
-0.003135
-0.112867
-0.016055
0.000849
-0.051846
-0.042149
0.023126
0.065505
0.013160
0.004525
-0.014369
0.078064
-0.101173
0.062906
0.015620
0.010031
0.058363
0.114062
0.143710
0.065958
0.090589
0.101868
0.055486
0.086003
-0.017195
-0.055583
0.057413
-0.021211
-0.090640
0.009833
0.057847
-0.058169
-0.026988
0.101442
-0.019779
-0.009482
0.123890
0.045482
0.024560
-0.059967
0.103250
-0.000917
0.033599
-0.043998
0.084351
-0.026257
-0.108612
0.029744
-0.075855
-0.027233
-0.125755
0.015076
-0.138759
-0.033451
-0.076423
0.009107
-0.063835
-0.010283
0.010313
0.006934
-0.018692
0.064823
0.060535
-0.110879
-0.070482
-0.085993
-0.073825
0.083284
-0.041607
-0.042749
-0.079470
0.017697
0.006616
0.039320
-0.077608
0.115482
-0.015883
0.074458
-0.019496
-0.092243
0.079514
-0.077540
0.071285
0.094360
-0.002393
-0.143121
0.134402
-0.002093
-0.044908
-0.076444
-0.014381
0.012283
-0.000381
-0.107267
-0.044895
0.078500
0.087441
-0.062724
0.044208
-0.077955
0.063275
0.127392
-0.001937
-0.011935
-0.072893
-0.061014
-0.006693
0.011921
-0.071729
-0.037856
-0.095457
-0.049055
0.047112
0.051658
-0.102769
0.048558
-0.022108
0.071950
-0.038710
0.024794
-0.082337
0.072107
-0.030194
-0.021785
-0.075462
-0.056908
0.037032
-0.008533
-0.034697
0.059543
-0.058588
0.040753
-0.024209
-0.046176
-0.001867
-0.014173
0.000657
-0.009156
0.057664
-0.011094
-0.050410
0.074269
-0.023415
-0.042193
-0.002942
-0.077463
0.009873
-0.078325
-0.040406
-0.063251
0.065349
-0.070598
-0.096296
0.055605
-0.095143
-0.024268
0.001863
0.044634
-0.078517
-0.093159
-0.061215
-0.094330
0.043438
-0.032004
0.012694
0.011996
-0.083972
0.013776
0.067120
-0.023545
0.016853
-0.025521
-0.085345
0.043692
0.014454
-0.040504
-0.106640
-0.091927
0.039912
-0.042191
-0.040102
-0.068117
0.056764
-0.078867
0.032022
0.017925
0.059685
-0.077846
0.050576
0.021166
-0.100472
-0.027302
-0.005065
0.064438
-0.069781
-0.038931
0.034945
0.042269
-0.012088
-0.106557
-0.015440
0.048450
-0.052998
-0.078663
-0.091805
-0.001316
-0.084002
0.025421
0.055788
-0.023959
-0.006787
0.043792
-0.042298
0.071030
0.001106
0.059733
0.036476
-0.086987
-0.007386
0.038378
0.017159
-0.087906
0.036147
-0.026679
-0.026253
0.049813
0.088938
-0.036032
-0.072495
-0.061017
0.013124
-0.043271
0.091093
-0.048040
0.015665
0.082424
0.113471
0.009820
-0.099242
0.031118
-0.113728
-0.006573
0.111958
0.025747
-0.048602
-0.042678
0.114217
0.001574
0.066944
-0.080496
-0.040529
0.067618
0.046376
-0.070111
-0.126732
-0.007876
0.061477
0.023507
-0.042814
0.115724
0.077881
-0.032143
-0.106516
-0.042930
-0.032261
-0.034794
0.059971
-0.058108
-0.027865
-0.074536
0.032546
-0.019320
0.015290
0.029181
0.115780
0.050434
-0.137343
-0.000712
0.062590
0.062725
-0.040167
0.020549
-0.077101
-0.066790
-0.043092
0.042706
0.064783
-0.006448
0.055767
-0.076688
0.046706
-0.022033
-0.061734
0.088036
0.015180
0.025591
0.101074
-0.061431
0.041059
-0.041547
-0.073252
-0.001877
-0.024580
-0.068485
-0.094890
-0.043488
-0.005005
0.087947
-0.075383
0.194588
0.019429
0.112711
-0.083749
0.099613
-0.058559
-0.019554
-0.017921
0.082364
-0.020475
0.085721
-0.073066
-0.053414
0.051205
0.064791
0.019217
-0.039870
-0.013464
0.038275
-0.092752
0.063811
-0.094810
-0.013246
0.066713
-0.057871
0.107055
0.073814
0.089006
0.100512
0.021343
-0.077599
-0.062647
-0.125056
-0.028963
0.029682
0.092526
-0.005203
0.086464
-0.036226
0.072206
-0.028721
-0.118611
0.116931
-0.091437
-0.002656
-0.037421
-0.130889
0.085498
0.074202
0.060577
-0.015899
-0.008861
0.035269
-0.032274
0.042524
-0.036034
0.031109
0.007284
0.077120
0.019566
-0.003633
-0.010669
0.038951
0.049870
-0.045712
-0.022488
0.066440
-0.018036
-0.064770
0.048389
0.114838
0.084997
-0.048534
-0.074906
0.080145
-0.094612
-0.042650
-0.022567
-0.020591
0.029775
-0.063720
-0.012867
0.056849
0.080229
0.055924
0.096254
-0.008537
0.084982
-0.040140
-0.030580
0.010777
0.099848
0.097390
-0.003360
0.060968
-0.009845
-0.045446
-0.071260
-0.202824
0.041360
0.118161
-0.007986
-0.082178
0.033223
0.062211
0.053934
-0.048041
0.071418
-0.016290
0.019329
0.033075
-0.060347
0.100558
-0.062651
0.104670
-0.004116
-0.019893
0.023660
0.008682
0.113848
-0.084418
0.082402
0.014147
0.101292
-0.042717
0.115174
-0.070010
-0.037740
-0.033874
-0.009555
0.092327
-0.056899
0.112942
0.006231
-0.058220
-0.087407
0.043448
-0.004601
-0.058308
0.061239
0.042941
0.040712
0.071575
0.013968
0.100674
0.038687
0.019336
0.070867
-0.084633
0.077258
0.053976
-0.153304
0.110303
-0.053771
-0.166701
-0.094956
-0.127171
0.121244
0.034855
-0.059382
0.052043
-0.097034
0.049492
-0.004426
0.021861
0.012543
-0.065188
0.018997
0.074989
-0.040045
0.128914
-0.060092
0.109200
0.106253
-0.056690
-0.005727
-0.015356
-0.079305
-0.060475
-0.007701
-0.025655
-0.027461
-0.096079
0.117876
0.057739
-0.180849
-0.065890
-0.008120
-0.070721
-0.030082
-0.032079
0.088420
-0.072826
-0.103742
0.003825
0.077591
-0.012058
0.029854
-0.057673
0.107858
-0.031498
0.086229
-0.091038
0.074255
-0.027807
0.035908
-0.035076
-0.061804
0.094169
-0.014952
0.079070
0.060665
0.069681
-0.053609
0.071628
-0.003367
-0.022766
-0.033588
-0.037687
-0.057392
0.095261
-0.037218
-0.001549
0.054221
0.078808
0.073395
0.077081
0.054612
-0.075653
-0.079074
0.089126
0.036188
0.090243
0.014157
0.006399
-0.025241
0.110568
0.188559
-0.090434
0.009280
-0.042799
-0.022899
-0.040380
-0.063028
0.079966
-0.049538
-0.044354
0.055422
0.050929
0.030017
0.054476
-0.083780
-0.016254
-0.056504
0.069121
0.026142
0.160287
-0.108185
0.109442
-0.068846
0.051156
0.071410
-0.078684
0.081132
0.078928
0.051608
0.052617
0.067024
0.045056
0.038536
0.011042
-0.052151
-0.023551
-0.117114
0.020340
0.088701
0.015503
0.005258
0.032067
0.013052
0.020886
-0.041907
0.005414
-0.051695
0.007899
-0.027519
-0.016785
-0.083253
-0.057550
-0.055844
0.115347
-0.012700
0.130297
-0.117092
0.101228
0.063238
0.043951
0.012166
0.117296
-0.091224
-0.005376
-0.054107
0.041806
0.071257
0.062813
0.167697
0.089216
-0.031829
0.027744
0.043020
-0.039693
0.012859
0.018221
0.116786
0.089248
-0.048066
0.016627
-0.091332
-0.102294
0.025390
-0.062522
0.079562
0.057853
0.075746
0.017483
0.023846
0.041440
0.031217
-0.108553
0.095665
0.045066
-0.019037
-0.045512
0.116542
-0.080802
0.039450
-0.041135
-0.055117
-0.103679
0.077144
-0.001757
-0.035727
-0.069431
0.062832
0.026687
-0.012176
-0.129573
0.019194
0.057142
-0.009605
0.067852
0.042957
0.056858
-0.030647
0.009575
0.101961
0.037551
0.001438
0.013260
-0.009549
0.005523
0.070776
-0.103734
-0.073528
-0.030864
0.173436
0.018839
0.006431
-0.043657
-0.132514
-0.040992
-0.113268
0.044701
0.022480
-0.050611
-0.074931
-0.026633
0.035721
0.024153
0.057420
-0.025508
0.097790
0.049881
-0.066363
0.002092
-0.104904
-0.105864
0.019806
-0.056246
0.103331
0.041246
-0.078283
-0.065293
-0.000599
-0.210971
0.013840
0.072129
0.016878
-0.056972
0.041163
0.054332
-0.071412
0.074331
-0.041362
0.072291
0.064472
0.022742
0.017952
-0.071014
0.084202
0.096184
-0.073412
0.021718
-0.014135
0.028097
-0.115007
0.083214
-0.108367
0.009353
-0.015523
0.012542
-0.062266
-0.047842
0.056169
-0.083369
0.092782
0.047909
-0.043876
-0.007571
0.033154
0.011253
0.090098
0.073051
0.040524
0.018981
0.077434
-0.001536
0.103480
-0.039312
0.119211
-0.011914
0.083290
-0.058903
0.007603
0.032789
0.036443
-0.007851
-0.133743
0.006853
0.050901
0.069989
0.099718
0.004459
-0.006587
-0.073093
-0.067763
-0.072851
-0.024038
-0.096066
0.083879
0.078548
0.108643
0.000027
0.018124
0.089705
-0.009341
0.141504
0.029336
-0.009988
0.010057
-0.057802
-0.020159
0.047561
0.045054
-0.036091
0.059143
-0.003031
0.004162
-0.090724
-0.080977
-0.108988
0.115597
0.077715
0.087209
0.055668
-0.030698
0.028971
0.082946
0.090488
0.065111
-0.043237
0.090490
0.051023
0.079848
-0.043160
0.078349
0.082782
-0.139628
-0.044704
0.107173
-0.126329
0.036177
-0.018474
-0.029297
-0.031190
0.072960
-0.124253
0.064551
0.070604
-0.038138
0.064132
0.054309
-0.038148
-0.098247
0.095536
-0.051946
0.103744
0.085619
0.007326
-0.073943
-0.045548
-0.131102
-0.035279
0.124701
0.068356
0.092758
0.125231
-0.084866
-0.022715
-0.030477
0.031069
0.012783
0.001867
0.033843
0.006641
-0.044367
-0.019520
0.107932
0.019231
-0.033920
-0.004038
0.020157
0.033895
-0.009096
0.019578
0.113413
-0.030312
0.077077
0.127558
0.100534
0.005110
-0.040874
0.032167
0.107445
0.048678
0.074068
0.031946
-0.086697
0.044104
0.031399
-0.046568
0.094759
0.018224
-0.055413
0.100225
0.072806
-0.101708
-0.098496
-0.013790
0.036745
-0.039277
0.003862
0.045942
-0.074020
-0.029597
0.079671
0.033550
0.126110
-0.041300
0.005275
-0.022974
-0.035462
0.086368
-0.064285
0.011738
-0.062309
0.196433
0.053162
-0.105130
-0.049301
0.027130
-0.023521
0.051384
-0.053052
0.043009
0.047204
0.033265
0.084868
0.065478
-0.031483
0.047401
0.082864
-0.021764
-0.057510
-0.110771
-0.031093
0.095674
0.071468
0.028930
0.018336
-0.115611
-0.023714
-0.010261
0.083582
-0.028705
-0.057686
0.086784
-0.020859
0.067400
-0.030533
-0.038737
0.020628
-0.067961
-0.039469
-0.000589
0.004220
-0.128149
-0.000821
0.027478
-0.050310
0.033604
-0.008874
0.021585
0.084683
0.031264
-0.028364
0.064176
-0.061479
0.043520
0.060392
0.009361
-0.025240
0.070863
0.018652
-0.064830
0.073665
-0.099150
0.049096
0.107329
0.065658
-0.029830
0.129284
0.083555
-0.071105
0.022123
-0.004338
0.081880
0.061537
-0.054740
0.031704
0.124966
0.031864
0.067046
0.121473
-0.038672
-0.091365
0.066114
0.015881
-0.130707
0.008153
-0.049946
-0.078954
-0.035888
-0.027609
-0.072130
0.044724
0.050599
-0.037091
0.065189
-0.077795
-0.012104
-0.005965
0.064327
0.010572
-0.010803
-0.066125
-0.053233
-0.001544
-0.055763
-0.107988
0.065588
-0.096301
0.044363
-0.029556
0.063675
-0.029436
0.004299
-0.083004
-0.081940
0.037305
-0.076233
0.077497
0.007462
0.087278
-0.067113
0.018434
-0.202114
-0.041167
0.085688
0.027698
0.025257
0.036997
0.076676
0.079194
0.027721
0.102613
0.039195
0.119347
-0.026190
-0.014293
0.070498
-0.051170
0.049215
0.033209
0.038791
-0.019241
-0.033017
-0.013420
0.028692
0.023173
0.065480
-0.038174
-0.031260
-0.002887
0.025922
0.092737
-0.144289
-0.020345
-0.064831
-0.093869
0.093855
0.070482
0.025674
0.133711
0.131877
0.079845
0.074764
-0.073659
0.037942
0.082782
0.006950
-0.132660
-0.092633
-0.021435
-0.042062
-0.034192
0.000657
0.088031
-0.040916
0.075221
-0.021005
0.090986
-0.103194
-0.046495
0.042871
-0.018841
-0.117354
-0.048404
-0.010592
-0.042696
0.140421
-0.019546
-0.005786
0.026287
-0.059703
-0.056868
0.068523
0.020716
-0.004274
0.076917
0.021013
-0.022442
0.086232
-0.118478
-0.093837
0.017138
-0.070556
0.103352
-0.010954
0.046501
-0.069988
-0.109278
0.082058
0.035112
-0.004930
0.027324
0.056769
0.052157
-0.029826
-0.091096
-0.045559
0.037779
0.044027
0.023231
0.022683
0.065496
0.134255
0.103418
0.016398
0.059307
-0.084844
0.103293
-0.064207
0.004885
0.051864
0.089177
-0.077029
0.045038
0.029590
0.000680
0.050288
-0.046813
-0.067205
0.072158
-0.030881
0.080016
-0.068676
0.075099
0.038463
0.001338
-0.034385
-0.072803
-0.000798
0.095276
-0.081505
-0.007281
-0.003333
0.100815
0.046043
0.039057
0.079935
-0.039095
-0.028904
0.004310
-0.056912
-0.031685
0.017039
-0.040389
0.004293
-0.103266
-0.027765
-0.042151
0.061928
-0.045059
-0.070660
-0.051705
0.038797
-0.012678
0.013193
-0.013467
-0.045020
0.096576
0.087578
0.136083
-0.067568
0.083296
0.145280
-0.073796
-0.127678
-0.037008
-0.000317
-0.139260
-0.006704
0.075951
0.067655
0.054867
0.046201
0.127760
0.072057
0.029759
0.060341
0.119627
-0.092839
0.000760
-0.011699
-0.012112
0.083498
0.024540
0.079847
-0.090225
-0.006077
0.050367
-0.112189
0.038929
0.001104
-0.075913
0.085273
0.094204
0.031999
0.056960
-0.055455
-0.052978
0.009555
0.069059
0.035663
-0.103842
0.005174
-0.022164
0.068500
-0.055996
0.011974
0.050094
-0.004686
0.007457
-0.063311
-0.090866
0.054049
0.041141
0.074873
-0.102866
-0.023199
-0.044154
-0.019087
-0.105260
-0.083434
-0.034361
0.113551
0.002361
-0.016561
-0.025119
-0.076938
-0.133469
0.019645
0.002449
0.000139
0.073650
-0.047733
0.048997
-0.101006
-0.014227
-0.044612
0.042268
-0.010553
0.087131
-0.053805
0.028245
0.073909
0.004639
0.034194
0.036050
0.052526
-0.082910
-0.019592
0.067270
0.053411
0.031819
-0.026638
-0.083158
-0.074910
-0.086045
-0.029193
0.044996
-0.034954
0.009288
-0.000269
-0.101754
0.055392
0.053803
0.079842
-0.035143
0.055788
0.117413
-0.059206
0.080636
-0.010545
-0.095553
-0.041791
-0.068338
-0.049661
0.041018
-0.098312
0.104190
-0.035230
0.170420
0.052627
-0.012523
0.109230
-0.002847
-0.001625
-0.059544
-0.042534
0.029020
-0.007011
-0.014268
0.119754
-0.023874
-0.142792
0.050274
0.021169
0.008293
0.059731
-0.035909
0.011491
-0.237634
-0.033118
-0.046343
-0.097001
-0.029764
-0.041010
-0.022634
0.118306
-0.066897
-0.014459
-0.061149
0.088079
0.058936
-0.009062
-0.023827
0.060152
0.019885
0.104258
-0.026548
-0.055151
-0.105640
0.088688
0.178647
-0.008822
0.038767
0.006062
0.045947
-0.060099
0.038833
0.101313
0.066383
-0.033582
0.086966
-0.063012
0.040747
-0.055188
0.076147
0.057236
0.111460
-0.011568
0.113692
-0.008760
0.064550
0.093434
0.124525
-0.060758
-0.004407
0.101892
0.099676
0.092831
-0.085218
-0.074088
0.064828
0.086707
-0.065460
-0.087220
0.009472
0.115452
-0.058299
0.054857
0.031679
-0.045480
-0.101538
0.009335
-0.023289
0.148769
0.011292
0.106769
-0.043985
0.022447
-0.085492
0.015645
-0.069888
-0.083885
-0.027364
-0.025019
-0.043243
-0.081580
-0.053020
0.028705
-0.023250
0.012509
-0.109295
0.007657
0.036694
-0.028447
-0.098191
-0.041249
0.120119
0.029024
-0.110197
0.036614
0.021344
-0.020193
0.067983
0.087354
0.005832
-0.120015
-0.099283
-0.065397
-0.087332
0.018064
-0.066983
0.012188
0.000844
0.069358
0.102755
0.097072
-0.005118
-0.054493
-0.036174
0.007784
0.111178
0.064466
0.016342
-0.045808
0.082352
-0.041827
0.032865
0.056864
0.037551
-0.050882
0.064462
0.017178
-0.087970
0.056983
0.034678
-0.024022
-0.001325
-0.008815
-0.092611
0.081942
0.037916
-0.068616
-0.050039
0.043326
-0.083071
0.056889
-0.003547
-0.089273
-0.059595
-0.096525
0.064127
-0.047860
-0.075512
-0.075709
0.073947
-0.029171
-0.074895
-0.097755
-0.058900
-0.034638
-0.015968
-0.030481
-0.072813
-0.081215
-0.037503
0.021660
-0.076295
0.079577
0.077389
-0.021390
0.032918
0.050587
0.025224
-0.044954
-0.073844
-0.015560
0.066627
-0.081662
0.031463
0.045794
0.075986
0.012142
-0.081337
-0.085744
-0.032776
0.045865
-0.078092
0.082241
0.073746
0.080511
0.023828
0.052049
0.010368
0.052367
0.059484
0.062188
0.062900
-0.041328
-0.007538
-0.062042
-0.061514
0.031263
-0.081174
0.031356
0.061151
0.029733
0.071227
-0.020678
-0.083366
0.008971
-0.000389
-0.065134
0.020098
0.006121
-0.066713
-0.074364
-0.088968
-0.073764
-0.041303
-0.002199
-0.028940
0.033665
-0.012386
-0.045431
0.057540
-0.035399
0.043238
-0.011517
0.080932
0.005342
-0.007356
0.001325
-0.062106
-0.078390
0.078236
-0.069978
0.034037
-0.014647
-0.049950
-0.036521
0.009511
0.022307
-0.101088
-0.074781
0.084143
-0.087898
-0.149168
-0.054494
0.084627
-0.066188
-0.025442
-0.159576
-0.047560
0.075579
0.112976
-0.084367
0.028247
-0.016654
0.043890
0.103300
0.108658
0.019140
-0.079278
-0.071475
-0.025541
0.000978
-0.083298
0.097690
-0.056361
0.017946
0.055467
0.009965
0.089817
-0.080366
0.122525
0.113062
0.010155
0.104925
-0.100743
0.038655
0.063772
-0.101782
-0.061384
0.048501
0.087454
0.021919
0.028976
0.086256
0.093799
0.027111
0.052405
0.068640
-0.095247
0.105932
0.030661
-0.057148
0.038435
-0.067124
-0.003290
-0.001260
-0.089864
-0.005131
-0.086617
0.044120
-0.047673
0.046714
0.087252
0.093808
-0.021757
0.054902
0.008114
-0.100300
-0.098336
-0.003081
0.033034
0.053726
0.081649
0.100706
-0.099885
-0.047413
0.011321
-0.124215
-0.072078
0.102548
-0.054102
-0.083959
0.062101
0.104689
-0.000661
0.031716
-0.061216
0.049208
-0.021338
0.003694
0.090277
0.101865
0.024668
-0.053147
0.045891
0.064783
0.082602
-0.072089
0.001226
-0.092159
0.027840
0.007710
0.087390
0.078018
0.048748
0.073026
0.084767
-0.040734
0.103767
-0.003715
-0.039109
0.003496
0.117399
0.147368
-0.039625
0.002833
-0.046623
-0.089593
-0.073003
-0.002923
-0.011446
0.073486
0.027113
-0.026214
-0.002967
-0.032607
-0.049257
0.081146
-0.015799
-0.054654
0.066492
0.069331
-0.089377
0.045342
0.002604
-0.046846
0.077124
0.027187
-0.054888
-0.098374
-0.055627
0.001733
0.079440
-0.021512
-0.063498
-0.095712
-0.010806
-0.049537
-0.015584
-0.002919
0.012492
-0.019923
0.042472
0.015951
0.003343
-0.052860
0.081034
0.038927
0.080201
-0.019103
0.054494
0.066561
-0.049251
-0.008465
-0.016103
0.037886
0.076170
0.068002
-0.084131
-0.072115
0.050071
-0.075120
-0.041696
0.067910
-0.039439
0.065471
0.063966
-0.052109
0.052959
-0.070904
0.072421
0.066570
-0.053926
-0.082843
0.033740
0.065795
0.050848
-0.051560
-0.023151
-0.079387
-0.029482
0.066952
-0.051685
0.043159
0.038208
-0.020122
-0.024789
0.061380
-0.082307
-0.052149
-0.018225
0.029792
-0.002516
-0.014312
0.016449
-0.015271
0.015078
0.033788
0.011432
0.029758
-0.050935
-0.077310
0.064862
0.029732
-0.068538
-0.071145
-0.038259
0.006555
-0.074141
-0.070484
-0.028627
0.031903
-0.043663
-0.022769
0.045515
0.030330
0.052175
-0.040084
0.069838
0.029756
-0.088045
-0.060014
-0.046690
-0.019489
-0.068529
0.016750
-0.086637
-0.176820
0.036458
-0.079394
-0.071333
0.016225
0.057702
-0.025142
-0.148690
0.045263
0.082490
0.033387
-0.046146
0.028272
0.024600
-0.037994
-0.084916
-0.066557
0.013401
-0.027113
-0.040200
0.066935
-0.055423
0.079429
0.106315
-0.026686
-0.000587
0.025901
-0.023632
0.038955
-0.170450
-0.006471
-0.006445
0.102151
0.044970
0.048127
0.034748
0.099919
0.042698
-0.058150
0.063654
0.007632
-0.034857
-0.058452
-0.095168
0.082736
-0.019155
0.061528
0.075452
-0.076330
0.054207
0.062637
0.089242
0.101593
-0.001925
-0.092194
-0.013387
-0.073418
-0.008927
-0.054648
0.069165
0.040338
-0.058462
-0.007145
-0.060614
-0.000985
0.026686
0.015235
0.055802
0.068072
0.014727
0.133766
0.011546
0.152236
-0.001753
-0.000244
-0.028536
0.088866
0.049143
0.032372
-0.018653
-0.009692
-0.052310
-0.080628
-0.059617
0.067017
-0.021450
0.033108
0.014886
0.024715
0.007297
-0.127158
-0.005116
-0.001175
-0.031294
0.063828
0.118578
0.008961
-0.099134
-0.075607
0.037553
0.002369
-0.077601
0.099219
0.021936
0.071470
0.025829
-0.094916
0.080361
-0.001883
-0.022921
-0.007408
0.026158
0.122299
0.105194
-0.055862
-0.081047
0.015627
-0.088485
-0.221288
0.107390
-0.053119
-0.037458
-0.072894
-0.079867
0.075695
0.120826
-0.056330
0.057999
0.033165
-0.000799
-0.004757
0.042996
0.019571
0.000166
-0.052523
0.067353
0.017962
0.155299
-0.035972
-0.038554
0.101190
-0.100994
0.097726
0.081130
-0.069863
-0.024695
0.002844
-0.009909
0.023468
0.022467
0.121225
0.092099
0.082294
-0.025435
0.091235
0.059697
-0.031018
-0.026397
-0.123356
-0.019981
0.026159
-0.003615
0.006723
-0.038241
-0.049019
0.036385
-0.078692
0.071363
-0.075026
-0.105074
0.073351
0.098999
-0.024889
0.052034
-0.134120
-0.004860
-0.002769
-0.006031
0.034085
0.071286
0.009624
0.042553
-0.017656
0.077398
0.037388
0.046704
-0.028534
0.051894
-0.064684
0.025673
0.132023
-0.090480
0.124918
-0.045734
0.090821
-0.005864
0.012286
0.074333
-0.059510
0.028881
0.114152
0.028015
0.051485
-0.041187
-0.040005
0.001283
-0.009343
-0.019235
-0.013710
0.132490
-0.018932
-0.057886
-0.083173
-0.022975
-0.046442
0.064414
-0.062499
0.042911
-0.054387
0.080097
0.038145
0.059518
-0.056061
0.085401
-0.016316
0.085826
-0.052286
0.016391
-0.093927
0.004306
0.037979
-0.059676
-0.068461
0.028924
-0.038765
0.012569
0.093405
-0.086714
-0.085394
-0.004579
-0.143897
0.143397
-0.096978
0.087642
0.086270
0.082474
-0.040958
-0.075299
-0.024601
-0.020649
-0.025159
0.063371
-0.008468
-0.074937
0.078773
0.049137
-0.090007
0.089909
0.018162
0.046289
0.054361
-0.086850
0.068199
0.089296
0.032509
-0.072060
-0.028581
-0.088140
0.040811
-0.127904
-0.079905
-0.051598
-0.106453
-0.004064
-0.088776
-0.071132
0.032039
0.119994
0.005333
0.050732
0.105354
0.079226
0.027141
-0.070779
0.078799
-0.001985
-0.056127
0.040616
-0.056186
0.033231
0.020692
0.024556
0.127566
-0.138860
0.088915
0.019016
0.003391
-0.098496
-0.051046
0.074022
0.048314
0.065282
0.095066
-0.033627
0.006198
0.092989
0.106699
0.095758
-0.051278
0.057091
-0.023068
0.089053
0.054083
0.038573
0.107516
0.056291
0.000416
-0.086942
0.105727
-0.061373
-0.159485
0.003757
0.068248
0.091658
0.024042
0.118407
0.029495
0.150109
0.097938
-0.136563
-0.109493
-0.075691
0.008352
-0.003953
0.043488
0.157972
-0.033392
0.005388
-0.010647
-0.012380
-0.087203
-0.033992
0.016246
-0.115017
-0.008644
-0.012866
0.016342
0.149620
-0.073406
0.031258
-0.017837
0.082210
-0.050032
-0.030962
-0.103697
0.102165
0.059890
0.111563
0.145929
-0.026079
-0.101170
0.067065
-0.066298
0.079778
0.058224
0.074764
-0.122602
0.009685
-0.030664
-0.021601
0.141726
-0.057243
-0.092763
-0.067752
0.083220
0.012311
0.088647
-0.002253
0.035138
-0.071348
0.036537
-0.008315
-0.006958
-0.062843
0.139567
-0.075272
-0.118475
0.125009
-0.124068
-0.080672
0.014745
-0.083524
0.093023
0.032893
0.002172
0.027530
0.052414
-0.019837
-0.073612
0.009224
0.043864
-0.015001
0.107537
0.128833
0.073348
0.109956
0.057382
-0.066928
-0.027922
0.112047
-0.185243
0.014268
-0.087968
0.086905
0.125866
-0.019535
-0.067848
-0.141936
0.037609
-0.046836
-0.002867
0.145188
0.073422
0.074164
-0.009043
-0.007716
-0.062111
0.008256
0.111582
-0.013312
0.140621
-0.031693
-0.004042
0.021568
0.102020
0.000276
0.021661
-0.041087
0.014191
-0.082226
0.069381
-0.037377
-0.044719
0.044639
0.090957
0.110185
-0.028533
-0.047317
0.017040
-0.027550
0.073069
0.071543
0.023405
-0.031168
0.005696
-0.049726
0.063503
-0.042899
0.104343
-0.011900
-0.041593
-0.130721
-0.024575
0.062584
-0.029817
0.010418
0.074546
0.050889
0.030068
0.035703
0.100565
0.010128
0.011875
0.065372
0.094905
-0.013908
0.034769
-0.155041
0.065337
0.028647
-0.008537
-0.091743
0.053642
-0.020707
0.016940
0.064742
0.111255
-0.087011
0.063496
0.055855
0.019736
-0.013586
0.041900
-0.066290
-0.089350
0.081772
0.085766
0.063000
0.055225
-0.081784
-0.113898
-0.032849
0.063434
0.068794
-0.106142
-0.013056
-0.033088
0.114174
0.021583
-0.095000
0.090430
-0.085890
0.004950
-0.046136
0.103287
0.016223
-0.014081
-0.050375
0.095018
-0.069542
-0.113803
0.010787
-0.095348
0.117075
0.091206
-0.048577
0.075853
-0.127851
0.003475
0.059210
-0.130337
-0.054609
0.036657
-0.119180
0.063989
-0.006550
0.044036
-0.026060
-0.078912
0.044879
-0.038518
-0.019792
-0.057786
0.061909
-0.025650
-0.044811
0.000806
0.001303
0.006916
-0.021395
0.065858
-0.071040
-0.066193
0.080818
0.038173
-0.074835
0.004328
0.015512
-0.036711
0.063252
-0.178250
0.064637
0.022015
0.010768
-0.025199
0.065997
0.078722
-0.019734
-0.012318
0.106379
0.104110
0.007899
-0.007902
0.159004
-0.106184
-0.124191
0.046201
-0.005172
0.099915
-0.011097
-0.022499
-0.053732
0.016402
0.088862
-0.034476
0.068041
0.008465
0.037412
-0.028877
0.057292
-0.147466
0.070015
-0.042618
-0.011134
-0.054082
-0.047738
-0.004631
-0.087739
0.054812
-0.104938
-0.070340
-0.095242
0.010020
0.056565
-0.017432
0.059999
-0.017061
0.019707
-0.035886
0.055185
-0.107515
-0.069497
0.062648
-0.018759
0.022630
-0.063206
-0.031704
0.053751
-0.066653
0.053795
0.047526
-0.077063
-0.040499
0.028893
0.014454
0.033998
0.045095
-0.056721
-0.065313
-0.080704
0.035410
-0.100682
-0.030468
0.060788
-0.098625
0.043323
0.003523
-0.049270
0.047625
-0.055278
0.047744
-0.070476
-0.013551
-0.050597
0.074845
-0.089345
-0.024662
0.048606
-0.036556
0.056506
-0.050675
-0.067858
-0.092104
0.064908
-0.006047
-0.030341
0.012279
0.009881
-0.066155
-0.021052
0.009742
-0.005770
-0.005201
0.074553
0.057164
0.040131
-0.002258
0.050763
-0.021372
-0.035649
-0.052381
-0.002736
-0.024492
-0.064450
-0.043482
0.038745
0.012694
-0.057585
0.004999
-0.098895
-0.031980
0.057952
0.039354
0.063546
-0.061373
0.070660
0.011008
0.041430
-0.046137
-0.021106
-0.082080
0.086440
-0.035753
0.016072
0.066957
-0.013653
0.037067
-0.099698
-0.081600
0.058437
0.051065
0.032738
0.015165
-0.093276
0.013939
0.028812
-0.051511
0.021237
-0.036932
0.000445
0.044500
-0.003271
0.033796
0.005931
-0.036487
-0.077827
-0.054421
0.012612
-0.068019
-0.103413
-0.013347
-0.059611
-0.084990
-0.079022
0.041707
0.123163
-0.094977
0.155595
0.063307
0.089245
0.132444
-0.005225
0.115869
-0.055060
0.072198
-0.070140
-0.070083
0.063729
0.042012
-0.002014
-0.029649
0.111873
0.024751
0.110192
-0.017904
-0.015880
-0.026985
0.023560
0.068148
-0.070826
-0.064931
0.015960
-0.058088
-0.058838
-0.003978
0.040253
0.080215
0.078726
-0.052975
-0.022873
-0.033300
-0.041941
-0.078127
0.020475
-0.042391
0.051781
-0.042135
-0.097564
-0.106286
0.079291
0.007001
-0.035412
0.081313
-0.057225
-0.004612
-0.097267
-0.118526
-0.079900
0.079626
0.061944
0.053644
0.059197
0.112670
0.068488
-0.043513
0.068352
0.061765
0.066872
-0.019797
0.005801
0.054515
0.034147
0.120751
0.090523
-0.039492
0.065283
-0.040504
0.053731
-0.022069
-0.029030
0.025960
-0.109099
-0.001351
0.049622
0.155239
0.081116
0.082708
-0.097505
0.028449
-0.136495
-0.085751
0.091104
0.092836
0.084342
-0.065010
-0.115624
0.006416
-0.031484
0.027967
0.036060
0.020158
-0.097919
-0.049288
-0.176955
-0.030357
0.005432
0.055040
-0.026408
0.047969
0.071738
0.069727
-0.063583
0.097288
0.041750
-0.076047
-0.035741
-0.098799
-0.072673
0.067506
0.045710
0.013980
-0.002196
-0.013655
0.043013
-0.167938
-0.017392
0.057828
0.033610
-0.064272
0.049862
-0.003890
-0.043653
-0.069998
0.024350
-0.010585
-0.074424
-0.039649
0.017247
-0.042512
0.062448
-0.008043
-0.018166
0.121679
-0.008347
0.056739
0.043226
-0.073560
-0.058259
0.049254
-0.077976
0.018719
-0.083494
-0.018046
-0.008626
0.073632
-0.054961
0.036089
-0.018423
0.046777
0.050600
-0.111614
0.035156
-0.002256
-0.085950
0.039031
0.003536
0.027646
0.086338
-0.067689
0.049164
0.065744
0.070449
0.021188
0.082693
-0.008144
0.086195
-0.092566
-0.207854
-0.037782
-0.031794
0.016200
0.028760
-0.080419
0.029863
-0.043041
-0.049323
-0.017119
0.017852
-0.015187
0.042653
0.111759
-0.058531
0.017258
0.003574
0.078860
-0.056084
-0.037015
-0.150948
-0.061398
0.110598
-0.104560
-0.078917
0.075108
-0.036249
-0.042163
-0.009433
-0.003912
-0.050456
-0.074102
-0.014089
0.023820
-0.089499
-0.000290
0.071071
0.066512
0.010290
0.097720
0.035888
-0.047522
0.125391
0.012864
-0.019535
-0.065536
-0.062623
-0.053643
-0.105174
0.077397
-0.067378
0.048273
-0.058871
0.083673
0.069079
0.049472
0.017451
0.097942
-0.017158
0.024821
-0.074393
0.146991
0.046418
-0.090577
0.033795
0.004532
0.063986
-0.073171
-0.140878
0.054819
0.011358
-0.008492
0.066496
0.079576
0.068941
0.062181
-0.073564
-0.004204
0.014997
0.021942
0.057721
-0.108122
0.070804
0.085058
0.115087
-0.023214
0.069055
-0.030634
0.070788
-0.030969
0.122362
0.041206
-0.045895
-0.048093
0.059608
0.070772
-0.053329
0.081222
0.021493
-0.088220
-0.101566
0.049582
-0.014054
0.054574
0.098350
-0.066128
0.101470
0.079299
-0.087018
-0.079509
-0.092278
-0.097993
0.062296
0.060138
-0.076359
0.093770
-0.040054
-0.043958
0.050895
-0.016955
-0.001344
-0.033861
0.036621
0.076064
0.071546
-0.049709
-0.065905
-0.119456
0.074274
0.125328
-0.006314
0.078668
-0.017641
0.097689
-0.007976
0.124385
-0.072776
-0.043945
0.005500
0.016546
-0.007579
0.100905
0.092028
0.087942
0.054014
0.090058
-0.053847
0.159321
-0.057656
0.023976
-0.050062
0.083086
-0.068484
-0.083517
-0.009554
-0.031374
-0.057685
0.000340
-0.127723
0.008726
0.069876
0.112958
0.049105
0.004096
-0.032729
0.069238
-0.086083
0.081884
0.018368
0.012542
0.015948
0.107843
-0.023096
0.079417
0.107191
0.076752
-0.035490
-0.098210
-0.031394
-0.126351
-0.106655
-0.030938
-0.051168
-0.084828
0.048620
-0.029965
-0.021745
-0.019970
-0.028305
0.064128
-0.157403
0.027707
-0.059202
-0.016232
-0.033065
0.097788
-0.004657
0.144525
0.055281
-0.031630
-0.108979
0.092582
0.058701
0.101131
0.053577
0.032318
0.003664
0.050143
-0.041927
0.070415
-0.082542
0.012292
0.239896
0.017376
0.021579
0.144478
-0.049636
-0.049486
-0.040845
0.128655
0.022819
0.071641
0.035542
0.041029
-0.043439
-0.017799
-0.082228
-0.023474
-0.004311
-0.035254
0.059074
-0.011561
-0.065987
0.145759
0.026252
0.052515
-0.009049
0.002112
0.109442
0.052742
-0.064436
-0.068127
0.010930
-0.026410
-0.018002
-0.044800
0.048249
0.075933
-0.063116
0.054480
0.100764
-0.088463
0.045850
0.064813
-0.060765
0.120201
0.070405
-0.039736
-0.024118
0.022685
-0.012453
-0.055848
0.038869
-0.030599
-0.093484
0.024367
-0.084235
-0.066456
0.006789
-0.012569
-0.017812
0.046091
-0.040625
0.060277
-0.054279
-0.030339
-0.140577
-0.027963
-0.022794
-0.044330
0.005183
-0.045301
0.084992
0.086944
0.036148
0.034478
-0.027421
0.093009
-0.073398
0.072881
0.006997
0.029266
0.006827
-0.032590
-0.032855
0.016789
0.093860
-0.068595
-0.085291
-0.033261
-0.060800
-0.024732
0.016514
-0.017161
-0.037669
-0.024398
0.062431
-0.015942
0.007548
0.087363
0.082839
-0.041804
0.084869
-0.054348
-0.086753
0.053390
-0.001670
0.090465
0.060682
-0.080844
-0.090097
-0.000198
0.035505
0.072280
0.029287
-0.046754
0.006796
0.074811
-0.087272
-0.029518
0.081764
-0.087223
-0.080907
0.032526
-0.080789
-0.049555
0.048976
-0.032621
-0.012359
-0.025755
-0.065746
0.085494
0.085353
-0.038122
0.014335
-0.082657
-0.078600
0.042384
-0.023786
0.012850
-0.034624
-0.066948
-0.009872
-0.073252
0.009270
0.068430
0.030671
-0.061410
0.053313
-0.051921
0.022821
0.046165
-0.032348
-0.090152
-0.059697
0.038447
-0.016995
-0.022888
0.058220
-0.072434
-0.014204
-0.052391
-0.044263
0.014177
-0.080955
0.078709
-0.090150
-0.011811
0.070593
-0.050343
-0.090438
-0.059157
-0.082977
0.009397
0.038406
-0.045523
0.027390
-0.082562
0.067773
0.030311
-0.050856
-0.052176
-0.071307
-0.043250
-0.031359
0.025079
0.057344
0.039563
0.085547
-0.044355
0.018683
-0.048611
0.055963
-0.002479
0.080190
-0.027983
0.000495
0.007404
0.006606
-0.050568
0.005503
-0.009391
0.089627
0.027929
-0.065040
-0.025804
0.001510
0.005839
-0.048023
-0.093390
-0.048017
-0.061462
-0.024225
0.015235
-0.070879
0.014316
-0.062192
0.038791
0.009727
-0.006377
0.002531
-0.085124
0.041619
-0.015202
0.064593
-0.031492
0.070726
-0.046219
-0.043164
-0.076729
-0.037411
-0.056874
-0.091017
-0.023107
-0.066962
-0.014325
-0.002413
-0.056394
-0.040390
0.011989
-0.026310
0.021234
0.149188
0.003094
0.091383
0.112466
0.005337
-0.069994
-0.062838
0.074730
0.043105
-0.031000
-0.001849
0.007625
-0.062949
0.066600
-0.053845
-0.037345
-0.062071
-0.028772
0.048570
-0.029463
0.015552
-0.084321
-0.018685
-0.055231
0.105862
0.109081
0.096753
0.008751
-0.098659
0.029991
0.007611
-0.045641
0.052962
0.123452
0.054320
-0.095357
-0.109578
-0.004377
-0.062596
0.098314
-0.086205
0.160162
-0.002215
0.004123
0.013871
-0.067516
0.073636
0.014252
0.072905
-0.071744
0.045111
0.008868
-0.161523
-0.036893
-0.023376
0.023593
-0.055138
-0.002275
-0.137022
0.062787
0.097921
0.068316
-0.014021
0.122987
-0.153353
0.027358
-0.058728
0.090815
-0.005952
0.122421
0.056272
-0.024449
-0.088053
0.098868
0.028735
0.033483
-0.135607
-0.076931
-0.038992
0.031294
-0.025814
0.004687
-0.058072
0.106539
-0.073810
0.125112
0.030400
0.041121
0.046780
0.018972
0.111799
-0.010915
0.029527
0.111417
-0.034518
0.140901
0.061686
0.093904
0.039260
0.051538
-0.009826
0.031876
0.087080
-0.072897
0.011814
0.010227
0.015446
0.007850
-0.111541
0.033397
-0.047378
-0.057611
0.116107
0.015313
0.006794
0.022777
-0.046813
0.006252
0.036727
0.004087
0.145836
0.042147
-0.086353
0.057894
0.033605
-0.078071
-0.086714
-0.040781
0.013122
0.045581
-0.028399
0.054990
-0.099538
0.046407
0.052444
-0.065479
0.033892
-0.087585
-0.022745
0.046176
-0.004077
-0.068056
-0.043341
-0.123117
0.099612
0.081895
-0.001415
0.065125
0.096053
-0.065354
-0.024881
0.069103
-0.007169
0.141773
0.044057
0.105430
-0.071861
-0.035060
-0.100101
0.069008
-0.067112
0.046070
0.117136
-0.065629
-0.073960
0.065651
0.084671
-0.018985
-0.104454
0.004845
0.001940
0.013339
0.077226
0.086792
-0.004447
0.122393
-0.042456
-0.012708
-0.128587
0.013869
0.016482
0.069642
-0.005338
0.081823
-0.074734
-0.102550
-0.029254
-0.075480
-0.020528
0.044353
-0.032016
-0.011169
0.034929
0.055099
-0.121864
0.069021
0.083909
0.080733
0.038191
0.072663
-0.047599
-0.107406
0.046742
0.062815
-0.015480
0.075491
-0.056471
-0.105193
-0.005241
0.160654
0.078290
-0.097952
0.028224
0.046677
0.090178
-0.053132
-0.062288
-0.053428
-0.111900
0.023627
0.055697
-0.093641
0.008805
0.003117
0.026405
0.061179
-0.038367
-0.099965
-0.088524
-0.016676
-0.001096
0.106252
-0.103051
0.093719
0.032398
0.022376
0.029002
0.084242
0.023704
-0.043111
0.011089
0.024436
0.078506
-0.000366
-0.027148
0.048152
-0.009080
0.062332
0.007801
-0.044453
-0.092476
-0.100837
0.014463
0.055943
-0.007487
-0.011402
0.020682
0.019341
0.138002
0.016054
-0.051003
0.155968
-0.042441
-0.001919
0.065388
0.009252
0.060304
0.042843
-0.088814
0.012873
0.003348
0.086493
0.018984
-0.082830
0.082798
-0.056291
0.090452
0.014364
0.027306
0.052200
0.081437
0.007699
0.016870
0.005774
0.039202
0.028891
0.030767
0.032225
-0.063434
0.012729
0.088239
-0.106508
-0.098075
0.057247
0.081787
-0.034390
-0.055230
0.077303
0.110440
-0.056532
0.042828
-0.064506
0.015620
0.050048
-0.099027
-0.029487
-0.049078
0.123813
-0.040998
-0.062800
0.037386
-0.011375
0.065610
0.018635
-0.021476
-0.075931
0.050190
0.030114
0.005409
0.023489
0.081836
0.064190
0.051489
-0.081406
0.070328
0.105096
-0.043205
0.127718
-0.029066
-0.094802
0.010976
0.019493
0.014230
0.068408
-0.048735
0.030908
-0.066291
0.037328
0.066031
0.090474
0.010146
0.149053
0.005910
0.062010
-0.087793
-0.066614
0.034649
-0.032437
-0.031499
0.006354
-0.034235
-0.091932
0.002543
0.018091
-0.002111
0.155900
0.070286
-0.041198
-0.013418
-0.084134
0.108552
-0.012137
0.054095
-0.062757
0.073056
0.048513
0.078641
0.042185
-0.031517
0.048521
-0.038786
0.083382
0.031439
-0.055319
0.000720
-0.084821
0.023957
-0.007773
-0.138564
-0.087859
0.054748
-0.160760
-0.100404
-0.042235
0.076965
0.016055
-0.052117
0.074431
0.070455
-0.019389
0.062698
0.010907
0.040573
-0.025054
-0.053327
0.065596
0.067605
0.037419
0.024039
0.042871
0.058233
-0.122323
-0.039858
-0.181730
0.033681
0.009666
0.025924
-0.072272
0.005241
-0.009664
0.084803
0.050530
0.137094
-0.059294
0.052667
0.017666
0.085570
-0.016579
0.026154
0.028813
0.120492
0.122414
0.050913
-0.027670
0.020417
0.008805
-0.142761
-0.069209
0.067967
0.071417
-0.058022
0.013028
0.009846
0.011195
0.040295
0.015913
-0.047846
0.019530
-0.143851
0.081767
-0.030310
0.056408
0.095999
-0.013529
-0.072063
-0.098833
-0.011090
0.115789
0.046434
0.091395
-0.009172
-0.023638
0.066395
-0.047932
-0.011537
0.023560
0.078395
-0.053586
-0.159116
0.003582
-0.147508
0.019767
-0.073179
0.038369
-0.098475
0.109414
0.037072
-0.041072
0.043271
-0.039804
0.081816
0.013687
0.056552
0.041811
0.105237
0.000127
-0.081659
0.109733
-0.063633
0.048685
0.092597
0.029028
0.059305
0.105482
-0.059014
-0.141389
-0.072821
0.128083
0.051292
-0.099242
-0.049070
0.072179
0.080262
-0.016489
0.036087
-0.037224
-0.015107
-0.018637
0.046848
0.115885
0.000480
0.082262
0.034372
-0.053769
-0.006440
-0.021946
-0.030651
-0.067650
0.005336
0.005421
0.068617
0.061686
0.005390
-0.000444
0.003420
-0.030479
-0.106870
-0.031768
-0.000089
-0.056594
-0.038716
0.021045
-0.071326
0.088940
-0.068528
0.068600
0.026304
0.043805
0.080051
0.024337
-0.080314
0.150114
0.007914
0.001199
0.043662
0.028829
-0.004512
-0.110900
0.032092
-0.037627
0.043699
-0.102858
-0.085217
-0.042130
-0.243128
-0.017759
-0.046117
-0.106360
0.020297
-0.150127
0.018598
-0.044153
0.036765
0.047888
-0.053091
0.077236
0.001658
0.047324
0.138753
-0.130421
-0.054739
0.110498
-0.040577
-0.023553
0.006262
-0.042814
-0.032153
0.037300
-0.066053
-0.014369
0.052931
-0.025650
-0.154147
0.027767
0.050830
-0.002549
-0.055930
0.082396
-0.006262
-0.064647
-0.105115
0.045200
0.079135
-0.072658
0.114868
-0.049504
0.091241
0.010037
0.017413
0.035524
0.078381
0.071420
-0.029145
-0.061816
-0.080939
0.049546
0.015131
0.094615
0.009269
0.103847
0.134559
0.166627
0.088733
0.120333
-0.045769
0.105362
0.019017
-0.042477
0.000284
0.042164
-0.009077
0.026322
-0.097445
-0.024760
0.010057
0.013104
0.013085
0.084297
-0.033425
-0.062514
0.032850
-0.127475
0.010919
-0.101168
0.171927
0.008668
0.004029
0.076126
0.133576
0.002029
0.011738
-0.075071
0.017623
0.092346
0.060880
-0.062863
-0.012460
-0.098450
0.042660
0.063139
-0.019775
-0.026581
-0.086754
-0.031054
0.062099
0.090066
-0.064784
0.092234
-0.001978
-0.024608
0.059191
0.128320
0.097640
-0.069598
0.090087
-0.070749
-0.048056
-0.032014
-0.107698
-0.050656
0.102311
-0.031609
0.017250
0.088659
-0.074908
-0.049154
-0.090931
-0.061583
0.032087
0.103201
0.047183
0.023938
0.002807
-0.014109
0.062942
0.016624
-0.089461
-0.077506
-0.034135
0.017753
0.081415
0.020201
-0.044061
0.010689
-0.006765
0.032799
-0.093825
0.148074
0.012406
0.041178
-0.023865
0.133830
0.070688
0.022507
-0.034374
-0.008562
-0.109788
0.138785
0.005260
-0.082137
0.033024
0.039874
-0.060039
0.034456
-0.029914
0.030309
0.048978
0.038888
-0.102617
0.042899
-0.130032
-0.098962
0.053312
0.011859
0.016721
0.101135
0.015854
-0.021465
-0.008082
0.012160
0.036422
0.057219
-0.041393
0.046079
0.070662
0.004684
0.065394
0.033661
0.082476
0.113369
0.048923
-0.056737
-0.070666
-0.109309
0.093749
0.052135
-0.062372
-0.012856
-0.073003
0.106447
0.013298
-0.008641
-0.144726
-0.084791
0.061985
0.046298
-0.029552
-0.048390
0.129742
-0.070708
0.103005
-0.024290
0.018134
-0.113593
-0.023595
0.131166
0.087866
-0.010361
-0.087514
0.091876
0.000575
0.080458
0.033940
-0.041997
0.083180
0.033579
0.037604
0.100579
0.091003
0.075018
-0.053287
0.044337
-0.067210
-0.065872
0.015837
0.101600
-0.081438
0.017953
0.048172
-0.074290
0.116059
0.115051
-0.028927
0.054421
-0.051210
-0.033836
-0.145343
0.027597
-0.007148
0.066250
0.072997
0.014838
0.022461
-0.048119
0.068770
-0.022067
0.025848
-0.034831
-0.132269
-0.025610
0.039603
-0.063923
0.062577
0.007137
-0.009557
-0.129832
0.099251
-0.096655
0.034145
-0.005356
-0.089907
0.010367
-0.095715
0.021936
-0.069634
-0.058050
0.002425
0.031371
0.024522
0.023736
-0.077127
-0.119096
0.057343
-0.047320
0.106256
-0.020500
0.013857
0.134001
0.011391
-0.049490
0.026748
0.089719
0.009685
-0.038857
0.081613
0.033961
0.020171
-0.014843
0.108025
0.070382
-0.051948
0.068124
0.091226
-0.028045
0.020808
-0.000358
-0.020544
-0.070747
-0.073026
-0.084769
-0.024319
-0.095476
-0.006778
0.054442
0.046078
-0.036948
-0.042996
0.072185
-0.035855
-0.056236
0.070031
-0.051645
0.120783
-0.095675
-0.017881
-0.080919
0.099096
-0.008478
0.064444
0.012350
0.064962
-0.040510
-0.119987
-0.137426
0.063792
-0.072771
0.039384
-0.020045
0.019296
0.006039
0.086321
0.033256
-0.074863
0.148478
-0.062535
0.019849
-0.028181
0.021585
0.049409
0.038552
0.107833
0.141371
0.124518
0.035181
0.046378
-0.070021
0.029755
-0.016834
0.087664
0.132456
0.025208
-0.155893
-0.064061
-0.012731
0.069128
0.115758
-0.087797
0.082927
0.066713
-0.003229
0.003052
-0.034429
0.103638
0.053232
0.076429
0.181464
0.081302
-0.093304
-0.021031
0.101119
0.043581
0.083389
-0.017070
0.071365
0.098378
-0.040118
-0.160132
-0.072400
-0.158429
-0.047953
0.051164
-0.091005
0.027761
0.046796
0.028593
-0.016364
-0.009765
0.025528
-0.032776
0.025724
-0.049130
0.003127
0.055214
-0.019326
-0.053807
-0.049485
0.016813
-0.045351
-0.085712
0.025128
0.064503
0.033880
-0.042346
-0.087075
-0.087677
0.033949
-0.002694
0.022421
-0.036984
0.059205
0.007779
-0.045586
-0.014360
-0.087494
-0.084243
-0.061771
-0.023544
-0.010481
-0.053932
-0.018687
-0.004428
0.060443
0.014073
0.059023
-0.050562
0.028296
0.005574
-0.022367
0.056057
0.041945
0.051159
0.072294
-0.082424
-0.037269
0.029247
-0.014693
-0.034409
-0.004660
-0.066068
0.082384
-0.010404
0.008688
-0.067557
-0.087988
-0.025817
0.066930
-0.057807
-0.050814
-0.046670
-0.049307
0.055832
-0.007417
-0.064836
-0.032158
-0.032367
-0.060145
-0.087990
0.042015
-0.037099
-0.050437
0.045534
-0.052434
0.008616
-0.041402
0.020918
0.079023
-0.056073
0.053568
-0.072797
-0.081748
-0.073113
-0.012574
-0.018261
-0.069206
-0.072335
-0.068580
-0.063988
-0.051096
0.045042
0.069008
0.001907
-0.050259
-0.067471
0.058518
0.048807
-0.022348
0.082261
0.073520
-0.023475
-0.089691
0.089161
0.059093
0.026873
0.005713
-0.034322
-0.062761
0.080108
-0.080787
-0.012532
-0.083773
-0.013435
0.071569
-0.041140
0.001419
0.100026
-0.041671
-0.035562
-0.062833
0.039978
0.028325
-0.057944
0.094368
0.003872
-0.037359
-0.044532
0.004892
-0.084202
0.018009
-0.018357
0.127815
-0.136069
0.059982
0.063789
0.051691
-0.121691
0.057876
0.018106
0.054348
0.070483
0.089105
0.087907
0.084211
-0.048875
0.002776
0.093772
-0.075545
-0.043022
-0.010345
0.029035
0.045042
0.045017
0.118125
0.001973
0.087842
-0.023488
0.084883
-0.011542
0.081229
0.037378
0.111922
-0.021935
-0.139677
-0.107562
-0.065349
0.036402
0.058749
-0.051691
-0.045937
0.139017
-0.003612
0.090295
-0.039308
0.087523
0.078334
0.082581
0.028025
-0.011487
0.021389
-0.053320
0.009024
-0.052085
0.058339
0.092294
-0.120755
0.014827
0.086024
0.080677
-0.053099
-0.068114
-0.008807
-0.078378
-0.023497
-0.004848
0.034813
0.081868
0.100842
-0.021060
0.066205
0.035344
-0.051499
0.048318
0.098856
-0.024914
0.062669
0.064444
-0.083653
0.092415
-0.037076
0.084388
-0.048612
-0.033671
0.165741
-0.070557
0.087734
0.071613
-0.009550
-0.022834
0.006075
-0.111201
-0.025186
-0.080658
0.053963
0.023163
0.010539
-0.057195
-0.030052
-0.008234
-0.005037
0.136142
0.038490
-0.090752
0.107794
-0.048945
-0.029140
0.106588
0.006037
-0.042809
0.030966
0.065870
-0.006640
0.073770
-0.028874
-0.057448
0.037959
0.007887
0.041140
0.022640
0.052178
0.076024
-0.050013
-0.065828
-0.048136
0.043755
-0.064340
0.019004
-0.125557
-0.042416
-0.079403
-0.049041
-0.025737
-0.102430
0.019057
0.086990
0.079380
0.103750
0.019624
0.015738
0.029061
-0.090647
0.035395
-0.019587
0.079224
-0.073580
-0.057242
-0.029402
-0.066320
-0.082449
-0.033233
-0.068490
0.038193
-0.095370
-0.072963
0.070506
-0.060435
0.048546
-0.106932
0.001191
-0.094708
0.058246
0.038302
0.020081
-0.091950
0.090884
0.161339
-0.030569
-0.079387
0.093319
-0.088802
-0.034988
0.012413
0.041276
-0.053590
-0.053602
-0.141468
0.075732
0.074490
-0.027023
0.041007
0.026526
0.060612
0.030424
-0.090087
0.174158
0.095123
0.081834
0.002702
-0.033952
-0.088160
0.015936
0.054245
0.001252
0.056912
0.056829
0.065269
0.112918
0.092411
0.082763
0.088900
0.101602
0.078605
0.027447
0.164424
0.101231
0.009637
-0.048842
0.040289
-0.006691
0.091957
0.003303
-0.066905
0.004055
0.045297
-0.016636
-0.039969
-0.024932
-0.033953
0.051228
-0.044631
0.046410
-0.028875
-0.050269
-0.189380
0.011350
-0.060943
-0.084981
0.062237
0.063885
-0.162422
-0.118162
0.013500
-0.067635
0.026897
0.046841
0.005976
0.043927
0.093879
-0.067365
-0.101827
-0.117157
-0.087208
-0.042060
0.072535
0.016308
-0.093022
0.047137
0.113432
-0.073912
0.058115
0.129088
0.029224
0.018852
-0.022457
-0.064822
0.029169
0.017891
-0.092533
0.024021
0.072589
0.093757
0.017765
0.065558
0.077611
0.033772
0.041954
0.104512
0.054461
-0.005134
0.037907
-0.034205
-0.076460
0.037197
-0.164413
0.072892
-0.027108
0.047331
0.151052
-0.044528
0.016056
0.022610
-0.016267
0.015956
-0.078563
-0.045614
0.029676
-0.003154
-0.051319
-0.048106
-0.016544
0.102754
0.002368
0.065354
0.175089
0.056126
0.029537
0.069195
0.030781
0.051405
-0.007163
-0.048064
0.101083
0.085411
0.023739
-0.135355
0.043682
-0.047255
-0.079698
0.043985
-0.043605
-0.108294
0.026940
0.019821
-0.094284
0.053120
0.133087
-0.073751
0.050741
-0.100303
0.078699
-0.003395
-0.000756
0.065479
0.061871
-0.027290
0.023524
0.002793
0.018240
-0.150103
0.031770
0.003269
-0.068791
0.028259
0.158298
-0.039833
-0.038905
0.025369
0.125629
-0.159110
-0.080283
-0.125717
-0.033442
0.013588
0.004268
-0.022064
-0.012197
-0.030483
0.062666
0.049437
-0.115820
-0.037243
-0.008816
0.004197
0.046954
-0.011571
0.031819
-0.019362
-0.025807
0.133988
-0.109150
0.029937
-0.033160
0.036340
-0.038985
0.001182
-0.047782
-0.077053
0.050648
-0.043799
0.072808
0.037545
-0.096152
-0.053105
-0.021649
-0.028291
0.035274
-0.005086
-0.036097
0.101322
0.046867
0.027376
0.044419
0.050074
-0.046913
0.039353
0.086344
0.121780
0.020074
0.081135
-0.008290
0.067532
-0.021619
0.071738
0.019315
-0.030379
0.113290
-0.000928
0.037190
-0.033255
-0.079118
-0.099982
0.097203
0.009261
0.010410
0.090686
0.160060
0.058834
0.064633
0.005368
0.050649
-0.048246
0.081749
-0.078241
0.030042
-0.017023
-0.038686
0.045480
0.085751
0.082437
0.015675
-0.028542
0.043865
0.035480
-0.008029
-0.108505
0.027962
0.111721
-0.126951
0.063175
-0.049768
-0.102184
-0.035050
0.021075
-0.013964
-0.059647
0.041764
0.151528
-0.065692
0.045380
0.114760
-0.036946
0.059843
-0.027624
0.065432
-0.065172
0.017036
-0.063731
-0.078399
0.108495
0.094037
-0.047976
0.083605
-0.000695
0.047420
0.006798
-0.058154
0.046828
0.157703
-0.009005
0.160975
-0.025297
0.182243
0.016605
0.047529
-0.102961
-0.049363
-0.094928
-0.112903
-0.044507
0.016584
0.136741
0.002586
0.067609
0.022697
0.057851
0.087302
-0.026571
-0.135636
-0.061684
-0.050488
-0.022705
0.049296
-0.037735
-0.054646
0.101164
0.062731
0.047283
-0.132170
-0.013090
0.095900
0.018837
0.090650
-0.020721
-0.021183
-0.040119
-0.039689
0.058792
0.057255
0.097901
0.040776
-0.109022
0.031537
0.005836
0.088544
-0.069777
-0.011651
-0.057651
-0.023181
-0.041810
-0.097434
0.047106
0.071124
-0.094364
-0.018398
-0.009490
-0.012796
0.126225
-0.030662
0.070529
0.027542
0.063205
0.061722
0.039445
0.034711
-0.102881
0.121499
-0.014113
-0.127928
-0.079974
0.063195
-0.116507
0.112563
-0.068664
-0.005575
-0.121662
0.045347
0.007566
0.088851
0.078874
0.092062
0.090937
0.035262
-0.046915
0.024156
-0.054763
0.105493
-0.022181
0.036865
0.023290
0.012106
0.053351
-0.016086
0.059832
-0.012140
0.033449
-0.065014
-0.078832
0.091563
0.035259
0.052620
-0.066625
0.057020
-0.036262
-0.035750
0.134603
-0.035951
0.060745
0.086086
-0.149312
-0.059542
0.041188
-0.041416
0.000343
0.020247
0.077866
0.121130
0.096515
-0.117989
-0.024330
-0.052269
0.075864
-0.009535
-0.030256
-0.078282
0.116939
0.017350
-0.012651
-0.046403
-0.135130
-0.048448
0.055582
0.004169
0.041047
-0.104551
0.024410
-0.025153
-0.062712
0.052643
-0.046760
0.012368
0.025229
0.006184
0.065262
-0.015658
-0.055615
0.087306
-0.035355
-0.107297
-0.017931
0.018871
0.007099
-0.011861
-0.220330
-0.084525
0.056667
-0.126094
-0.081589
0.105437
-0.071033
0.064679
-0.127050
0.072153
-0.074376
0.023416
0.108307
-0.115974
0.099370
0.014618
0.083822
-0.027143
-0.025452
0.086694
-0.002553
0.075626
-0.017780
0.017705
-0.063375
0.075580
0.004625
0.035755
-0.083945
0.035570
0.023940
0.067710
-0.045198
-0.166862
-0.042124
-0.062179
0.040986
-0.043794
0.016639
-0.078806
0.007691
0.133076
-0.038602
0.154847
0.007592
-0.031826
-0.069911
0.043327
-0.046050
0.127059
-0.027227
-0.007903
0.089779
-0.008138
-0.101834
0.128691
-0.028320
0.118434
0.093783
0.040343
-0.067749
0.023186
-0.053066
-0.057691
-0.058232
-0.005827
0.082895
0.082775
-0.023315
0.047481
0.043910
0.100304
0.047679
0.068135
-0.008772
-0.046935
-0.027679
-0.070493
0.158275
0.060909
0.084880
0.011532
0.108079
0.069910
0.139249
-0.052291
0.003777
-0.140044
-0.074168
-0.217518
0.054127
-0.132504
0.037887
0.040633
0.045829
-0.016331
0.052500
0.000390
0.019704
0.075780
0.081274
-0.023399
0.079780
0.043582
0.085225
0.041171
-0.037848
-0.110437
0.108188
0.028744
0.101690
0.111248
-0.057835
-0.032598
0.078929
0.062215
-0.067830
-0.084168
0.095373
-0.060328
-0.165274
0.017224
-0.092095
-0.037304
0.039078
-0.042182
-0.080403
0.075974
0.060623
-0.058423
-0.015520
0.062799
-0.037082
0.013613
-0.084180
-0.041791
0.067039
-0.067982
-0.013049
-0.025024
-0.071081
-0.010302
0.153155
0.042156
-0.099561
0.092089
-0.047307
-0.000288
-0.136290
-0.025009
-0.084027
0.023000
-0.091330
-0.102944
-0.056367
0.007477
0.067946
0.044758
0.054156
-0.063432
-0.074381
0.078117
-0.025360
0.153104
0.058214
0.074866
-0.013127
-0.087083
-0.100492
-0.007849
0.026140
-0.105052
-0.128977
0.001456
0.021992
0.063940
-0.068005
0.057904
0.134460
0.085540
-0.069723
-0.143829
0.024459
-0.080835
0.022857
-0.023315
0.000673
0.101060
0.073906
0.043935
0.027069
0.025642
-0.038132
0.037174
-0.028243
-0.078525
0.040796
0.073854
0.080210
-0.050799
-0.020989
0.108398
0.051208
0.113258
0.077451
0.108341
-0.052987
0.002898
-0.034908
0.058227
0.047083
-0.068761
0.054698
-0.013206
0.037680
0.050528
-0.098264
0.072207
0.018565
-0.024788
-0.069461
-0.099802
0.024800
-0.067514
-0.027162
0.110310
-0.022044
-0.008892
-0.108930
-0.050641
0.104821
0.066542
0.004810
0.064352
-0.072153
0.037808
-0.020536
0.003501
0.019611
0.063857
0.134835
0.011914
0.054027
-0.068051
0.096055
-0.017957
-0.015168
-0.039335
-0.078264
0.023958
0.038329
-0.082027
0.033633
-0.110137
0.060033
0.090366
0.041529
-0.088572
0.033787
-0.055234
0.085437
0.133429
-0.021416
-0.098415
-0.007730
-0.017203
-0.020602
0.114225
0.112885
-0.057899
-0.055003
-0.028142
-0.102085
-0.050581
0.073251
0.042058
0.016029
0.045633
0.064505
0.045472
-0.032528
0.029764
-0.065517
0.042708
0.026837
-0.097575
0.003473
0.004476
-0.135844
-0.031118
0.127330
0.079517
-0.054268
-0.059422
-0.073613
0.103371
0.018009
0.014243
0.028385
0.054509
-0.021045
0.031146
-0.071947
-0.060283
-0.008865
-0.016393
-0.094023
0.047766
-0.010889
0.087600
-0.078555
0.056640
-0.002118
-0.054744
-0.053974
-0.033128
0.048371
0.102250
-0.035756
0.084992
-0.051618
-0.120221
0.107054
0.047024
0.028446
-0.126866
-0.121950
-0.067057
0.056741
-0.184878
0.083593
-0.047422
-0.055424
0.048139
-0.034037
-0.007315
-0.004452
-0.106664
-0.034513
0.032388
-0.008093
-0.127290
0.049342
0.092414
0.087909
-0.131752
-0.077017
-0.108782
-0.155623
-0.096375
0.082109
0.067304
0.004736
-0.020370
0.044616
0.143807
0.001385
-0.037016
0.067683
-0.030501
-0.024424
0.026747
0.069358
-0.058016
-0.020717
-0.043760
0.039010
0.088991
-0.034926
0.037718
0.084675
0.013977
0.084392
-0.029096
-0.004164
-0.056953
0.018638
0.047437
-0.035005
0.030876
-0.015472
-0.030810
-0.071831
0.005122
0.107596
0.008525
0.110783
0.047300
-0.005856
-0.042135
-0.055007
-0.022778
-0.021879
0.003331
0.065144
-0.071411
0.006403
-0.013801
0.051779
0.115633
0.066300
-0.101000
-0.009497
0.023654
-0.047367
-0.114885
0.067251
-0.070581
-0.068324
0.047135
0.106359
-0.010171
-0.136553
0.006865
-0.004702
0.087116
-0.052451
0.105718
0.082959
0.115757
0.079769
-0.029032
-0.061763
0.095314
-0.177292
0.030001
-0.124083
0.004189
-0.070321
0.040535
0.097486
-0.082060
-0.010403
0.017244
-0.082158
0.117624
0.081352
0.042638
-0.081515
0.054872
-0.002119
0.145039
0.108416
0.053813
0.092577
0.055940
-0.107304
0.101080
0.079156
0.033279
0.083885
-0.057260
-0.001307
-0.036440
-0.046682
0.056510
0.108990
0.097553
-0.076040
-0.033629
-0.068623
-0.099841
0.011561
0.011385
-0.003403
-0.018961
0.080863
-0.058029
0.090087
-0.001808
-0.086995
0.086960
-0.008823
0.057907
-0.053450
-0.035972
-0.074440
0.046494
0.057756
0.013186
-0.021054
0.038554
-0.095988
0.060471
-0.081523
0.045199
-0.044375
0.008696
0.058661
-0.025270
-0.012408
-0.013060
-0.053909
-0.007703
-0.039021
-0.038972
-0.055693
-0.036058
0.044356
-0.028074
-0.028262
-0.055712
-0.059794
-0.073977
-0.051159
0.069921
-0.001864
0.054489
-0.015085
-0.043853
0.018965
0.077951
0.096561
0.031830
0.017882
0.063666
-0.067170
-0.064645
-0.029493
0.062943
-0.028889
-0.064363
-0.002937
0.090095
0.041163
0.027063
-0.009387
0.011146
0.105283
-0.046191
0.076501
-0.075760
0.123317
-0.074346
0.091431
0.034917
0.003922
0.007819
-0.055078
-0.049884
0.007109
0.035257
0.029686
0.091322
-0.052644
0.068750
0.075955
0.033359
0.032554
0.041277
-0.038879
0.024229
0.026464
0.050109
-0.048698
-0.018426
-0.013351
0.054192
-0.026750
0.005510
-0.022707
0.023278
-0.074976
0.077086
-0.043676
0.079031
0.024779
0.042013
-0.011879
-0.030621
-0.050901
0.038281
0.059671
0.025102
-0.035222
-0.063671
-0.197367
-0.027539
0.070690
-0.090348
0.116260
0.110030
0.040346
0.093060
-0.009031
-0.068173
-0.023153
0.000033
-0.058248
0.103353
-0.084516
-0.109935
0.121453
-0.074503
-0.113716
0.064471
0.052403
-0.025941
0.071530
0.009985
-0.008722
-0.015370
0.086229
0.049930
0.036779
-0.049394
0.050739
-0.017811
-0.013168
0.082627
0.046588
0.040467
-0.054831
0.048724
0.044994
0.028317
-0.058194
-0.006336
-0.038929
-0.075454
0.095653
-0.045405
-0.174102
-0.036139
0.019228
0.047061
-0.025026
0.118987
-0.016739
-0.065049
-0.026291
0.027894
0.085722
-0.117732
0.039003
0.016093
0.087823
0.057302
-0.015575
0.087980
0.046372
-0.028460
0.026724
-0.088962
0.054261
-0.096791
0.035083
-0.001175
-0.123795
0.059080
-0.074526
-0.048348
0.119639
-0.018635
0.118988
0.029043
0.132040
0.091772
-0.025310
0.045648
-0.019204
0.061431
-0.050609
0.116349
0.080267
0.007297
-0.028787
0.084133
0.079548
0.036007
0.031754
-0.010228
-0.015690
0.080227
0.005913
-0.030652
0.010038
0.042645
-0.026361
-0.048563
-0.059277
-0.133705
0.101544
0.080458
0.072420
-0.069418
0.076071
-0.044291
-0.034115
0.073937
-0.037563
0.051400
-0.078437
0.044458
0.088731
0.046530
-0.001297
0.039663
0.083192
-0.025926
-0.009767
-0.124559
-0.019667
0.050842
-0.010730
-0.017229
-0.075965
0.134347
-0.086805
0.097896
0.049442
-0.115704
0.095739
0.108770
-0.005504
0.081286
0.073793
0.109698
-0.008758
0.118672
0.139574
-0.016550
0.055913
0.067567
0.083539
0.099594
0.069692
0.104116
0.074466
0.124500
0.087614
0.033180
-0.094714
-0.037136
-0.001023
0.021820
0.034561
-0.075758
0.054715
0.032545
-0.040124
0.058187
0.109178
-0.073857
0.070125
-0.082027
0.060136
-0.004483
0.179327
0.068376
0.081872
0.038396
0.003158
-0.083141
-0.082123
0.022288
-0.040446
-0.052777
-0.042906
0.071459
-0.081039
-0.102873
-0.006946
0.012268
-0.008978
0.010239
0.035684
0.078415
0.106563
-0.104045
0.001957
0.111128
-0.002410
0.061956
-0.093563
-0.052708
-0.106121
0.064648
0.020116
-0.010100
0.091632
-0.018538
-0.088133
-0.044061
0.010047
-0.049386
0.016453
0.023935
-0.021420
-0.008981
-0.084421
-0.006809
0.000076
0.001331
0.094291
0.060342
-0.018937
0.071320
-0.136445
0.106723
0.017574
-0.064862
-0.070805
-0.034243
-0.008821
-0.141280
0.036795
0.003806
0.047277
-0.045075
-0.068700
-0.022381
0.032656
0.105823
0.069270
0.134419
0.032631
0.049286
0.149150
0.077376
-0.054808
0.076204
0.023059
-0.021086
0.025516
-0.044450
0.032329
0.107719
0.071112
0.043031
-0.009089
-0.055029
0.111250
-0.070663
-0.053208
0.089927
0.034909
0.038937
0.037362
-0.052112
0.081652
0.078457
0.027786
-0.016352
-0.050879
0.074497
0.029830
0.027007
0.144875
-0.046386
0.030729
-0.011830
-0.074743
-0.089591
0.011695
-0.056503
0.047132
-0.058364
-0.064628
-0.035897
-0.030418
-0.154982
-0.111914
-0.015233
0.116359
0.041178
-0.008224
-0.019592
0.117984
-0.074381
0.118251
-0.036673
0.063111
0.131030
0.089084
0.016045
0.051590
-0.008292
0.002788
0.086771
0.025973
-0.081610
-0.011852
-0.171447
0.056335
-0.055542
-0.080927
0.074248
0.071357
-0.041936
0.029344
0.019291
0.027544
-0.021274
0.074296
-0.051280
0.023823
-0.052719
-0.145960
0.056273
0.075926
0.134120
-0.068253
0.068561
0.126578
-0.026315
0.000785
-0.044542
-0.008532
-0.046316
0.048236
0.076916
-0.017048
0.007985
-0.045832
-0.055218
-0.006994
0.071222
-0.065913
0.076280
-0.106111
-0.024287
0.086204
-0.072750
-0.069182
-0.046570
-0.052090
0.074016
0.005031
0.180226
-0.068449
-0.114715
0.054745
0.081071
0.030564
0.115758
0.157250
-0.018116
-0.171556
-0.083269
-0.029676
0.023249
-0.085129
0.084088
0.045911
0.072252
-0.017673
0.099041
-0.032520
-0.041365
0.030204
0.067804
0.082247
0.066571
0.068435
0.115566
0.074085
0.025935
0.079495
0.022563
0.089252
0.006413
0.036143
0.079689
0.022749
-0.064674
-0.087602
0.084697
0.100848
0.045805
-0.057167
0.071727
0.038481
-0.015799
-0.076827
0.040521
-0.003874
0.068627
0.019725
0.051166
-0.057387
0.147560
0.162497
-0.025993
-0.139008
0.049596
-0.086148
-0.025911
-0.017607
0.059187
-0.025951
0.051575
-0.019763
-0.132433
0.022469
-0.013415
0.050493
-0.049856
-0.052416
-0.088435
-0.032277
-0.032927
0.081723
0.055819
0.067456
0.089202
-0.075453
0.055800
0.107823
0.085718
0.010135
0.089071
-0.176808
-0.060639
-0.009807
-0.084869
0.027640
-0.090636
-0.031887
0.041377
-0.005990
0.005294
0.079001
-0.045833
-0.046653
-0.053283
0.101708
0.013731
0.075414
-0.070486
-0.052702
-0.070212
0.066337
0.099925
-0.022522
0.058461
-0.019060
0.061319
0.078701
-0.045590
-0.059373
0.004433
0.067414
0.082206
-0.003275
-0.056400
-0.050332
-0.065713
0.030575
-0.082944
0.045758
-0.039006
-0.073877
-0.081557
-0.025473
-0.007839
0.056697
0.036468
0.080433
-0.035694
0.076497
0.066289
-0.062672
0.097401
-0.023808
0.087195
-0.067539
0.006400
0.011386
-0.015241
0.031744
0.067419
-0.009761
-0.075868
0.103982
0.010156
0.073690
-0.045486
-0.042073
0.006282
0.090312
-0.051236
-0.066155
0.024945
0.078108
0.066852
-0.032345
-0.035388
-0.099225
0.090598
-0.023540
0.063254
0.041158
-0.078014
0.092094
0.066597
0.014840
-0.079973
-0.074986
0.003139
-0.068108
-0.074591
-0.048058
0.061152
0.067712
-0.036358
-0.075511
-0.060729
-0.053120
0.089941
-0.007499
0.082802
-0.061224
-0.019208
-0.022478
0.048228
0.045977
0.032765
0.048404
-0.003374
0.000723
-0.031909
0.073637
-0.045588
-0.027674
0.067379
-0.036177
-0.075431
0.016520
0.094558
-0.014761
-0.039426
-0.012791
-0.074267
-0.039336
-0.046011
-0.039301
0.065415
0.022741
0.036356
0.064493
-0.003203
0.030962
-0.046978
0.045414
-0.029826
-0.031222
-0.081925
0.059912
-0.059541
0.021604
0.060238
-0.009377
-0.037706
-0.106700
0.000119
-0.121285
0.071431
-0.055939
-0.014468
-0.017822
0.010271
-0.035143
-0.038229
0.031222
-0.094796
-0.049878
-0.034024
0.063309
-0.110532
0.054986
0.027415
0.136515
-0.117551
0.080412
0.014891
-0.153543
-0.038348
-0.163507
-0.026176
0.028259
-0.015462
0.064549
-0.082506
0.060660
0.077673
-0.079307
-0.056148
-0.055986
0.102041
-0.090779
0.050710
-0.073449
-0.052800
-0.059566
-0.087705
-0.088671
-0.018720
-0.012553
-0.027012
0.057685
-0.027475
-0.012353
0.031631
-0.026492
0.049610
-0.036082
-0.042129
-0.001929
0.043773
0.070864
0.039100
0.122525
0.098502
0.101839
-0.072054
0.081523
-0.042410
0.125222
0.056839
0.096855
0.194020
0.004591
0.014924
-0.056789
0.112105
0.120157
0.095700
-0.056383
-0.033987
-0.055106
-0.023623
0.118690
-0.055701
0.038576
0.155899
0.022607
-0.007614
0.119883
0.063481
-0.101259
0.035965
0.089120
-0.067150
0.046817
0.026237
-0.028141
0.095229
-0.008520
0.063638
0.053503
-0.069488
-0.068313
-0.001934
-0.033303
-0.106026
-0.004683
-0.086639
0.140214
-0.045143
0.011988
-0.081679
-0.070356
-0.022892
0.074591
0.026251
-0.004510
-0.004453
-0.042840
-0.013792
0.074501
-0.052551
-0.115929
0.017110
0.044402
-0.009660
0.109438
0.083445
0.065179
-0.075767
-0.037841
0.045005
0.032327
0.039870
-0.002407
0.110522
-0.024743
0.003423
-0.075095
-0.102347
0.014776
-0.049877
0.013100
-0.108042
-0.031667
0.036564
0.079455
0.042037
-0.003901
-0.002238
0.097443
0.057706
0.057190
-0.024681
-0.104497
-0.049102
0.126675
0.139090
0.070493
-0.004700
0.086961
0.049680
0.063357
-0.010806
0.031617
-0.067542
0.005759
0.062491
0.017891
-0.044418
-0.117435
-0.076356
0.066992
-0.155537
0.021225
-0.038329
-0.025266
-0.105298
0.069407
0.110006
-0.079604
0.049140
0.062387
-0.035135
0.042570
-0.072316
-0.020878
0.078150
-0.099924
0.098515
-0.071743
-0.047712
-0.122844
0.026706
-0.052393
-0.064792
-0.033527
-0.054028
0.065578
0.056014
0.007194
-0.026331
0.035138
-0.088814
0.053804
-0.006268
0.067974
0.022309
0.062354
0.109249
0.027510
-0.055792
0.108206
0.013860
0.023207
-0.116815
-0.044245
-0.058069
0.011305
0.082703
-0.037337
0.020251
0.020378
0.029162
-0.093413
0.030835
-0.054575
0.117817
0.051185
0.094535
-0.019009
0.067600
-0.046290
-0.103427
-0.004862
0.071157
0.011299
-0.093953
0.066369
0.008494
-0.044702
0.036116
-0.046506
-0.058966
-0.010844
0.109717
0.110176
-0.073004
0.124124
0.017135
-0.033238
0.074585
-0.003686
0.100347
0.082607
-0.104722
0.087887
-0.157349
-0.007608
0.031729
-0.064236
0.124532
-0.070820
0.017631
-0.032032
0.022447
-0.064284
-0.088355
0.060034
-0.017242
0.076260
-0.125803
-0.086309
0.090094
0.098957
-0.060933
-0.050492
-0.135288
-0.076559
0.126527
0.008511
-0.059230
0.036095
0.031919
-0.002618
0.097255
-0.055166
0.098800
-0.095770
0.114223
-0.036672
0.091542
-0.006505
-0.128676
0.093473
-0.079342
0.034968
0.056656
-0.013251
0.086303
-0.076956
0.047120
0.024754
0.080541
0.016463
0.059590
0.073272
-0.081965
0.076462
0.007627
-0.034753
-0.043641
-0.133313
0.049973
-0.084967
0.024848
-0.049107
0.067852
0.032553
-0.068651
0.107518
-0.021912
-0.078878
-0.093622
-0.042209
0.066601
-0.049915
0.020232
0.007459
0.010848
0.078882
-0.109998
-0.016213
-0.115937
0.000757
-0.090410
0.015751
0.072103
0.030480
-0.006128
-0.009488
-0.063673
0.004840
-0.015456
-0.025474
-0.041529
0.068875
0.138751
0.083566
0.080537
-0.043291
-0.039101
0.013199
0.079712
0.066011
0.072123
0.016274
0.060045
0.068801
0.061983
0.049861
0.017983
0.103930
0.006264
0.052380
0.044907
0.040064
0.068522
0.065589
-0.017829
-0.056524
-0.064810
-0.021465
0.023746
-0.013495
-0.020727
0.015301
0.105338
0.026009
-0.100697
-0.008468
0.029980
-0.004297
-0.064517
-0.075363
-0.063938
-0.106307
0.043703
0.149334
0.059521
-0.118634
0.170931
-0.087542
0.061572
-0.042745
0.023387
-0.148931
0.033232
-0.009998
0.048913
0.088419
0.048291
-0.057409
-0.029255
-0.086273
0.041847
0.012422
0.108280
0.044910
0.055778
0.018706
0.004891
-0.005876
0.056674
-0.038606
0.001315
-0.072465
-0.054783
-0.060931
0.017202
0.014103
0.103237
-0.073724
0.015878
-0.076790
-0.062301
0.070113
-0.004747
-0.024572
0.005690
-0.023904
0.033793
0.042300
0.027594
0.177774
-0.038732
0.066251
-0.056975
0.006314
-0.024331
0.044563
0.092982
-0.077910
0.037437
-0.013195
0.010608
-0.107264
0.085889
-0.038917
0.034533
0.059763
0.145255
0.010833
0.041610
0.043446
-0.017542
0.019103
0.007108
-0.056990
-0.071819
0.029105
0.203432
0.061129
0.008690
-0.147929
0.012918
0.026994
-0.049728
0.035479
0.055508
0.052423
-0.064109
-0.071411
-0.045324
-0.021916
-0.092407
-0.019571
0.034505
-0.053470
-0.044755
0.071761
0.004157
-0.022959
0.071135
-0.054855
0.131032
0.023829
-0.086681
-0.039196
0.000624
-0.001544
0.040377
0.040852
-0.063965
0.083688
-0.028301
0.075363
0.017143
0.037529
-0.004136
0.051012
0.015651
-0.015330
0.058960
-0.048234
0.085432
0.107733
0.036917
0.005197
-0.024816
0.098557
-0.049764
-0.066210
0.012160
-0.053274
0.013932
0.053996
0.065348
-0.030603
-0.085873
-0.010901
-0.138137
0.038752
-0.006173
0.040947
-0.001518
0.013195
-0.003308
-0.011419
0.026202
-0.093874
-0.004207
-0.033874
-0.041760
-0.060995
0.094096
-0.078932
-0.070415
-0.038094
-0.054176
-0.070037
-0.032261
-0.036221
-0.013749
0.080147
-0.084776
0.008406
0.011304
-0.002439
-0.056072
0.007799
-0.028857
0.034510
0.062160
-0.018133
-0.036176
-0.125298
0.066304
0.087620
-0.011925
0.038352
-0.059442
-0.006936
-0.030300
-0.032433
-0.135602
-0.047483
0.066397
-0.090761
-0.030083
-0.058751
-0.095131
-0.016340
0.032925
-0.021546
0.067156
-0.072402
0.070512
0.079950
-0.088121
-0.127787
-0.045877
-0.029794
-0.068050
0.022251
0.046031
0.075627
0.079974
-0.081824
-0.050745
-0.064985
0.062248
0.051553
0.065215
0.118816
0.025404
-0.046136
-0.023193
0.000777
0.020184
0.060929
0.046393
0.034148
0.037158
-0.033967
0.046016
-0.011968
0.039517
0.015172
0.003300
0.061209
-0.040118
-0.053087
-0.024331
-0.019275
-0.079795
0.049597
-0.125273
0.057427
-0.031439
-0.071811
0.107440
-0.035546
-0.106664
0.029310
0.049648
0.032405
-0.025316
-0.097287
0.048473
0.048625
-0.052452
-0.041461
0.070411
0.097986
-0.111566
-0.077637
-0.006663
0.143194
-0.052640
-0.036055
0.072899
-0.112435
0.091189
0.132038
-0.158391
0.081884
0.036592
-0.085617
0.076707
-0.104833
0.089931
0.067364
0.039936
0.056457
0.093976
-0.044387
0.075288
-0.110109
-0.030983
0.052357
-0.059719
0.005312
0.091301
-0.068536
0.050323
0.092340
-0.067205
0.069319
0.049010
-0.076603
0.034309
0.063877
0.110015
0.087346
0.013088
0.042239
0.041178
0.025447
0.042434
0.054455
0.059591
-0.122507
0.005179
0.071894
-0.023276
-0.064480
0.023393
-0.023079
0.095942
-0.031151
0.100198
-0.088750
-0.008277
0.009163
0.043082
-0.051862
-0.005541
0.070749
-0.015677
0.049529
-0.094912
-0.000875
-0.030498
-0.118829
0.015580
-0.072407
-0.006800
0.076800
-0.002661
-0.068812
0.023313
0.054491
0.059852
0.097297
-0.006316
0.090470
-0.000526
0.085069
-0.046008
0.112918
-0.079654
0.081309
0.053268
0.066451
0.094714
-0.104825
-0.056564
0.015834
-0.022153
-0.015620
-0.066154
0.042899
0.095808
-0.024326
-0.007392
0.086708
-0.076795
-0.037365
-0.059809
0.048673
-0.031159
-0.007816
-0.045609
-0.054846
0.013104
0.016280
0.030895
0.066658
0.056910
-0.061220
0.078360
0.031680
-0.081058
-0.047732
0.032608
0.083370
-0.020579
0.058582
-0.082784
-0.072867
-0.015716
-0.036001
-0.034525
-0.054729
0.013049
-0.053469
0.014940
0.076202
-0.048040
-0.004954
-0.019672
-0.009621
0.044867
0.034846
-0.055486
-0.047813
0.084414
0.040346
-0.065193
0.031284
0.033787
-0.078937
-0.043990
0.004596
0.067200
-0.045099
-0.089692
0.039164
0.000082
-0.090259
-0.006065
-0.076740
-0.062372
0.024327
-0.038818
-0.082514
0.058683
0.065360
0.041876
-0.043308
0.055160
0.085906
-0.065838
-0.077856
-0.083387
0.053993
-0.028343
0.070325
-0.044794
0.060172
-0.043017
-0.046177
0.081329
-0.051558
-0.078246
-0.066670
0.069954
0.059582
0.020983
-0.025789
0.024350
-0.047718
0.032950
0.015881
-0.041730
-0.040430
0.013723
-0.083154
-0.009969
-0.046203
0.066993
-0.043173
0.044356
0.081853
0.023012
0.056800
-0.003415
-0.090190
0.052745
0.014205
-0.036775
-0.080163
0.049887
-0.040293
-0.040440
0.017577
-0.017835
-0.011981
-0.067972
-0.034206
-0.013415
0.025338
-0.088446
-0.060779
-0.052532
-0.074366
-0.029711
-0.064969
0.082970
0.056560
0.077606
-0.049927
-0.076496
0.007972
-0.027612
-0.093626
-0.061762
0.006955
0.043428
-0.048065
-0.116274
-0.044234
0.022918
0.057359
-0.019323
-0.028677
0.083383
0.022404
-0.047142
-0.023447
-0.074990
-0.006060
0.010034
-0.068411
-0.018184
-0.002742
0.033313
-0.022461
-0.074437
0.000617
0.095064
0.061630
-0.021837
-0.070755
0.063946
-0.050595
-0.039412
0.036617
-0.086119
-0.079200
-0.077921
0.056521
0.029138
0.027483
-0.044774
0.067053
0.034277
0.078100
0.052298
-0.007100
0.052891
-0.046865
-0.072192
-0.065967
-0.037083
0.082751
-0.004045
0.042805
-0.020328
-0.049432
-0.069576
-0.052724
0.004820
-0.056893
0.013722
0.035550
0.077433
0.019701
-0.078276
-0.099914
-0.083568
-0.076290
0.078451
-0.087453
0.091704
-0.024170
-0.063501
0.075490
-0.082830
-0.021917
0.080460
0.030382
-0.000744
0.019177
-0.027084
0.052947
0.044304
0.092169
-0.086513
0.003873
0.092918
0.090069
0.055897
0.011550
-0.039370
0.105026
-0.049670
0.067823
0.081980
-0.057414
-0.018391
0.053385
-0.052637
-0.011037
0.106859
0.022242
-0.046192
-0.020304
-0.004510
-0.049373
-0.087926
-0.035556
-0.005563
0.012025
-0.071652
0.024912
0.075847
-0.021874
-0.077773
-0.066292
-0.024399
0.083984
-0.008971
0.092502
0.092103
0.029469
-0.013963
0.151276
-0.055678
0.102397
0.061742
0.026877
0.086256
-0.033129
0.087694
0.017885
-0.006553
0.063029
0.015336
-0.137013
-0.091761
-0.029308
-0.055106
0.021634
0.038776
-0.034706
0.033108
-0.035093
0.013852
-0.116120
-0.039571
0.083655
-0.019360
-0.026997
-0.032743
0.101454
0.015469
0.097098
0.091291
0.014901
0.077424
0.031644
0.070865
0.036110
0.059532
-0.017300
-0.065633
-0.081932
-0.057421
0.003043
-0.083688
-0.041793
0.060622
-0.025386
-0.043895
-0.052530
0.056016
0.068381
0.032850
0.093631
0.042984
0.019581
-0.033434
-0.020330
0.169131
0.020256
0.089993
0.118363
-0.103936
-0.056388
0.087728
0.100739
-0.194889
0.040657
0.077454
-0.023810
-0.079073
-0.037819
-0.035184
-0.148525
-0.076514
0.052970
-0.028657
-0.032205
0.008858
0.073813
-0.025989
-0.010894
0.037279
-0.078445
-0.039485
-0.073829
0.051537
0.160540
-0.074818
0.000937
-0.053705
0.082753
-0.058613
-0.097389
0.163903
-0.154326
0.108120
0.000374
-0.171418
0.028299
0.011831
0.116777
0.026268
0.045523
0.030814
0.052898
-0.057857
-0.102250
0.039621
0.050254
-0.041622
0.096311
0.103420
0.015823
-0.065194
-0.091563
0.039113
-0.054332
-0.034912
0.007992
0.004838
-0.093373
-0.078553
-0.066177
-0.144247
0.053481
-0.000109
0.077409
-0.059161
-0.026361
0.026088
-0.151010
0.050015
0.106838
0.063275
0.040878
0.061162
0.099508
-0.018102
0.055022
0.120204
0.025107
-0.022715
-0.034750
0.090911
-0.009861
-0.044300
0.037533
0.088512
0.044437
0.060638
-0.091581
-0.071318
-0.032115
-0.042820
0.078083
0.008712
0.045046
-0.086065
-0.100331
-0.029941
0.019605
-0.076725
0.043402
-0.026548
0.137050
-0.033908
0.022626
-0.045761
0.032871
0.041400
-0.058057
-0.086812
-0.019678
0.021658
-0.044688
-0.007159
0.037129
0.026099
0.017572
0.004025
-0.044907
0.070168
-0.061485
-0.092806
-0.014064
0.167817
-0.060329
0.048150
-0.084522
-0.016500
-0.088142
0.036619
0.102117
0.062920
-0.095373
-0.076952
0.129362
0.066408
0.060658
0.089248
0.079300
0.114826
0.034001
-0.078945
0.007968
0.023536
-0.092577
0.101274
-0.134729
0.102573
-0.093166
0.031378
0.117790
-0.177155
0.163757
0.073722
-0.016728
0.033032
0.027956
0.102972
-0.060777
0.018185
0.011042
0.020242
0.057140
-0.025198
0.052048
0.072266
-0.020606
-0.075672
-0.076735
0.007454
-0.017920
0.030264
-0.068007
-0.014014
-0.030150
-0.091385
0.049134
0.023297
0.090153
-0.015261
0.042815
-0.058811
0.077890
0.052928
-0.069699
0.027753
0.036149
-0.067166
-0.014944
-0.032503
0.025846
0.028112
-0.057716
-0.032188
0.033804
0.074328
-0.081069
0.074684
0.003178
-0.093942
0.078305
0.011910
0.008257
0.079038
-0.095013
-0.028882
0.052848
0.010619
-0.055815
-0.030667
0.073678
0.041639
-0.015742
-0.018068
-0.056155
-0.062024
0.057732
0.081483
-0.042654
0.054968
-0.091983
-0.007863
0.000055
-0.093470
0.008627
-0.028609
0.070633
0.030466
0.071722
-0.004225
-0.005542
0.034144
-0.094011
-0.072952
-0.041814
-0.068457
0.062435
0.015071
0.072831
0.037963
0.080042
0.038244
-0.090286
0.026784
-0.033615
-0.066408
-0.051855
-0.031283
-0.040431
-0.068622
0.063007
0.028047
-0.062764
0.010547
-0.055037
-0.041663
-0.026187
0.042707
-0.055781
-0.018312
-0.018094
-0.023387
-0.064951
-0.076719
-0.018621
0.071312
0.005757
-0.001109
-0.003381
0.072161
-0.054069
0.035602
-0.067687
-0.074870
-0.056984
-0.000809
0.019323
-0.023978
0.010494
-0.051833
0.028768
-0.033599
-0.068989
-0.049386
0.056361
0.000053
-0.062663
-0.089393
-0.066623
-0.064137
0.041795
-0.027990
0.017610
-0.046596
-0.076944
0.070225
0.048415
0.104580
0.041713
0.088223
0.062697
-0.064620
-0.030839
0.041404
-0.020481
-0.064519
-0.071444
-0.005479
-0.023552
0.084661
0.008504
-0.055791
0.028745
0.046828
-0.013533
0.048372
0.002064
-0.015070
-0.083477
0.015484
-0.069536
0.043836
0.105090
-0.059174
-0.065154
-0.015613
0.106220
0.079375
-0.102648
-0.035929
-0.010285
0.012596
-0.013619
0.024440
-0.058446
-0.073255
0.069117
0.054988
-0.057130
0.085414
-0.062475
-0.025599
0.000636
-0.011621
-0.021272
-0.047673
-0.032743
-0.066636
0.041296
0.067322
0.027543
-0.083062
-0.095780
-0.016346
-0.000045
-0.150425
0.083867
-0.029527
-0.086244
-0.078694
0.088763
0.101330
0.062019
0.082375
-0.070447
-0.091597
0.059426
0.003695
0.002066
0.000392
-0.065857
-0.071612
0.031778
-0.054388
0.078221
0.079573
-0.044882
0.037919
-0.065043
-0.048974
-0.041279
-0.055490
-0.056121
-0.044470
0.048063
0.081898
-0.048255
-0.079436
0.104838
-0.015392
-0.070021
-0.054255
0.009729
-0.049617
-0.074731
-0.000690
0.040475
-0.011079
0.000666
0.079706
-0.051474
-0.061676
0.072889
0.080155
0.003872
-0.040344
0.002530
-0.035584
0.054671
0.035220
-0.056090
0.109008
-0.038998
0.058938
-0.069246
-0.058874
-0.008815
-0.054418
0.084757
0.065376
0.045720
-0.059031
-0.072645
0.063118
-0.034921
0.043407
-0.090315
0.020927
-0.030642
0.030829
-0.005043
-0.105251
0.037038
-0.007148
0.056783
0.091023
0.022066
0.028218
0.019387
0.025368
0.024912
0.002223
-0.042686
-0.011018
0.108619
0.009251
0.062956
0.067843
0.111772
0.043516
-0.047250
0.091256
0.065791
0.113698
0.004263
0.029805
-0.028087
-0.030154
0.076943
-0.015917
0.036772
0.036393
0.019085
0.057696
-0.040354
-0.068624
-0.059753
0.086891
0.131720
0.032323
-0.010978
0.092441
0.010270
0.090589
-0.029666
-0.061063
0.059351
-0.039496
-0.054326
0.035760
-0.046388
-0.044283
0.036091
0.003494
0.048914
-0.082300
-0.043117
-0.011744
-0.106160
-0.107201
-0.077772
0.077559
-0.017651
0.047470
0.040014
0.137983
0.035103
0.084273
0.023713
-0.087235
-0.043796
0.089926
0.012577
-0.017866
0.028681
-0.081410
0.069432
0.063451
0.027689
0.039561
0.014644
-0.051748
0.128825
-0.038088
-0.077981
-0.079425
-0.047306
-0.046616
-0.063187
-0.003145
-0.091109
0.000336
-0.029784
-0.007837
-0.014896
-0.141468
0.060559
0.031176
0.054734
0.144320
-0.052209
-0.077626
0.003778
-0.084884
-0.014472
0.005132
0.015732
-0.058097
0.026165
0.010432
-0.105111
-0.145747
0.061753
-0.012422
0.055418
0.113185
0.100435
0.108842
-0.021727
0.031516
0.014910
-0.006727
0.032016
-0.038464
0.116624
0.033921
0.064896
-0.068670
0.075069
-0.003064
0.008623
0.075985
0.032126
0.010932
-0.005959
0.055903
-0.053252
0.043733
-0.073831
-0.057164
-0.038625
0.018106
-0.039254
-0.007539
0.080421
-0.069202
-0.117132
0.037433
-0.019643
-0.017422
-0.011534
-0.059922
0.169746
-0.105310
0.067229
-0.009897
-0.039537
0.003321
0.080492
-0.067142
0.005668
0.027187
-0.094819
-0.044143
-0.013500
-0.063551
0.070825
-0.098175
0.100181
0.075660
0.023063
0.051359
-0.007474
-0.069913
0.014711
-0.052919
-0.063559
-0.008018
0.027735
0.015161
0.025790
0.091685
0.096303
0.064205
0.033363
-0.097715
-0.058377
0.015842
0.077112
0.008325
0.157683
-0.103014
-0.012837
-0.078244
0.061850
0.078819
0.032608
0.032802
-0.080494
-0.068593
0.067763
0.137448
0.052667
-0.044381
0.084492
0.058113
0.126626
0.051274
-0.047958
0.117161
-0.050880
0.101712
-0.029573
-0.020090
0.049713
0.050224
-0.076818
-0.066779
-0.144326
-0.080414
-0.004425
0.055913
0.019929
0.125399
0.050782
0.044448
-0.095382
0.108112
-0.022721
0.030288
0.000292
-0.108895
0.069755
0.059255
0.032475
0.029779
-0.158889
0.045252
-0.142258
-0.004915
-0.014992
-0.123703
-0.054387
0.126131
-0.082625
0.102647
0.002658
0.062247
0.002254
0.138010
0.169662
0.111295
0.105559
-0.011524
0.093706
-0.067386
-0.047365
-0.067229
-0.034572
0.098102
-0.075998
0.026012
0.094053
-0.004602
0.038619
0.009066
-0.061473
-0.050598
-0.016065
0.089569
-0.016952
0.143703
-0.129514
0.059971
0.016040
0.002672
-0.000694
0.152766
-0.043218
0.071856
-0.030510
-0.061051
-0.136097
-0.096518
-0.047696
-0.054339
-0.080844
0.113186
-0.054236
-0.090416
0.071290
-0.052895
0.096980
0.147164
0.041058
-0.043077
-0.038508
0.047123
0.020573
-0.062131
0.028055
0.084181
0.006235
0.101748
-0.049567
0.144111
-0.014918
-0.037492
0.093097
0.076528
-0.023853
0.070541
-0.012972
-0.036588
-0.059802
-0.022317
0.083626
-0.080604
-0.024339
0.043433
-0.058397
-0.067536
0.036186
0.098762
0.070925
0.120993
-0.019055
0.120314
-0.118029
-0.043952
0.061497
-0.137061
0.094956
0.043438
0.135088
-0.160107
-0.012002
-0.018122
0.140319
-0.170781
-0.031676
-0.042838
0.109067
0.082449
0.043942
-0.070405
-0.065886
-0.152710
-0.113351
0.035788
0.001641
0.008349
0.008703
0.049835
-0.014360
0.030268
-0.042205
-0.093221
-0.021226
0.105671
-0.028451
0.002867
-0.080467
0.013667
0.031440
0.089893
-0.038204
0.050097
0.008537
-0.020270
0.069304
0.006942
0.041576
0.076341
-0.058505
-0.055090
0.057989
0.044974
0.119189
0.000522
0.083792
-0.034759
0.009774
0.115426
0.073576
-0.016480
0.113492
-0.034185
0.033048
-0.083050
0.096017
0.202324
0.041469
0.123297
-0.053420
0.047691
0.042026
-0.024552
-0.078748
-0.042148
-0.046357
0.002793
-0.008512
-0.059228
-0.050999
0.093150
-0.043781
0.053117
0.093865
-0.022969
-0.009037
0.056281
0.088533
0.058592
-0.036135
0.114899
0.024849
0.054693
-0.093606
0.009176
0.020137
-0.133636
-0.194060
-0.055966
0.074904
-0.026767
0.070114
-0.004890
-0.010751
-0.063089
-0.088032
0.011971
-0.072687
0.053826
0.026237
0.091322
0.033944
0.085085
-0.066137
-0.088635
0.039285
-0.163527
-0.095036
0.048897
0.078336
-0.134608
-0.013387
-0.007151
-0.049628
0.063705
-0.002036
0.045590
0.030314
0.030918
-0.010846
0.041759
-0.063201
0.014743
0.052100
0.129805
-0.029391
0.081702
-0.013212
-0.015556
-0.091665
0.036632
-0.081649
0.053214
0.094163
-0.029294
0.057451
-0.002373
-0.048669
-0.005856
-0.025644
0.072150
0.099007
0.074731
0.091034
0.069620
0.058104
-0.049475
0.151433
-0.097928
0.054359
-0.039508
0.089209
0.101460
0.103389
-0.068819
-0.259016
-0.068953
0.076989
-0.153522
-0.007286
0.099521
0.005469
-0.001902
-0.071542
0.087285
-0.018050
-0.050963
0.041167
-0.011428
0.091334
-0.022331
0.008536
0.038553
-0.013899
0.001149
0.079705
-0.095914
-0.024572
-0.083261
-0.111953
0.104981
-0.053497
-0.055812
0.122372
0.062739
0.079089
-0.023689
0.052155
-0.056002
-0.016014
-0.106749
-0.003129
0.005421
0.033764
0.052927
0.041633
-0.162091
0.095113
0.097341
-0.054220
-0.050599
-0.032955
-0.047631
-0.099249
0.119511
0.025020
-0.018652
0.086641
0.094628
0.127582
0.192550
0.011044
0.021541
0.034599
0.127608
-0.007992
-0.002240
0.084713
0.050898
0.045523
-0.008904
-0.066886
0.032831
0.037411
0.074832
-0.020238
-0.032355
0.107898
0.085942
-0.125403
0.159732
0.052567
0.099208
0.133301
0.101853
0.033314
0.114537
-0.015319
0.019830
0.016722
-0.029194
0.000903
-0.148787
0.052506
-0.039464
0.044357
0.044610
0.082731
-0.099673
0.088832
-0.054050
0.019361
-0.147042
-0.062589
0.051616
-0.080997
0.025750
-0.081631
0.054512
0.101684
0.064001
-0.123705
-0.133772
-0.054840
-0.098073
-0.039124
0.100362
-0.104224
-0.031715
-0.043095
-0.070484
-0.054011
0.064437
-0.062004
0.073768
0.013791
0.100103
0.007212
0.110879
0.128734
0.063047
0.043446
0.104416
0.107684
0.026377
0.091578
-0.024773
-0.009619
0.105297
-0.033566
-0.019138
0.003399
0.065085
0.055467
0.091307
-0.026012
0.156442
0.099032
0.006859
0.038103
-0.098113
-0.035373
-0.042372
-0.010600
-0.038022
-0.032634
-0.026565
-0.021150
0.062599
0.020651
0.042009
-0.070957
0.079239
-0.076871
-0.077856
-0.063952
0.072408
0.000255
0.147823
0.073922
0.123632
0.087073
-0.025293
0.053782
-0.096862
0.019249
0.025219
-0.184470
0.027481
-0.069842
-0.112504
0.027233
-0.093564
-0.001817
-0.098175
-0.055870
-0.071285
0.071608
-0.047958
-0.085813
0.057401
0.056304
-0.054109
-0.133584
-0.063425
0.087631
-0.023311
0.050299
-0.072652
0.033431
0.040232
-0.090142
-0.017211
-0.028987
-0.113782
0.096257
0.067603
0.082304
-0.088592
-0.081164
0.071944
-0.044198
0.143737
-0.099077
0.054412
0.101019
0.116030
-0.012979
0.112216
0.087232
0.010963
-0.022947
0.086369
0.071353
0.002502
0.140413
-0.077694
-0.031144
0.109640
-0.099050
0.083473
0.043754
0.041416
0.002030
0.126858
-0.055984
-0.088156
0.021715
0.089641
-0.049136
-0.027728
-0.028682
-0.025665
0.012336
0.087769
-0.190203
-0.012966
-0.045849
0.011350
0.060707
0.073703
0.019887
-0.072905
0.054981
0.065100
-0.027867
0.084279
0.052003
-0.008358
0.016478
-0.019318
-0.019641
0.008236
-0.002900
0.037744
0.007640
0.088250
-0.123279
0.055524
-0.128133
-0.025944
-0.110107
-0.048739
0.098573
-0.009791
0.095081
0.068487
-0.008282
-0.028380
-0.009498
0.012729
0.122379
0.013198
0.046407
0.029168
0.101394
-0.136809
-0.012882
-0.101168
-0.056743
0.064371
-0.004619
-0.008897
0.090941
-0.021184
-0.042709
-0.060503
-0.034232
0.018349
0.058283
0.126442
0.028986
0.125882
0.059247
0.009369
-0.108312
0.091680
0.077097
0.089429
0.154639
-0.003700
0.107952
-0.050639
0.080065
-0.008241
-0.088371
0.006334
-0.023546
0.072536
-0.110619
-0.072764
-0.014553
0.090904
0.181327
0.039644
0.049786
0.003561
0.004109
-0.017240
0.011583
-0.031205
0.005113
0.020927
0.110949
-0.053987
0.042148
0.100625
-0.028665
0.051894
-0.005140
-0.008244
-0.069151
0.087179
-0.105609
0.065760
-0.027365
0.004740
-0.076431
0.040728
0.038950
0.037893
-0.028302
-0.085851
-0.008794
0.075425
-0.079508
0.046254
0.010616
0.123166
-0.033490
-0.071812
-0.014681
0.001656
-0.072442
0.077755
0.106944
-0.076721
0.043725
0.165145
-0.042632
0.086407
0.090972
0.058678
0.098274
0.004596
-0.054710
0.028834
0.010267
0.026513
0.081236
-0.020523
0.130451
-0.056566
0.080637
0.102432
0.067385
0.174708
-0.034699
-0.030740
0.064483
-0.064486
-0.079686
-0.050058
-0.004693
-0.036649
0.002383
-0.013047
0.016026
-0.068157
0.041153
0.126712
-0.020299
-0.059908
0.053059
-0.040099
-0.019321
0.067340
-0.008085
-0.059400
-0.030410
0.000433
-0.062908
0.049398
0.010454
-0.091189
-0.031073
0.018445
-0.012509
0.054326
-0.038752
0.034965
0.005773
-0.085981
0.031200
-0.078163
-0.066412
0.066112
0.007512
-0.054267
-0.002511
-0.051382
0.056207
-0.081874
0.054387
0.002466
0.086033
0.042261
-0.024263
0.088782
0.044275
-0.046553
-0.036191
0.029543
-0.060260
0.019819
0.062010
-0.110198
-0.011233
0.025974
0.063614
-0.020741
0.142234
0.012411
0.005666
0.033613
0.049904
0.000238
0.062362
0.011130
-0.067419
0.016743
0.098677
-0.051826
0.066059
0.090701
0.008548
0.157290
-0.048529
0.069534
-0.046301
-0.043080
0.007102
-0.056989
0.149193
0.038315
0.028987
0.043375
-0.062055
-0.054322
0.050338
0.075590
-0.004666
0.049165
-0.009666
0.076856
-0.136884
0.062129
0.001260
-0.004260
0.029865
0.015428
0.010347
-0.018146
0.061742
-0.006127
-0.059591
0.087564
-0.093300
0.027830
0.051254
-0.022745
-0.060249
-0.013722
-0.036149
-0.068179
0.000361
-0.110530
-0.001940
-0.013210
0.095144
0.049758
-0.095552
-0.099907
-0.100320
-0.078215
-0.078117
-0.021655
-0.071464
0.051336
-0.065273
-0.019272
0.007309
-0.009412
0.082407
0.079187
-0.003266
0.049570
-0.016387
-0.038740
0.071698
0.075652
-0.071692
0.003377
0.044775
-0.035534
0.063768
-0.043810
-0.060153
0.008104
0.085451
-0.049903
-0.047062
-0.093891
-0.081148
-0.009297
0.091018
-0.043631
-0.071690
-0.029145
0.139971
0.061689
0.064148
0.042023
0.006527
0.091610
0.105984
0.037769
-0.076154
-0.020005
0.021726
0.079061
-0.061209
0.013655
-0.047910
0.027629
-0.058409
0.111915
-0.118343
0.041131
-0.046670
-0.032413
0.066114
-0.000515
0.059122
0.059095
0.040910
0.077883
0.037528
0.022622
0.042017
-0.088709
-0.050856
-0.042630
0.090400
-0.000816
-0.094831
0.152440
0.018877
-0.043651
0.051118
-0.144865
-0.098791
0.019330
-0.034781
-0.075949
-0.019136
0.003721
0.047534
0.036506
0.009449
0.009980
-0.081108
-0.057352
-0.076753
-0.027099
-0.049467
0.068205
-0.031922
-0.009064
-0.010675
0.060521
0.056769
-0.051279
-0.066460
0.064998
-0.092369
-0.095341
-0.045828
0.113225
0.007385
0.011667
0.097626
-0.037238
-0.017660
-0.067187
0.099695
0.044727
0.042674
0.050341
0.056411
0.077708
-0.023038
0.000681
-0.012597
0.081858
0.018729
-0.082576
0.020287
0.127559
0.059129
-0.107324
-0.117090
0.109109
-0.000349
0.019095
-0.043398
0.053005
0.015371
-0.079283
-0.061429
-0.050053
0.051192
0.103330
-0.017534
0.032629
-0.015562
-0.019921
0.007056
0.086706
-0.060053
0.011049
0.088641
0.020533
-0.077354
0.046980
-0.074211
0.102834
0.058551
0.075111
-0.042718
0.018014
-0.035188
0.099543
0.041926
0.042901
0.084916
-0.119729
0.070352
0.007742
0.012241
-0.073262
0.059137
-0.024634
-0.183079
-0.087687
-0.083218
-0.001880
0.057207
-0.029902
0.013619
-0.016484
0.054847
0.114482
0.054979
0.073964
0.082281
0.004176
0.073166
0.028403
0.084111
-0.044846
0.119663
0.025858
0.114941
0.022081
0.071462
0.105064
0.058025
0.031313
-0.050132
-0.014936
-0.086350
-0.155904
0.056881
-0.108680
-0.018368
-0.015719
-0.013636
-0.002979
0.086646
0.064176
-0.083371
0.106895
-0.035944
0.057401
-0.116719
0.011199
-0.089840
0.002597
0.045264
-0.073738
-0.052422
0.020159
0.032236
-0.054780
0.046131
0.059453
0.013585
0.030709
0.020328
0.062178
0.108656
0.084445
0.086354
0.034356
-0.062162
0.024023
0.034428
0.019822
-0.024970
0.103893
-0.123242
0.065758
-0.130782
0.083117
0.051339
-0.024550
0.002283
0.077905
-0.060224
-0.069455
-0.004280
-0.033054
0.006636
-0.040088
-0.022715
0.129479
0.076792
0.011664
-0.044058
0.091689
-0.076883
-0.063989
0.110700
-0.084964
-0.027296
-0.075580
-0.170422
-0.016932
-0.066766
0.074944
-0.075123
0.043895
-0.061274
-0.037060
-0.006050
0.054921
0.051350
0.038001
0.099960
0.087299
0.139613
-0.107112
-0.086705
-0.009328
0.087889
0.049383
-0.075394
0.106427
-0.097032
-0.059359
-0.065793
0.062022
-0.067362
-0.115849
-0.052461
0.006210
0.050130
0.095754
-0.114850
-0.086322
0.082253
0.109442
0.134194
0.127092
0.023030
-0.001302
-0.019722
0.071939
-0.012921
0.046010
-0.085184
0.044185
0.064098
-0.001782
-0.099332
0.197351
0.055483
0.004237
-0.067844
0.048370
-0.083885
0.071619
-0.065217
-0.028626
-0.155570
0.067853
-0.056912
0.001504
-0.046447
-0.051769
-0.088345
-0.075762
0.017799
0.046462
0.037896
0.082159
-0.016929
0.059291
0.073692
-0.023317
0.107402
0.069067
-0.019067
0.091229
-0.065809
0.078792
-0.152298
-0.001370
0.069016
-0.053260
0.134535
-0.022675
-0.017716
0.003868
-0.071180
-0.092699
0.032285
-0.005968
0.051557
-0.064322
-0.118361
0.095958
0.034705
-0.007776
0.099961
0.077522
0.040827
-0.163355
0.034343
0.109959
-0.025950
0.033063
-0.060370
-0.059810
0.016398
0.075454
-0.037738
-0.148715
0.045784
-0.034006
0.053480
0.100739
0.125588
-0.087735
-0.026637
0.020489
0.095506
0.045073
-0.105219
-0.234574
0.070712
-0.116583
-0.063149
-0.119855
0.064781
-0.080869
-0.026432
0.063951
0.026877
-0.117621
0.065917
-0.008629
0.070451
-0.016531
-0.105168
0.194461
-0.022655
0.000974
0.109756
-0.046058
-0.114026
-0.030335
-0.126639
-0.097217
0.108583
-0.030061
-0.070829
0.059104
0.041486
0.068603
-0.008038
0.098821
0.076803
0.106920
0.004778
0.034094
-0.143758
-0.030091
-0.060923
-0.139093
0.083499
0.034602
0.177290
-0.017173
0.008025
0.132842
0.069850
0.048272
-0.016645
-0.082615
0.041108
0.065403
0.159932
-0.052263
-0.013777
-0.007242
-0.085514
0.020065
0.002249
-0.101087
0.076827
0.067279
0.027175
-0.022691
-0.112257
0.102562
-0.004691
-0.010016
-0.042967
0.024394
0.064202
0.003154
-0.020839
-0.117421
-0.048368
0.039855
0.105561
0.063799
-0.037846
0.055894
-0.100816
0.044858
0.063772
-0.011564
-0.026286
-0.115866
0.121862
-0.045384
0.013180
-0.103549
0.104418
-0.136336
-0.154876
0.053758
-0.025355
-0.030516
-0.065576
0.141358
-0.092805
-0.034340
0.057140
-0.037432
-0.105559
-0.052982
-0.019912
0.100585
0.010795
0.011400
0.022640
0.035860
-0.081874
0.074233
-0.086010
-0.054821
-0.017142
-0.058968
-0.116552
0.031644
0.005695
0.031368
-0.086744
0.094183
-0.071655
-0.020234
0.095358
-0.096497
-0.061950
-0.076200
0.157630
0.101528
-0.075166
0.101461
-0.042165
0.081701
0.053806
0.154203
-0.040511
-0.051226
0.047415
-0.043192
0.056987
-0.005313
-0.086493
-0.089877
-0.036047
0.009255
0.006061
-0.027337
-0.067261
0.087336
0.167730
0.127305
0.022359
0.208474
0.109438
0.084554
0.021312
-0.053398
0.031583
0.060207
0.066255
-0.068379
0.074672
-0.050497
0.087313
0.045436
0.072126
-0.050668
0.094408
0.043226
0.110092
-0.041654
0.096431
0.062905
0.035739
-0.095855
0.058837
0.044901
-0.001858
-0.065807
0.047673
0.006135
0.007872
-0.068447
-0.092312
-0.038373
0.068361
-0.080288
0.026635
0.033742
-0.014132
0.052342
0.041289
-0.057295
-0.024831
0.107648
-0.092824
0.046908
-0.096176
-0.073665
-0.093826
-0.064193
-0.004498
0.063429
0.010480
-0.073552
0.104823
-0.051308
0.085597
-0.000853
-0.084400
-0.033294
0.113060
-0.085922
-0.020610
-0.011677
0.063146
0.101733
0.044860
0.001251
0.088434
-0.026423
-0.035786
0.075590
-0.054497
-0.102123
-0.013067
-0.017427
-0.011604
-0.016910
0.000996
-0.001526
0.134345
0.094223
-0.000113
-0.087883
0.102424
-0.002066
-0.047383
-0.022522
-0.090754
0.010611
0.009510
0.032519
-0.011227
0.123012
0.011039
-0.071193
0.029464
0.053998
-0.029577
0.044450
0.076782
0.000277
0.032204
0.010692
0.084560
-0.060685
-0.025785
0.038432
0.117324
-0.048221
0.030040
-0.051477
-0.071291
0.111325
-0.059711
-0.075052
-0.114445
0.116447
0.064013
0.046188
0.135900
0.160473
0.042190
0.070608
-0.081915
0.067894
0.023251
-0.033447
-0.022160
-0.054999
-0.093531
-0.004156
-0.036006
-0.135163
0.019019
0.085673
0.036741
0.004049
-0.008292
0.066522
0.011143
0.083442
-0.063565
0.103813
0.042914
-0.070254
0.064658
0.148934
0.060064
-0.011582
0.052021
-0.019465
0.038552
0.088937
-0.043035
0.027241
-0.007645
0.070853
0.118359
-0.051912
0.063008
0.067684
-0.069502
-0.073656
-0.038025
-0.047271
-0.040161
0.016265
0.109166
0.085323
0.087229
0.016800
0.027512
-0.046435
-0.047602
0.098577
-0.073957
-0.033385
0.121934
0.110420
0.087435
-0.045082
0.085807
0.056329
-0.025261
0.054397
-0.046017
0.057495
0.090974
-0.034353
0.067548
0.042382
0.032427
-0.151509
0.010596
-0.032010
0.043457
-0.076260
-0.032737
-0.060902
-0.035724
0.083702
-0.019054
0.005268
0.045879
-0.050856
0.030018
-0.056931
-0.015262
0.064175
0.077698
0.000269
0.123770
0.052268
-0.000459
-0.022460
-0.019796
-0.024602
-0.005117
0.095952
0.112896
0.030701
0.031021
-0.003194
0.067396
-0.059069
0.123075
0.022773
0.153311
-0.017031
-0.018824
-0.018729
-0.052211
0.045307
-0.012149
-0.101776
0.054268
0.019984
-0.109856
-0.019550
-0.034206
-0.043907
-0.047406
0.047369
-0.123379
-0.098869
0.082259
-0.042104
0.081082
-0.100068
-0.003252
-0.073011
-0.128773
0.039234
0.017679
-0.001554
-0.018768
-0.060825
0.005652
-0.060503
-0.039430
0.069293
-0.088535
0.087206
-0.022621
-0.036845
0.042898
-0.065669
-0.052442
0.051703
-0.034983
0.108005
-0.026910
-0.010072
0.041817
0.014515
-0.003614
0.018536
-0.107530
0.101667
0.017998
-0.115660
0.002610
-0.043100
0.012827
-0.019398
-0.125056
0.051070
0.069468
0.088314
0.046615
0.071151
-0.014962
-0.085489
0.022101
-0.009133
-0.002565
-0.056689
-0.053165
0.054616
-0.020077
-0.086342
0.102963
-0.068194
-0.080439
0.090595
0.041047
-0.045973
0.013630
0.033623
-0.077992
-0.094942
-0.076858
0.094204
-0.028760
0.020265
0.058537
-0.020620
-0.088025
0.065913
0.049168
-0.085558
0.098850
0.126622
0.138056
0.065431
-0.131762
-0.023653
-0.119443
0.008291
0.011669
-0.011083
0.110772
-0.087144
0.033500
-0.133423
0.040685
0.058152
0.007278
-0.005420
0.062537
-0.002033
-0.081227
0.122400
0.090799
0.029918
0.059962
0.082873
-0.049872
-0.073897
0.014743
0.025917
-0.018524
0.086811
-0.000087
-0.032046
-0.036656
-0.066678
-0.125329
0.026314
-0.094000
-0.026350
0.024380
0.028541
0.002675
0.030255
0.042807
0.006823
-0.108125
0.050927
0.066788
0.064291
0.102421
-0.113315
-0.046836
-0.074167
0.059937
0.015766
-0.048828
-0.012318
-0.037207
0.010175
0.029021
-0.065578
0.158419
-0.043347
0.047384
0.004511
-0.056930
0.103402
0.037555
0.016773
-0.049240
-0.037370
0.001022
-0.134432
-0.067778
0.090564
0.049091
-0.073393
-0.036272
0.080320
0.001388
-0.106535
0.089723
-0.124444
0.021868
-0.039556
-0.085993
-0.003544
-0.078361
0.020293
0.126469
0.071119
-0.047132
0.072056
-0.032499
0.056509
-0.036162
-0.051110
0.050881
-0.083563
0.026463
-0.084165
0.093300
-0.200835
0.017725
0.081525
0.069506
0.042259
0.048069
0.066385
-0.064833
0.049093
0.018805
0.087465
0.054149
-0.038146
-0.028193
-0.003354
-0.130962
0.009810
0.073325
-0.044454
-0.045997
-0.039802
0.014029
0.063661
-0.077064
0.135273
0.086117
0.076314
0.059461
0.062816
-0.044353
0.004356
-0.044896
0.062468
0.026142
0.003411
0.111624
0.083451
0.051001
0.002376
0.110637
-0.065084
0.043478
0.107938
0.168645
-0.021472
0.070478
0.042797
-0.044695
-0.034633
0.120985
0.042314
0.099107
0.000527
-0.051033
-0.068249
0.073974
-0.204370
-0.031805
-0.049915
0.084362
-0.021095
0.011930
0.056558
0.030498
-0.015340
0.005413
0.015502
-0.080517
-0.034033
-0.070787
0.110586
0.042294
-0.082739
-0.095802
0.033289
-0.066282
0.008329
0.112120
-0.005357
0.105738
0.064980
-0.011888
0.036850
0.040845
0.076879
-0.014176
0.118992
0.006939
0.063133
0.007289
0.039225
0.120568
-0.060221
-0.044088
0.064436
-0.039953
-0.001783
0.085339
0.056018
0.072642
0.045147
0.036095
0.041210
0.112288
-0.018163
0.054403
0.052710
0.014552
0.176199
0.059698
0.005136
0.048263
0.063928
0.107114
0.110829
-0.083693
-0.081173
-0.083120
-0.006580
-0.112508
-0.061796
0.081556
-0.110497
0.015764
0.063631
-0.098987
0.022701
0.062386
0.007353
0.000857
0.196269
-0.014279
0.088106
-0.003222
0.006849
0.049521
-0.037328
0.062106
0.079501
-0.148413
0.032134
0.019046
0.086080
-0.051483
0.121768
0.074283
0.074914
-0.089453
0.027050
-0.024448
-0.091173
-0.088722
0.020043
0.109830
-0.092680
0.024365
-0.040830
0.082289
-0.138023
0.165865
0.012211
-0.080670
0.069521
-0.082816
0.099114
0.068622
0.035469
0.082903
-0.027772
-0.053311
-0.042322
-0.017757
-0.070808
0.085874
-0.021069
0.101224
-0.035017
0.106894
0.012772
0.005292
-0.018215
-0.045046
-0.099410
0.048038
-0.050711
-0.056802
-0.072813
-0.012354
0.065594
0.039193
-0.071086
0.055790
0.018052
-0.076072
0.037644
-0.008487
0.049220
-0.044960
-0.038595
-0.104573
-0.028155
-0.083492
-0.054090
-0.021296
0.033809
0.011117
0.014777
0.005192
0.008267
0.062123
-0.065347
0.033424
0.065739
0.055499
-0.077132
-0.047765
-0.069147
0.071078
-0.013193
-0.016090
0.015235
0.052600
0.027970
-0.022346
0.016449
-0.065246
-0.091609
-0.051616
0.076871
-0.063511
-0.100459
-0.000786
-0.021864
-0.052595
-0.055797
-0.067805
0.017207
0.001914
0.034012
0.047959
-0.002782
0.091100
0.016228
-0.027413
0.045936
-0.004372
-0.060812
0.004743
0.011218
0.044265
-0.058341
0.047182
-0.064675
0.015121
-0.102239
0.046114
0.067462
-0.088327
-0.058242
-0.040467
-0.067446
-0.005637
0.043914
0.022803
0.071154
-0.057947
0.011320
-0.030890
-0.005967
0.076356
-0.024467
-0.027543
0.057981
-0.039789
-0.038023
0.053660
-0.089636
0.064478
-0.051536
-0.063656
0.023821
-0.084297
-0.039091
-0.074314
0.071026
0.013957
-0.042340
-0.013766
-0.038269
-0.079776
-0.104490
-0.107937
0.002414
-0.073785
0.030330
-0.025442
-0.059499
-0.034002
-0.019266
0.049331
0.019310
0.067118
-0.065424
0.031664
-0.044082
0.187837
-0.070643
0.035473
0.005694
0.089185
0.092992
0.036257
0.044388
-0.047934
-0.068311
0.033672
-0.087550
0.119454
0.055588
0.074852
0.072470
-0.016737
0.031546
0.027299
0.000145
0.093535
-0.019171
-0.274629
-0.127679
0.040103
-0.082543
0.026528
0.084229
0.080759
0.022634
-0.056720
-0.012465
0.066319
0.001243
-0.035759
-0.070405
-0.079241
0.074543
-0.012422
0.053157
0.010882
-0.064707
-0.005888
-0.101020
-0.130754
0.006386
-0.051996
0.042073
-0.069435
-0.071731
-0.090448
0.064507
0.053446
-0.045913
-0.003217
-0.037314
0.011951
-0.165304
0.087080
0.125299
-0.078517
0.073046
-0.005757
-0.077958
-0.076726
0.067279
0.000370
-0.063030
-0.044973
-0.005549
0.035069
0.032183
-0.057761
-0.047787
0.070692
0.013486
0.107911
0.182583
-0.013773
0.078585
-0.004776
0.016296
0.014832
0.053154
-0.083851
0.002887
0.089174
0.116338
-0.080074
-0.095932
-0.028291
0.023460
0.076329
-0.076451
0.048618
0.028588
-0.042634
0.119264
-0.117909
-0.086873
0.110299
-0.065596
-0.019356
0.049482
-0.026739
0.105285
-0.024727
-0.006435
0.055060
-0.089925
0.031340
0.087670
0.110624
-0.041831
0.049790
0.088626
-0.039727
-0.001462
0.096125
0.146436
0.060803
0.036590
0.091701
-0.016981
0.082033
-0.042252
0.091549
0.034182
0.036308
0.004223
0.023113
0.024645
-0.047183
0.034500
-0.069927
0.080856
0.042814
-0.036555
0.078030
-0.052071
-0.018306
0.110409
-0.058359
0.012206
0.013074
0.107305
0.029101
-0.031749
0.111913
-0.004942
-0.059392
-0.060673
-0.032940
0.088950
-0.050892
-0.055231
-0.056349
0.045920
-0.042693
0.007875
-0.043896
0.056024
-0.048698
-0.007673
-0.007241
0.108147
0.092681
-0.043029
-0.020513
-0.066759
0.046168
-0.005369
0.125781
-0.037284
-0.077483
-0.096318
-0.011189
-0.008738
-0.060996
-0.049867
0.014792
0.023018
0.065761
-0.005808
0.001755
-0.004342
0.053103
0.104068
0.067172
0.017011
0.196970
-0.002077
0.048350
0.084438
0.134939
0.078561
-0.076009
-0.023248
0.035267
-0.009676
-0.009073
-0.085344
0.117612
-0.064827
-0.017575
-0.040247
0.146258
-0.081394
0.035197
-0.050909
-0.019007
0.019201
-0.013967
0.075433
-0.039220
0.071756
0.107108
-0.024137
0.055388
0.027498
0.108609
0.004956
0.013793
-0.056276
-0.096123
0.016975
0.030040
0.055065
-0.038608
0.012566
0.084399
-0.136230
-0.089320
