0.021659
0.025409
-0.008135
0.071625
-0.040567
-0.045327
0.009123
0.027945
0.005980
0.048027
0.138919
-0.065379
-0.067753
0.068212
-0.051362
-0.055878
-0.155974
-0.103129
-0.103649
0.160517
-0.072470
0.073006
-0.005364
-0.071640
0.105024
0.145651
0.005364
0.067069
0.137697
-0.010901
0.085011
0.020671
0.097236
0.066282
0.007739
-0.075004
-0.044366
0.046466
0.089235
0.120338
-0.087608
-0.051919
-0.097284
-0.068126
0.046286
0.081607
-0.034152
-0.055385
0.072715
-0.096829
-0.067031
0.079759
0.132339
-0.142624
0.037110
-0.109275
-0.120823
0.055472
-0.074336
-0.026462
0.102527
-0.102708
-0.083347
0.038926
0.101302
-0.202572
-0.050561
0.074926
0.010016
-0.048474
-0.148213
-0.050262
0.010080
-0.164877
-0.046158
-0.123419
0.027608
0.037767
0.006505
0.066297
-0.152046
-0.073656
0.011323
-0.150264
-0.042500
0.109409
-0.048944
-0.088809
-0.104642
-0.123895
0.101230
-0.044996
0.039574
-0.053745
0.029416
-0.162924
0.041932
0.049245
-0.166773
-0.032122
0.026171
-0.049366
0.024836
-0.088419
0.145053
-0.030517
-0.207988
0.071855
-0.119650
-0.014198
-0.013688
0.063932
0.106469
-0.126337
-0.014669
0.154382
-0.043609
0.062189
-0.121800
-0.083161
0.067560
0.044779
-0.081026
-0.096572
0.033292
-0.136032
-0.262731
-0.123068
-0.168705
-0.003136
-0.147683
0.100779
0.073698
0.151935
-0.034062
-0.007977
0.071065
-0.029642
0.006775
0.049744
0.029391
0.066641
-0.123084
0.034792
-0.095827
-0.103112
-0.015766
0.057994
-0.012199
0.049813
-0.054418
-0.060811
0.157132
0.058406
0.118440
-0.004075
-0.112654
0.026755
-0.019852
0.029705
0.096440
-0.096668
0.040093
-0.092660
0.053923
0.029010
-0.091247
0.130106
-0.001549
-0.140288
-0.037986
-0.006122
0.092864
0.092278
0.004944
0.125702
0.041538
-0.124964
-0.268870
-0.121069
-0.007192
0.035392
-0.067520
-0.031553
-0.054475
0.004690
-0.158540
-0.001373
0.148257
0.014819
-0.130962
0.041181
-0.042909
-0.085633
0.017272
-0.013251
-0.006933
-0.094412
0.078078
-0.191168
0.089696
0.144594
0.036370
0.101386
0.053660
-0.014161
-0.014599
0.022187
-0.017139
0.121186
-0.048074
0.072024
-0.151493
-0.081819
0.075726
0.024520
0.104775
-0.065064
-0.064438
0.104190
-0.178720
0.079227
0.143864
-0.193621
-0.033478
0.023839
-0.086048
0.083319
-0.155546
-0.047845
-0.131751
-0.095221
-0.008225
0.016559
0.006193
-0.126608
-0.193396
0.101411
0.059172
0.017210
-0.000441
-0.095335
0.170818
0.256349
-0.056752
0.067232
0.051488
0.087158
-0.135843
-0.032070
-0.055757
0.123905
-0.106420
0.050700
-0.011574
0.038720
-0.078896
-0.134095
0.013395
-0.078181
-0.021872
0.051801
-0.262564
-0.295682
-0.025399
0.021225
0.019551
0.011175
-0.094171
-0.133615
-0.143407
-0.053546
-0.099351
0.100061
0.078990
-0.203607
0.111394
0.014320
-0.101553
0.072445
0.084700
-0.017835
0.105316
-0.043486
0.087111
0.053528
0.020277
0.051251
0.003037
-0.082191
-0.016532
-0.106646
0.116909
-0.015309
-0.221380
0.128740
0.112792
-0.153256
0.077863
0.082348
0.028762
-0.025595
0.108049
-0.138934
-0.042873
0.097193
0.136767
-0.025117
-0.079876
0.013915
-0.007826
-0.135785
0.088275
-0.102059
0.088973
0.134923
-0.133216
0.135012
-0.069938
0.051010
-0.128822
0.051758
-0.048566
-0.058289
0.110831
-0.056889
-0.167818
-0.211137
-0.090913
-0.026178
0.056396
0.089623
0.120635
0.057921
0.074883
-0.082947
-0.142390
0.068259
-0.012384
0.086738
-0.110964
-0.089062
-0.138622
0.025601
-0.003249
-0.121604
0.050886
-0.075204
0.128492
-0.108594
-0.032282
-0.045010
0.111591
-0.030864
0.058358
0.133876
0.049754
-0.078109
0.051219
0.062254
0.071718
0.144764
0.031339
0.178440
-0.050589
0.102323
-0.136262
0.024143
-0.034287
0.014829
-0.039916
0.041216
-0.159260
-0.122033
0.129170
0.026888
0.074053
0.041373
0.106890
-0.144973
0.002159
0.047863
-0.125633
-0.105271
-0.179642
0.014775
-0.118011
0.071854
-0.220835
-0.058799
0.070713
-0.086839
0.119138
-0.012268
0.111153
-0.107194
0.057198
0.070654
0.005023
-0.042168
-0.098077
-0.050679
0.134122
-0.155558
0.214398
-0.062970
0.107309
-0.013316
0.089848
0.068129
-0.033803
0.017469
-0.113083
-0.188249
0.062174
-0.107346
0.105963
-0.084916
0.040627
-0.074185
-0.082500
-0.130596
-0.080919
0.137403
-0.039366
0.041129
-0.142374
-0.057914
-0.066035
0.105802
0.138141
0.081459
-0.135225
0.088145
-0.056916
0.042282
0.125207
-0.072899
0.098012
-0.145845
0.045290
0.075774
0.075419
-0.103389
0.159304
-0.218000
-0.037003
-0.169519
-0.088365
-0.090555
-0.041135
0.032948
-0.148801
0.039807
0.075245
0.055989
-0.086494
0.082681
-0.146777
-0.124832
0.091998
0.159733
-0.030123
-0.090628
-0.079431
-0.111912
-0.052558
-0.058466
-0.018638
-0.035920
-0.068265
-0.066358
0.183692
0.020836
-0.055480
0.121680
0.108309
-0.079708
0.018177
0.023650
0.006938
0.084005
0.104086
-0.009497
-0.003152
-0.046581
-0.159859
0.120379
-0.199540
0.118526
-0.115315
0.013990
-0.061573
-0.013896
0.001399
-0.177456
0.065386
-0.110416
0.132384
0.082855
0.028221
-0.036999
0.152061
0.102537
0.073241
-0.047406
-0.111825
0.034373
-0.115200
-0.006916
-0.202371
-0.035195
-0.075523
0.036523
0.034111
0.023652
-0.020308
0.070057
-0.135779
0.039421
-0.048392
-0.230728
0.141658
0.087713
-0.045110
-0.103129
0.148861
0.098444
0.019644
0.025516
0.001349
-0.001078
0.046415
-0.093410
0.069298
0.117301
-0.098562
-0.124479
-0.062589
0.050280
-0.008693
-0.135953
0.048920
0.084661
-0.175819
-0.026026
0.134340
-0.171321
-0.012677
-0.056422
0.047345
-0.212248
0.095547
0.052012
-0.006720
-0.106077
0.096369
0.056405
-0.056061
-0.052516
-0.204760
-0.099407
-0.151875
0.126744
-0.006949
0.092503
0.001758
0.002920
-0.148452
-0.199384
0.107757
0.011719
-0.028473
0.102565
-0.075426
0.065043
0.030643
0.073208
-0.002823
-0.044013
-0.005176
-0.070900
-0.089282
0.025305
-0.009724
-0.033472
0.114290
-0.078135
-0.008042
0.114552
-0.061944
-0.134953
-0.000165
-0.165268
-0.056586
-0.088569
-0.116399
0.066645
-0.051564
-0.192490
-0.090964
0.028008
0.121622
-0.015557
-0.083718
0.017502
-0.087476
-0.132756
0.009837
-0.036020
-0.031373
-0.029647
-0.048629
-0.152336
0.011701
0.069242
-0.141555
0.004747
0.037546
-0.069203
0.163974
-0.064104
0.054313
-0.011527
-0.004865
0.130447
-0.101760
0.094313
0.108500
-0.183588
0.013678
-0.200033
0.026868
0.069770
-0.166709
0.052717
0.049233
-0.062135
0.071097
-0.107784
-0.176122
0.097964
-0.011745
0.026457
0.122100
-0.083947
0.015137
-0.128786
0.032480
-0.062446
0.022587
0.084340
0.092083
-0.096227
-0.110857
-0.087849
-0.015853
0.021675
-0.096255
0.081245
0.081188
-0.015413
0.090841
0.116971
0.135881
0.078206
0.140525
-0.032468
0.016748
-0.100485
0.030920
0.114840
0.034654
0.099207
0.066974
0.012400
-0.000730
-0.095487
-0.078602
0.040545
-0.027517
-0.048064
0.055935
-0.008252
0.020386
0.078961
0.153807
0.022254
-0.120212
-0.145485
0.111676
-0.077782
-0.210333
0.050778
-0.102972
-0.069859
-0.039394
-0.072956
0.052240
-0.184735
-0.055557
0.099413
-0.006618
-0.156665
-0.140219
-0.024291
-0.134581
-0.014265
-0.050439
0.023742
-0.165478
0.127033
-0.045670
-0.006173
-0.000024
0.032760
-0.008755
0.002596
0.083672
-0.021175
-0.082649
-0.043130
-0.032927
0.156569
-0.015332
0.124678
-0.183164
-0.136374
-0.002685
0.079093
-0.068570
-0.023448
-0.027812
0.101001
-0.018907
0.121106
-0.042607
0.054951
0.139044
-0.016471
-0.136350
0.121108
0.059162
-0.070042
0.032612
-0.023413
-0.220595
-0.048977
0.073680
0.099872
-0.323849
0.080246
0.109024
0.024637
0.010556
-0.043301
-0.080654
-0.006735
0.090029
-0.109228
0.115630
0.102494
0.045292
-0.009830
-0.186277
0.137909
0.101157
0.056862
0.082839
-0.012113
-0.038470
0.053641
0.129505
-0.021146
-0.029234
-0.052609
0.153333
-0.019899
-0.078890
-0.068715
0.008382
0.096827
0.075370
-0.094226
-0.107244
0.051730
-0.062025
0.099835
0.009851
-0.072743
0.148724
-0.082076
-0.194343
-0.097810
0.130440
-0.118564
-0.042306
0.107069
0.090761
0.141206
0.022211
-0.117289
-0.076534
0.004743
-0.145626
0.125875
0.102316
0.066770
-0.108386
0.057344
-0.038927
-0.111580
-0.037345
0.058812
0.086754
-0.143496
0.099752
0.031455
0.070712
-0.111750
0.130959
0.056723
0.030074
-0.037620
-0.066341
0.058696
-0.074418
-0.027761
-0.108761
-0.176621
-0.141562
-0.255224
-0.105840
0.104285
0.051719
0.097570
0.028932
0.065434
-0.006282
0.029342
