0.043673
-0.018002
-0.014373
0.076780
-0.013420
0.010486
0.065052
0.092861
0.027697
-0.004533
0.023983
0.081176
-0.038791
0.094325
0.003171
0.114273
-0.037660
0.025783
0.008897
-0.038679
-0.029320
-0.058758
-0.016130
0.031935
0.012842
0.092999
-0.089323
-0.074581
-0.018527
-0.007520
-0.073149
-0.008934
0.105209
0.057936
0.090159
0.040974
0.015914
0.071983
-0.039062
0.041060
0.037318
0.110854
0.116720
-0.056090
-0.064036
0.050137
0.105408
0.090079
-0.089742
-0.024682
-0.011614
-0.013507
0.044161
-0.001564
-0.035898
-0.014919
0.049393
0.085292
-0.008464
0.101597
-0.057354
0.080729
0.039670
0.110290
-0.023414
0.131249
0.121686
0.091251
0.082346
0.020023
0.060119
0.012034
0.044235
0.012832
-0.118010
-0.046832
0.049542
-0.051156
-0.003694
0.046166
-0.059279
0.078472
-0.014894
0.050468
-0.071019
0.022854
0.085952
0.093946
-0.035914
-0.066049
0.066226
0.045048
0.110889
-0.049701
-0.096069
0.103492
0.010355
-0.011555
0.023405
0.069824
0.036288
-0.033795
-0.034846
0.048113
0.011326
0.033651
0.025581
0.098165
0.039753
-0.002225
0.065304
0.022481
0.069787
-0.056846
0.051899
0.086442
-0.026803
-0.011163
0.119141
0.015790
0.002184
0.088429
-0.000005
0.071872
0.030213
-0.051694
-0.088059
-0.009664
-0.004329
0.038845
-0.060730
0.007877
0.039385
-0.024907
0.001156
0.097316
0.062281
0.076572
0.116977
-0.042448
0.016794
0.040806
0.057507
0.094821
-0.037573
0.070312
0.109544
0.056980
0.083206
-0.064011
0.113134
-0.024851
-0.026333
-0.101528
-0.100901
0.031148
0.055309
0.163448
0.124855
0.070982
0.002754
0.025589
0.149532
0.152135
0.094610
-0.107030
-0.118095
-0.134388
-0.127750
-0.054444
0.027968
-0.158796
-0.168335
-0.004949
-0.029391
-0.014708
-0.019264
0.021955
-0.093672
-0.105694
0.106322
-0.013441
0.102269
0.040088
-0.016139
0.059470
-0.002779
0.201961
0.167708
0.093911
0.067297
0.094910
0.085294
0.062488
-0.082011
-0.014834
-0.089683
-0.222483
-0.095862
-0.097196
-0.048715
0.128042
-0.073688
-0.024053
-0.179198
0.099161
0.134106
-0.003189
-0.036307
-0.056782
-0.045026
0.101866
0.060255
0.143899
0.199371
0.114717
-0.023553
-0.032371
0.035607
-0.048104
-0.028745
-0.063279
-0.247653
-0.187336
-0.128740
0.089652
0.071181
-0.100155
-0.163711
-0.100912
0.114743
0.084630
-0.047853
-0.086486
-0.072373
0.015695
0.076931
0.031757
0.050532
0.119018
-0.015250
0.071810
0.014809
0.157417
-0.027321
-0.014285
-0.051900
-0.116275
-0.012802
0.035853
0.003085
-0.023266
-0.110027
-0.081039
-0.190989
0.002550
0.134765
0.023321
-0.054464
-0.081357
-0.014642
0.115660
0.213418
0.237049
0.091417
0.015652
-0.009049
0.077140
0.054781
0.102203
-0.049840
-0.030542
-0.106769
-0.116076
0.006255
0.070467
0.063641
-0.067617
-0.042685
-0.048055
-0.024391
-0.012553
-0.066735
-0.058322
0.025473
0.009894
0.055663
0.105395
0.164823
0.140394
-0.018574
0.053394
0.001517
0.059994
0.012805
-0.047979
-0.079995
-0.066860
-0.065623
0.062877
0.143593
0.097515
0.073289
0.145021
0.179508
-0.053939
-0.118310
-0.279246
-0.053581
-0.046076
-0.075514
-0.297604
-0.266277
-0.240957
-0.154123
0.068863
0.014752
0.113813
0.040166
0.052093
0.159208
0.215351
0.065457
0.066989
0.028157
0.182121
0.126093
0.079202
0.120295
0.137440
0.031966
-0.127424
-0.132684
0.009457
-0.056615
-0.228386
-0.338147
-0.377539
-0.249580
-0.097425
-0.027904
0.075402
0.080716
0.003175
0.030627
0.205185
0.231413
0.213224
0.075871
0.000511
0.049597
0.137016
0.167710
0.126790
0.082826
-0.022808
0.010337
-0.128741
0.053087
0.082992
-0.186851
-0.231956
-0.321481
-0.282702
-0.085418
-0.000600
0.041666
0.055753
-0.051336
0.017433
0.184501
0.172887
0.132205
0.055358
0.076863
0.119398
0.143006
0.157381
0.093774
0.083407
-0.058839
-0.042387
0.013295
0.088083
0.127515
-0.211258
-0.200451
-0.155088
-0.067752
-0.032998
-0.055659
-0.110693
0.013878
-0.012088
-0.031983
0.156953
0.078241
-0.001440
-0.000564
0.008823
0.039394
0.193602
0.178613
0.165359
0.132913
0.011467
-0.090222
0.057557
0.113032
0.138680
-0.140610
-0.241067
-0.366709
-0.317535
-0.178483
0.036579
0.027533
-0.095349
-0.101908
-0.108081
0.115916
0.157161
0.085761
0.048371
0.069974
0.071501
0.038855
0.156937
0.111309
0.069187
0.081189
-0.005213
0.001708
0.008449
0.041481
-0.172409
-0.188414
-0.081708
-0.015660
-0.072946
0.013872
-0.102164
-0.019411
-0.041125
0.032074
0.091758
0.042727
0.145837
0.108787
0.032080
0.055149
0.036144
0.153329
0.110025
-0.071792
0.108215
0.112990
0.047902
-0.061430
-0.039534
0.109718
-0.065975
-0.030962
-0.060943
0.078628
0.108756
-0.008386
0.004080
-0.026483
-0.011252
-0.046596
-0.001812
-0.069552
0.059700
0.043529
-0.041422
0.095923
0.127249
0.101168
-0.109457
0.078051
0.096160
0.019034
-0.113091
-0.041697
0.001056
0.016504
-0.058554
-0.088308
0.009037
0.069053
-0.028113
0.037618
0.032697
0.085033
0.084761
-0.071184
-0.026398
0.064141
0.065222
-0.117082
0.028452
0.153525
0.048928
-0.069732
0.096059
0.111720
0.068645
-0.054129
-0.108127
0.097999
0.011552
-0.057476
-0.108614
0.005689
0.009628
-0.080731
-0.101204
0.024037
0.046334
-0.027131
-0.001009
-0.039854
-0.021717
-0.014536
0.000595
-0.006637
-0.009966
0.011811
-0.100536
0.019915
0.101769
0.084983
-0.016807
-0.050008
0.113152
-0.016096
-0.013117
-0.021026
-0.094742
0.059272
-0.045506
-0.023674
-0.056128
0.054127
0.034378
-0.015691
0.078431
0.060604
-0.043984
0.049806
-0.027972
0.002906
-0.055139
0.000803
0.013591
-0.033793
0.092098
-0.005834
-0.126578
0.031848
0.008911
0.020866
-0.077590
0.024986
0.053779
-0.031286
0.029945
0.085232
0.102972
0.040852
0.078195
-0.014209
0.095465
-0.020093
-0.106150
0.033005
0.069838
0.085112
-0.082502
0.027138
0.088971
0.043341
-0.070116
-0.024386
0.107355
-0.020802
-0.086636
-0.054717
-0.068796
0.013678
0.045164
0.027154
-0.024939
0.017523
0.013405
-0.008416
-0.061869
0.016239
0.060894
-0.025553
-0.112743
-0.075245
-0.102595
-0.166197
-0.071381
-0.105532
-0.125162
-0.071312
-0.072752
-0.036453
-0.021616
-0.016028
0.132377
0.071883
0.039530
0.146863
0.103909
0.129529
0.097410
0.122300
0.141098
0.102570
0.034148
0.023010
0.090422
0.068910
0.039246
-0.084683
-0.117475
-0.074218
-0.156230
-0.169330
-0.089883
0.108477
-0.049854
-0.026037
-0.043509
0.074569
0.211477
0.085647
0.178208
0.153404
0.050729
0.093186
0.154902
0.188944
0.035386
0.036223
-0.070144
0.111132
0.022485
-0.048275
-0.191529
-0.083838
-0.025186
-0.198413
-0.132578
-0.234441
0.057094
-0.051624
-0.106546
-0.089829
-0.026869
0.067757
0.012689
0.156394
0.160901
0.087340
0.100993
0.186409
0.109072
0.091074
0.124021
-0.071726
-0.005125
-0.021391
0.016855
-0.049957
0.112518
-0.057269
-0.127744
-0.130015
-0.033650
0.094518
-0.126805
-0.157295
-0.061535
0.127333
0.061620
0.039936
0.042525
0.038839
0.137592
0.100933
0.036069
0.040368
0.043343
0.031547
-0.027099
0.030511
-0.012149
-0.056040
-0.141926
-0.038944
-0.034188
-0.120193
-0.178087
-0.152912
-0.028543
-0.077285
-0.161750
-0.053106
-0.081629
0.125410
0.152301
0.133625
0.016784
0.084310
0.148429
0.016611
0.178637
0.123226
0.033309
-0.005273
0.097563
0.057821
0.024904
-0.050421
-0.005697
0.082878
-0.001160
-0.171668
-0.062123
0.080075
-0.078469
-0.037320
-0.063480
0.071783
0.085467
0.117006
0.115896
0.071330
0.069556
0.139517
0.103439
0.050395
0.038028
0.046559
-0.007789
-0.045313
-0.099643
-0.028294
-0.082583
-0.111602
-0.063448
-0.127463
-0.198338
-0.211182
-0.065598
0.175186
0.098024
-0.074200
0.019630
0.001806
0.157382
0.188802
0.175734
0.019699
0.021839
-0.001132
0.077465
-0.017546
0.069909
0.008247
-0.000247
-0.059866
0.043411
-0.023292
-0.143251
0.051362
-0.156062
-0.207141
-0.233156
-0.109650
0.024748
-0.105342
-0.116079
0.048596
0.079311
0.093904
0.049216
0.146624
0.084349
0.137313
0.108201
0.077405
0.123189
-0.024032
0.020597
0.010528
0.042576
0.039478
0.144173
0.034288
0.040277
-0.193778
-0.132841
-0.130775
-0.100328
0.095172
-0.149620
-0.162949
-0.162823
0.022615
0.173857
0.066529
0.107647
0.066680
0.173296
0.078285
0.025427
0.068597
0.084133
-0.011706
0.001028
0.087924
0.099666
0.096984
0.025155
-0.062518
-0.110015
-0.104387
-0.024134
-0.041132
0.054871
-0.140755
-0.143080
-0.001821
0.087344
0.039954
0.051576
-0.016342
-0.012926
0.091386
0.033338
0.073522
0.018826
0.115592
0.058417
0.058958
0.034512
0.026713
0.025602
0.017443
-0.069794
-0.166772
-0.117609
-0.029433
-0.118339
0.027114
-0.085405
-0.177748
0.023917
-0.009688
0.208450
0.174716
0.102907
0.015905
0.092650
0.023183
0.103126
0.001933
-0.027949
0.082771
0.085666
-0.005946
0.150951
0.038754
-0.021140
0.002074
-0.044838
-0.034101
-0.076106
0.048432
-0.004099
-0.078657
-0.010528
-0.023665
0.083152
0.090258
0.060247
0.056449
0.047663
0.033416
0.115661
0.108202
0.057258
0.116720
-0.048507
0.101932
0.089245
0.196720
0.191870
0.185887
0.012822
0.176268
0.118911
0.229746
0.223156
-0.232047
-0.271730
-0.211873
0.058072
0.168768
0.017047
-0.070629
-0.212143
-0.180711
0.065351
0.264360
0.135447
-0.035487
-0.040626
0.034703
0.040950
0.067204
0.060685
0.138894
0.154252
0.080270
0.088117
0.228319
0.124648
0.136718
-0.147496
-0.184484
-0.144591
0.076292
0.061808
-0.105764
-0.092819
-0.269295
-0.052607
0.181397
0.158221
0.068365
-0.060170
-0.062775
0.056825
0.062617
-0.039805
0.075872
0.060461
-0.000166
0.057754
0.138615
0.165172
0.232417
0.126228
-0.066163
-0.148958
-0.143214
0.077246
0.211397
-0.162389
-0.279732
-0.288974
-0.119295
0.135555
0.078752
0.067038
-0.137684
-0.001337
0.008974
-0.031709
0.045893
0.036010
0.053064
-0.076604
-0.009689
0.017026
0.067107
0.169203
-0.013019
0.010854
-0.078838
-0.023954
0.159877
0.155238
-0.073718
-0.278401
-0.116184
-0.004381
0.042249
-0.021084
-0.129994
-0.158305
0.048610
-0.032570
-0.067208
0.073113
0.139582
0.097345
0.051166
0.144635
0.066585
0.184268
0.258184
0.226845
-0.053720
-0.030380
-0.074580
0.147431
0.141839
-0.120725
-0.251518
-0.178716
-0.113992
0.099140
0.130749
0.069382
-0.059354
-0.151472
-0.025123
-0.067943
0.010174
-0.035401
0.085519
-0.020113
0.004624
0.002256
0.037533
0.033544
0.004624
0.055540
0.021154
-0.035116
0.087876
0.082888
-0.122447
-0.246786
-0.245040
0.054430
0.118733
0.063401
-0.127435
-0.130188
-0.028270
0.033442
-0.021677
0.028093
0.068436
0.004811
0.005168
-0.010196
0.012118
0.058213
0.085929
0.092682
-0.015701
0.068933
-0.036612
0.076084
-0.021522
-0.116942
-0.103384
0.006200
0.055375
0.080986
-0.072346
-0.028593
-0.004487
-0.038779
-0.100080
0.000678
0.053086
0.054935
-0.011482
0.057783
-0.008557
-0.004878
0.055466
0.038626
0.053124
0.062066
-0.039279
0.082938
0.098991
0.001493
0.028096
-0.032777
-0.050798
0.062527
-0.009623
0.030442
0.002102
-0.004140
-0.013771
-0.093187
-0.072162
0.074132
0.026126
0.001299
-0.030226
0.063683
0.006947
0.108452
0.089381
0.023768
-0.009110
0.009754
-0.041810
0.026630
0.072269
-0.029710
0.024944
-0.012403
0.071551
-0.010068
-0.007079
-0.034538
-0.000814
-0.019238
-0.006274
0.056638
0.096803
0.006561
-0.027516
-0.118578
-0.032789
0.082583
0.007777
0.104108
0.058151
0.080258
0.083745
-0.006213
0.029203
0.081037
0.017741
0.042088
-0.017368
-0.000722
0.029900
0.071427
-0.063680
-0.045111
0.066049
0.081206
0.011859
0.099271
0.069278
-0.012778
0.041327
-0.048874
0.098209
0.089131
0.125340
-0.042014
0.049829
0.022268
0.007223
0.030021
0.065241
-0.048291
-0.066472
-0.052140
0.048380
0.006995
0.074158
-0.003755
0.045970
0.030436
-0.006018
-0.065745
-0.006484
0.061216
0.030361
-0.058416
-0.036487
0.121053
0.066558
0.043057
-0.038227
-0.021602
0.059209
-0.006514
0.075988
0.016003
0.048594
0.002235
0.065999
0.088644
-0.003699
0.086922
-0.056019
0.044181
-0.063901
0.044051
0.018734
-0.000232
-0.053397
-0.095880
0.008812
-0.075303
-0.079656
-0.189102
-0.113174
0.063029
0.069164
-0.098441
-0.178430
-0.017932
0.131226
0.148509
0.012672
-0.035514
0.028552
0.084820
0.086802
0.124310
-0.003615
-0.024907
0.067859
0.085587
0.168603
-0.001679
-0.209316
-0.031160
-0.003129
-0.121578
-0.235555
-0.214299
-0.011995
-0.082566
-0.109783
-0.222358
0.004287
0.101142
0.056725
-0.096483
-0.071561
0.110190
0.140867
0.001548
0.059936
0.069425
0.014160
0.024993
0.230183
0.190178
-0.033422
-0.108499
0.087027
0.018945
0.021353
-0.234172
-0.124749
-0.023191
-0.033750
-0.176302
-0.321397
-0.174444
0.074656
0.080683
-0.000276
-0.038380
0.038497
0.125839
0.048361
0.028070
0.073569
0.075318
0.053895
0.135345
0.186689
-0.022388
-0.087136
0.122592
0.060891
-0.066384
-0.105577
0.078230
0.124338
-0.042352
-0.076577
-0.149010
0.073537
0.111757
0.005409
-0.112085
-0.100824
0.068964
0.095005
0.128714
-0.017944
0.068898
0.052559
0.032195
0.065367
0.076574
0.029400
-0.092490
-0.033281
-0.040868
-0.105313
-0.155124
-0.142242
-0.055267
-0.003986
-0.193027
-0.196281
-0.062594
0.079099
0.079471
-0.073030
-0.046281
0.040838
0.070340
0.018972
0.054698
0.097925
-0.024988
0.109054
0.068938
0.102962
0.135534
0.032539
0.048239
0.161448
0.136265
-0.127672
-0.157838
0.150225
0.124121
0.004002
-0.103333
0.056609
0.090149
0.085936
0.002411
0.000913
0.110612
0.022301
0.022628
0.096194
0.071406
0.133729
0.114164
-0.099111
0.049513
-0.029898
0.046335
-0.024553
0.027711
0.048315
0.005039
0.000816
-0.150239
0.034350
0.065563
0.062187
-0.019358
-0.194442
0.033661
0.017056
0.123649
0.051256
-0.066246
-0.190372
-0.049929
-0.006880
0.121202
-0.030534
-0.125797
-0.070243
0.077054
0.102721
0.057186
0.014009
0.102680
0.093577
0.057567
-0.017325
0.113745
0.047421
0.045297
0.021456
-0.119457
0.086024
-0.042581
0.074767
0.056871
-0.150056
-0.087805
-0.071398
0.018069
0.080630
0.033982
-0.108573
-0.075317
0.046609
-0.007730
0.040051
-0.072169
-0.008797
0.129971
0.155499
0.023309
0.044730
0.030141
0.010251
0.097548
-0.140273
0.038375
0.109840
-0.016046
0.102268
-0.124130
-0.164691
-0.015117
0.113394
0.114402
-0.058879
-0.063940
0.014564
-0.005727
0.081401
0.068417
0.027618
0.110227
0.111429
0.010682
-0.161083
0.033216
0.073315
0.062835
-0.093340
-0.190000
0.077848
0.070643
0.160318
-0.126578
-0.199249
-0.018951
0.000740
0.099180
-0.038046
-0.157736
-0.081456
-0.021212
0.100665
0.024213
0.079793
0.033912
-0.040839
0.091315
0.010063
-0.010056
0.097155
0.094281
0.069066
0.016552
-0.116039
0.075963
0.095998
0.101936
-0.040515
-0.062392
0.018907
0.083649
0.125329
0.148264
0.044140
0.016906
0.002009
0.062453
0.129766
0.061552
-0.046100
-0.010702
0.040628
0.020130
-0.085551
0.086434
0.017953
0.047930
0.060707
-0.103146
0.071557
0.004092
0.022135
0.090748
-0.114216
0.070125
0.044054
0.112657
0.032285
-0.074095
-0.049752
-0.063975
0.031442
0.090608
-0.073527
-0.076252
-0.005725
0.174862
0.103343
0.124801
0.003981
0.017677
0.020880
0.069221
0.127592
-0.027270
-0.001919
-0.145738
-0.123693
-0.247554
-0.087538
-0.143356
-0.157285
-0.178509
-0.039914
-0.057769
-0.030943
0.055902
-0.052588
-0.008432
-0.064615
0.051290
0.144783
0.157444
0.027415
-0.020874
0.178562
0.161993
0.206910
0.061750
0.104600
0.110814
0.045680
-0.137866
-0.111646
0.041261
-0.129000
-0.152430
-0.246683
-0.021288
-0.089035
-0.123125
-0.084069
0.061730
-0.027820
0.023671
-0.077675
-0.005924
0.176601
0.119834
0.042309
0.009242
0.113333
0.208213
0.110792
0.074053
0.039807
0.077402
-0.042775
-0.160699
0.102109
-0.015767
-0.139826
-0.294256
-0.197813
-0.022832
-0.093013
0.070479
-0.063478
-0.091936
-0.065324
0.065464
0.107240
0.012520
0.045527
0.082963
0.045662
0.107425
0.046448
0.098493
-0.002017
0.081074
0.062222
-0.037036
-0.013133
-0.024544
-0.002863
-0.162094
-0.167751
-0.016572
-0.008215
0.003010
0.011912
-0.080523
-0.092019
-0.013941
0.030008
0.043462
0.107913
0.121816
0.043342
0.083546
0.092247
0.090136
0.133689
-0.045758
0.114044
-0.044819
-0.003285
-0.046621
0.002331
-0.002105
-0.175884
-0.247405
-0.191817
-0.094384
-0.019674
-0.063848
0.014946
-0.089624
-0.064229
-0.023445
0.010267
0.137885
0.103206
0.076183
0.160059
0.133402
0.065083
0.169022
0.095070
0.086236
0.048919
-0.071968
0.048298
0.062980
-0.024906
-0.072484
-0.135529
-0.012308
-0.078038
-0.101195
0.030597
-0.039346
0.010080
-0.040631
0.030053
-0.031900
0.150255
-0.059890
-0.121851
-0.082123
0.094843
0.163314
0.083859
-0.185860
-0.072086
0.014378
0.072618
0.095075
-0.117511
-0.035738
0.018615
0.115579
-0.038445
-0.087915
-0.074837
-0.004882
0.052954
-0.075389
0.025208
-0.088896
0.072876
-0.004939
-0.022830
-0.054118
-0.154521
0.039215
0.158263
0.016399
-0.173936
-0.160518
0.140601
0.097139
-0.015886
-0.268689
-0.010295
0.080308
0.046526
-0.026096
-0.086469
-0.019322
-0.058562
-0.029697
0.030126
-0.069765
-0.071474
0.110261
0.165582
0.052540
-0.006782
-0.049672
0.037541
0.063954
0.050928
-0.083410
-0.210095
0.135083
0.169174
0.071206
-0.242302
-0.143942
0.167857
0.118223
0.090369
-0.060346
0.020980
0.049078
-0.021388
-0.083641
-0.059124
-0.028242
0.002909
0.023715
-0.084246
-0.145422
0.088432
0.134857
0.064797
-0.012269
-0.175022
0.078904
0.208358
0.083819
-0.004946
-0.145053
0.126014
0.157704
0.162988
-0.030299
-0.027488
0.025335
0.051036
-0.028926
-0.008169
-0.030146
0.038323
0.050527
0.049530
-0.120466
-0.041798
-0.078300
0.055819
0.087094
0.017979
-0.181547
-0.092188
0.154388
0.098615
0.005815
-0.090147
-0.019127
0.115241
0.130701
0.053506
-0.001112
-0.060828
0.114037
0.120512
-0.031966
-0.085358
-0.045350
0.002872
0.096983
0.025511
0.020492
-0.016519
0.105623
0.107529
0.006075
-0.016283
-0.058463
0.108129
0.195651
-0.015251
-0.100253
0.030049
0.162739
0.082313
0.008638
-0.034868
0.096661
0.032504
-0.081401
-0.051568
0.068559
0.050792
0.001788
0.019849
-0.043518
-0.027295
0.079875
0.028286
-0.037139
0.086087
-0.010898
0.103301
0.140489
0.027347
0.101373
0.060003
0.082372
0.059916
-0.031543
-0.056266
0.056062
-0.029856
-0.045177
-0.075549
-0.041064
0.017011
0.082585
0.022446
0.015542
0.026745
0.075698
0.023249
-0.042383
0.067301
0.069370
0.090481
0.098824
0.022588
0.104158
0.096320
-0.021568
0.112738
0.000681
-0.018588
-0.040032
0.073568
0.059616
-0.066549
-0.039271
-0.109098
-0.010747
0.101594
0.063617
-0.021547
-0.038923
0.018832
0.070141
0.109313
0.005398
-0.042117
0.067805
0.028771
-0.006088
0.008355
-0.023898
-0.020283
0.003225
0.018927
0.012921
0.045293
-0.025403
-0.075317
0.003386
-0.080093
0.000515
0.030060
0.085382
-0.002062
-0.134499
-0.124491
0.016137
0.069452
0.004406
-0.017417
-0.014190
0.060697
-0.007187
0.092187
0.010222
-0.024578
0.107470
0.046743
0.034055
-0.058860
0.013384
0.074548
-0.008327
-0.026670
-0.141248
-0.041473
0.023917
0.059861
0.061095
-0.096384
-0.014302
0.026912
0.019018
0.087192
0.085253
-0.035198
0.062611
0.127373
0.051403
0.069333
0.017347
0.000281
0.108804
0.043459
0.117982
0.017197
0.030072
-0.009691
-0.082612
-0.017984
-0.077991
0.065538
0.016186
-0.056185
0.044297
-0.005641
-0.004313
0.043539
0.086564
-0.016550
0.017872
-0.032196
0.060146
0.095574
0.103213
-0.068509
0.063256
-0.020401
0.032429
0.096139
-0.048940
0.090414
0.000619
0.029529
-0.082717
-0.166867
-0.042342
-0.095495
0.057568
0.019506
0.072243
-0.063393
0.073310
0.044996
0.151721
0.057746
0.173126
0.209183
0.104467
0.072174
0.054340
0.027999
-0.015393
-0.073899
-0.067082
-0.017147
0.093878
-0.069899
-0.085040
-0.178090
-0.096938
0.024105
-0.088891
-0.105243
-0.027584
0.093809
-0.003384
0.040416
0.080993
0.095764
0.109010
0.055862
0.223650
0.093453
0.096438
0.027777
0.172963
0.018014
0.104646
-0.002885
-0.041302
0.028600
0.083509
-0.132259
-0.156057
-0.054251
0.012516
-0.082974
-0.150890
-0.007639
0.027193
-0.008672
-0.103266
-0.049581
0.105715
0.156586
0.077442
0.158550
0.088432
0.132837
-0.033698
0.102212
0.139592
0.009292
-0.045100
0.029857
0.017778
-0.096167
-0.104196
-0.136583
-0.073442
-0.029428
-0.063962
-0.130471
-0.069703
-0.017767
0.031042
0.079473
0.077442
0.128456
0.069427
0.016494
0.009138
0.071274
0.090221
-0.041120
0.160972
0.099265
0.007723
0.082321
0.035213
0.095569
0.061329
-0.019990
-0.040847
-0.023225
-0.050876
0.050302
0.056008
-0.114609
-0.020520
-0.108466
-0.058383
-0.008520
0.056975
-0.015546
0.067965
0.123898
0.033977
0.130455
-0.030307
0.125065
0.118745
0.001078
0.023384
0.030632
0.045833
0.008039
-0.055844
-0.159043
-0.011653
-0.043042
0.032086
-0.004588
-0.091390
-0.072707
0.018620
0.085948
0.087081
0.138877
-0.006302
0.013894
0.111521
0.007794
0.042908
0.022908
0.052810
0.146612
0.025167
-0.011429
-0.047702
0.029571
0.087677
0.033916
0.047797
-0.033575
-0.039937
-0.015269
0.057505
0.037907
0.010679
0.055766
0.057200
-0.009262
0.041298
-0.033657
0.096689
-0.011250
0.051364
0.133272
0.010773
-0.078651
0.051571
0.055368
0.051641
0.110565
-0.102183
0.042061
0.011070
-0.060106
0.072034
-0.007555
0.000440
0.000047
0.049449
0.080097
0.084696
-0.029333
-0.049167
0.048187
0.037800
-0.022861
0.066100
0.042258
0.017628
0.085490
0.023622
0.025449
0.019469
0.098115
-0.024594
-0.076579
0.050138
0.033975
0.056262
0.077420
0.029203
-0.013798
-0.055273
-0.008980
-0.033661
0.031277
0.041831
0.057756
0.006975
-0.010892
-0.066554
-0.003165
0.083756
0.036539
0.095539
-0.020746
-0.035690
0.005588
0.070250
-0.053413
-0.031842
0.014176
-0.023475
0.076328
0.068251
0.037585
-0.013719
0.033502
0.069388
-0.027486
0.043856
0.017219
0.083153
0.078245
0.074224
0.026297
0.089971
0.006064
0.004658
0.003258
-0.031732
0.097358
0.004143
0.015457
-0.075028
0.025922
-0.002159
0.090747
0.073764
-0.075650
0.083920
0.073781
0.065759
0.041673
0.012414
0.085484
0.052488
0.081647
-0.007302
-0.056787
0.017900
0.001082
0.116892
-0.001299
-0.016668
-0.087779
0.072627
0.097816
0.127376
0.089523
-0.021627
-0.074571
0.012773
0.028794
-0.037058
0.058884
0.044960
-0.043379
-0.034719
0.058947
-0.036895
-0.056436
0.000147
0.034001
0.064343
-0.058710
0.055780
0.043194
0.016252
-0.069318
-0.100348
0.005551
0.021326
0.022826
0.013484
0.010984
0.006780
-0.067750
-0.052242
-0.093146
0.119409
0.122968
0.206332
0.156104
0.178310
0.006960
0.088767
0.095134
0.096302
0.073167
-0.157828
-0.150509
-0.123544
-0.228658
-0.139922
0.007985
-0.065186
-0.078704
-0.073964
-0.052693
-0.130802
-0.074621
-0.008255
-0.009431
-0.065299
0.076609
0.133611
0.125244
0.083951
0.129691
0.024206
0.079528
0.100359
0.138570
0.019246
0.098863
-0.115509
-0.117113
-0.049568
0.002471
0.004007
-0.060031
-0.154419
0.021813
0.057643
-0.037442
-0.086824
-0.102171
-0.031925
-0.031478
0.031036
0.046691
0.060873
0.032677
0.054433
0.045900
0.143543
0.160307
0.108195
0.164855
0.091003
-0.080858
-0.125390
-0.099060
-0.020477
-0.123535
-0.165752
-0.100838
-0.067895
0.011054
-0.045660
-0.001386
-0.089838
0.005181
-0.099583
0.028114
0.060417
0.130819
-0.024727
0.027383
0.057942
0.031725
0.099666
0.025380
0.008533
0.066332
0.038602
-0.001147
0.065730
-0.013348
-0.066633
-0.126005
-0.076341
0.026081
0.031078
-0.137499
-0.138870
-0.005863
-0.024402
-0.077141
0.076196
-0.021850
0.043990
0.067903
0.118549
0.056830
0.163683
0.131896
0.223723
0.189520
-0.017801
-0.101796
-0.087891
-0.068620
-0.014877
0.001484
-0.114685
-0.142303
-0.179811
-0.009947
-0.121905
-0.114031
-0.037215
-0.072172
-0.045761
0.031903
0.054795
0.112169
0.041103
0.010163
0.135021
0.157916
0.146463
0.093583
0.069592
-0.018710
0.061267
-0.065704
0.077888
0.054874
0.035463
-0.025170
-0.127785
-0.124827
0.026925
