-0.005525
-0.000544
0.012188
0.006636
0.090415
-0.022300
-0.043226
0.007995
0.063101
0.043257
-0.106328
-0.042963
0.039422
-0.037663
-0.040184
-0.041917
0.023424
-0.012260
-0.058071
-0.103840
0.034684
0.010192
-0.000419
0.034849
0.000151
0.047180
0.160880
0.079394
-0.027956
0.020794
0.067773
-0.021962
0.031324
-0.046133
0.002587
0.096163
-0.051850
-0.062973
0.026575
0.002164
-0.034103
-0.072228
-0.045833
0.064798
-0.022046
0.020609
-0.055913
0.034322
0.035791
0.008302
0.019478
0.099342
0.068406
0.002850
-0.033572
0.154726
0.154223
0.107009
0.040396
0.061939
0.074802
0.030642
0.034949
-0.031851
0.008620
0.044430
-0.081036
-0.093018
0.016071
0.074028
-0.094972
-0.075069
0.008530
0.094316
0.034584
0.015967
-0.035527
-0.040378
0.057361
0.018122
-0.030058
-0.078821
0.019580
-0.022341
0.066636
-0.081432
-0.017608
-0.080201
0.002508
0.029284
-0.048077
-0.031091
0.037343
0.025367
-0.060951
0.017113
0.051860
0.007055
0.037166
-0.055111
0.034469
0.059248
0.064702
-0.016187
0.054315
0.012575
-0.068213
-0.049184
-0.085989
-0.119903
0.004599
0.048744
0.081948
-0.034878
0.026401
0.061972
0.062340
0.001640
-0.061672
0.047640
0.029020
0.014352
-0.021182
0.088800
0.001206
-0.031930
0.018096
0.014646
0.067886
0.031997
-0.040262
-0.087410
-0.141746
-0.071804
-0.028145
0.106442
0.132735
0.029303
-0.026572
0.005302
0.093112
-0.015752
-0.041969
-0.001414
0.001955
0.010446
0.011435
0.105998
0.125469
-0.016922
0.027213
0.047292
0.010594
0.028557
0.057953
-0.005744
0.025354
0.123114
-0.043773
-0.067334
-0.033467
-0.026611
-0.016531
-0.018870
0.009921
-0.088942
-0.053591
0.025689
0.092041
0.031811
0.006207
-0.008163
0.015157
-0.046318
-0.045097
-0.037479
0.068747
-0.006589
-0.016435
0.067185
-0.015682
0.014392
0.026018
0.074254
0.049009
-0.085629
-0.033189
-0.017550
-0.033487
-0.081685
-0.073957
-0.045042
-0.011322
-0.008990
-0.080931
0.070505
-0.005492
0.009412
-0.054647
-0.031534
-0.021568
0.047990
-0.024961
0.023432
-0.047555
-0.067761
-0.065219
0.019947
0.017162
-0.028050
0.050574
0.133006
0.058554
-0.072689
-0.034303
0.035475
0.084854
0.003728
-0.067314
0.025923
0.060398
-0.000533
0.017241
-0.018525
-0.012435
-0.084463
-0.069069
0.046589
0.059243
0.074441
-0.028126
-0.021361
-0.038983
-0.012695
0.032791
-0.043821
-0.018079
-0.030388
0.034106
0.001307
-0.008602
0.060856
0.010087
0.034205
-0.066587
-0.026480
-0.000044
0.010129
-0.039178
-0.058307
0.078159
0.075400
0.031035
0.039970
0.048840
-0.012644
0.043509
0.006043
-0.000280
0.063894
0.076778
0.001999
0.019487
-0.033129
0.017499
-0.059698
-0.024944
0.004023
0.008209
-0.019118
-0.023923
-0.034478
-0.038061
-0.071509
-0.078630
-0.041627
0.030430
0.004158
-0.000080
-0.006053
-0.026458
-0.049443
0.011639
0.043237
-0.097500
-0.022612
-0.005333
-0.000318
-0.093236
-0.182108
0.064123
-0.020185
-0.006805
-0.041624
-0.011948
0.030600
0.032615
0.017522
-0.037838
-0.031588
0.021833
0.040325
0.045421
0.031262
0.047046
-0.065901
-0.045467
-0.052185
0.040581
0.007419
-0.091003
-0.070116
0.038021
-0.018803
0.017875
0.010546
-0.016914
-0.032140
-0.061208
0.022045
0.021170
0.027602
-0.023209
0.017812
-0.003829
-0.009783
0.030483
0.014011
-0.012158
0.076344
-0.064434
-0.047250
-0.006315
-0.044377
0.018704
0.033203
-0.043426
0.031889
0.021971
0.001433
0.035215
0.046585
-0.025993
0.003593
0.017745
-0.002097
-0.042814
0.021861
0.055344
0.029310
-0.060303
-0.025835
0.008081
-0.014272
0.047203
-0.013867
-0.044054
0.033300
-0.016448
-0.013453
-0.012153
-0.049108
0.014737
-0.004409
-0.031011
0.004051
-0.036794
0.004034
0.012788
-0.046553
0.000498
0.029034
0.040686
-0.072211
-0.002302
0.089011
0.158177
0.108227
0.012798
0.032410
0.025064
0.051316
-0.017616
0.036229
0.083031
0.009113
0.016359
-0.049428
-0.052777
-0.022787
-0.031606
-0.007722
-0.009227
-0.028667
0.038089
-0.011582
0.024003
-0.006017
-0.006298
-0.082356
-0.023886
-0.020815
0.026498
-0.008661
-0.033298
0.050633
-0.017220
0.004033
-0.072683
-0.055789
0.091288
-0.004217
0.010660
-0.013107
-0.046715
-0.022281
-0.014328
0.032016
-0.033413
-0.031831
0.000891
-0.042809
-0.080504
0.003613
0.146026
-0.067379
-0.115016
0.008294
0.034026
0.012317
-0.146112
-0.059563
0.024303
-0.016076
0.031857
0.061723
0.074729
0.114329
0.013367
0.031464
-0.030905
-0.007006
0.048574
-0.035841
-0.075654
-0.025036
0.010365
0.056935
0.044125
0.019109
-0.029200
-0.064855
0.021391
0.044311
0.091730
-0.131505
-0.205294
-0.056821
-0.035638
-0.048153
-0.061670
-0.056725
-0.058141
0.063055
0.063670
0.064364
0.031765
0.020198
0.046467
0.058959
0.018604
-0.028208
0.065766
0.009177
-0.074346
-0.024910
0.030673
-0.033661
0.036194
0.001710
-0.014220
0.065573
-0.001069
-0.051987
-0.061679
0.015733
0.055306
-0.005295
0.035230
0.002421
0.013412
0.004356
0.054665
0.057469
0.005316
-0.016714
-0.001880
-0.018767
-0.034395
-0.035023
0.015825
-0.043000
-0.003171
0.032768
0.051523
0.040219
0.082127
-0.001132
0.005172
0.030357
0.042479
0.014625
0.031762
0.001683
-0.053437
0.009827
-0.078932
-0.095711
-0.001434
0.176922
0.015029
-0.083652
-0.095641
0.052278
0.061063
-0.049544
-0.036049
0.002101
0.014629
-0.019439
0.037082
0.093990
0.062923
-0.025515
0.024612
0.063167
-0.019971
0.077365
0.062232
-0.015404
-0.062950
-0.020966
-0.125060
0.147625
0.124825
-0.039876
-0.069543
0.058119
0.099177
0.047559
-0.056593
-0.006744
-0.142654
-0.161706
0.137254
-0.027656
-0.121490
-0.051089
0.023836
0.095304
0.073023
0.029394
-0.073356
-0.093546
0.132281
0.039698
0.022877
0.019502
0.061989
-0.044778
0.052695
0.001345
0.022763
0.062457
0.014966
-0.051879
-0.019946
0.035886
0.001263
-0.029717
-0.001743
-0.071668
-0.047837
0.000053
-0.052298
0.065894
0.075375
-0.004191
0.024066
0.004898
0.047527
0.056651
0.071567
-0.006573
0.017797
0.015604
-0.001142
0.046641
0.021726
0.087759
-0.029599
-0.006068
0.048115
0.024694
0.040936
0.019778
0.069253
0.017946
-0.017574
0.025149
0.028287
-0.029058
-0.008424
0.079154
0.045843
0.023524
-0.000204
-0.069911
0.075405
0.162435
0.065475
0.025648
-0.008533
0.003029
-0.074449
-0.034820
0.034996
-0.015592
-0.011458
-0.020440
0.083014
0.027698
0.006269
0.006498
-0.031297
-0.022640
0.047646
0.033811
0.003278
-0.043291
0.023105
0.002853
0.051491
-0.027814
-0.009186
-0.048337
-0.018086
-0.057887
-0.067661
0.053024
-0.127305
-0.061298
0.022692
-0.002545
0.078798
-0.079986
-0.082681
0.030017
-0.032752
0.023135
0.051602
-0.005027
0.010206
-0.009958
-0.031285
-0.011778
0.035988
0.078322
-0.000997
-0.035217
0.024979
-0.011413
-0.007680
-0.037070
0.122961
0.026326
-0.038624
-0.020413
-0.018410
-0.078025
0.076576
0.021425
-0.016236
-0.001505
-0.025697
0.065079
-0.022956
-0.008555
-0.101694
-0.043758
-0.058149
-0.002665
0.079497
-0.007816
0.119198
-0.035764
-0.012067
0.042270
-0.003469
0.219411
-0.024382
-0.017380
0.003457
-0.022295
0.027309
0.059366
-0.022987
-0.005309
-0.046466
-0.036687
0.057601
0.077043
0.056010
0.020712
0.017028
-0.028558
-0.005140
0.048678
-0.047275
0.007734
-0.042086
0.030078
0.002941
0.005649
0.030914
-0.069525
-0.000222
-0.041532
-0.005568
0.026924
0.031274
-0.016188
-0.030824
-0.066200
-0.033791
0.044155
0.053665
0.017845
0.016226
-0.028325
0.044100
-0.024047
-0.015212
0.022056
0.049870
-0.038015
0.011790
0.048822
0.043614
0.001693
-0.042625
-0.040122
-0.041666
-0.013700
0.019950
0.027689
-0.042694
-0.017233
-0.051503
0.050710
0.000748
0.038020
-0.002400
0.019545
-0.012321
0.049576
0.040752
-0.002462
-0.005557
0.003913
-0.032834
0.020552
-0.014666
-0.008027
0.072516
-0.134200
-0.145142
-0.089235
-0.044657
0.076396
-0.078213
-0.049369
-0.058590
-0.000931
-0.045677
0.058130
-0.022875
-0.057227
0.003694
-0.036048
-0.044830
-0.019716
0.078196
-0.030900
-0.065372
0.003611
0.011992
0.047452
0.036845
-0.002257
0.040102
-0.037016
0.021820
0.038048
-0.070642
0.039848
-0.079162
-0.021217
-0.009099
0.003668
-0.063899
0.007046
0.033101
-0.038692
0.035061
-0.038234
0.049013
0.023952
0.050081
0.083244
0.011041
-0.018296
-0.003015
-0.002262
-0.025571
0.015644
0.087280
-0.012029
0.012784
0.043258
0.168484
0.053564
-0.012756
-0.009290
0.023904
0.002083
-0.070571
-0.028996
-0.020557
0.037562
0.047221
-0.063241
0.034255
0.016587
-0.032973
0.015307
0.009077
-0.006596
-0.038313
0.037565
0.133148
0.130055
0.046776
0.088185
0.033256
0.062333
0.083677
0.116022
0.043965
0.007098
0.050255
-0.004825
0.016102
-0.045426
0.016845
-0.075082
0.045022
-0.020305
0.038658
0.008935
0.046554
0.021101
0.094813
-0.002999
0.082113
0.030664
-0.031130
0.009899
0.002769
0.038906
0.015417
-0.018579
-0.039161
0.040892
0.027795
-0.052163
-0.052728
-0.002917
0.055420
0.055636
-0.004933
-0.030924
0.022635
0.008095
0.067158
0.041150
0.009376
0.048289
-0.014718
0.042950
-0.039959
-0.017493
-0.002348
-0.024226
-0.061039
-0.015219
-0.012963
-0.002566
0.068187
0.036464
-0.020453
0.071920
0.059547
-0.003475
-0.007509
-0.066506
0.039515
0.017241
0.039847
0.052990
-0.020169
0.028316
-0.024864
0.084175
-0.013908
-0.026782
0.027715
-0.047861
0.008801
-0.010566
-0.039834
0.000647
-0.006088
0.003124
-0.008950
0.011621
0.109404
-0.012132
-0.010709
0.032459
-0.037357
0.009065
0.029548
0.018706
-0.013332
0.041909
0.060599
0.018197
-0.029441
-0.023769
0.002349
-0.118380
0.104558
0.070318
-0.093286
-0.022537
-0.061251
0.061633
0.086688
-0.059419
-0.003449
-0.008789
-0.009620
-0.028396
-0.025585
0.008773
0.040292
0.036427
-0.018165
-0.033257
0.052351
0.027916
0.008125
0.035282
0.048105
0.019343
0.048849
0.028429
0.027332
-0.014599
0.010179
-0.016163
-0.036689
0.044272
0.003330
-0.039611
-0.017883
-0.010913
0.022765
-0.032312
0.036931
0.019698
0.046975
0.014070
0.041669
-0.020071
-0.003676
0.065439
0.042855
0.055822
0.025255
-0.001515
-0.051099
-0.014794
-0.044781
0.024965
-0.015399
-0.029945
0.039224
0.007198
-0.041401
0.061167
0.023154
0.022807
-0.023057
-0.036270
0.011728
0.043740
0.057009
0.026549
-0.067739
0.011762
-0.026778
-0.094595
-0.012547
-0.074255
-0.061402
-0.009832
0.041299
0.028780
0.007021
-0.027863
0.067382
-0.029581
-0.028306
-0.045187
-0.039851
-0.028592
-0.025800
0.000768
-0.017484
0.002103
0.014520
-0.029905
0.009063
-0.008872
-0.034669
-0.013975
0.030342
0.008602
0.102928
0.049450
-0.018172
0.024326
-0.066361
0.027843
-0.003185
-0.003014
0.048418
-0.034773
-0.028637
-0.053528
-0.008273
0.040977
0.051251
-0.062870
0.040681
0.012646
0.006605
0.033701
-0.014668
0.050370
0.022741
0.027174
0.007504
0.022527
-0.017814
0.005054
0.080767
-0.126222
-0.036391
-0.078663
0.036318
-0.025237
-0.007839
0.015692
-0.051249
0.068206
-0.009522
-0.055204
0.034037
-0.038059
-0.048857
-0.091884
-0.068759
-0.005000
-0.045052
-0.106655
-0.019143
-0.116124
0.025100
-0.042854
-0.036266
0.056616
-0.055037
-0.032433
-0.031459
0.020166
0.044880
-0.019540
-0.065850
-0.053153
0.018273
0.024747
0.015136
-0.009078
-0.012971
-0.032371
0.073128
0.062835
-0.014108
-0.019365
-0.016170
-0.021304
0.049007
-0.042994
-0.025557
0.023747
0.020449
-0.036454
0.050117
0.019884
-0.013368
0.021405
-0.035881
0.050052
-0.008467
0.036147
-0.016533
0.017915
0.027790
-0.009283
0.006257
0.013167
0.011975
-0.050683
0.007706
0.079508
0.014182
0.104626
0.048972
0.015161
0.038618
0.056280
-0.051908
0.017042
-0.053610
0.029997
-0.049218
-0.042221
-0.022382
0.019507
-0.002922
0.001238
-0.002854
0.032948
0.019758
0.049826
0.022842
0.035709
0.012969
-0.005051
0.012317
0.016466
-0.015814
0.091579
0.068063
-0.014242
0.009658
-0.046219
0.019809
0.008274
-0.045150
0.059211
0.004512
-0.041257
-0.048552
-0.040774
0.060998
0.001505
-0.037536
-0.040222
0.021123
0.029767
0.060846
0.054498
0.031808
0.056476
0.003686
0.010416
-0.016949
0.064806
-0.002498
-0.022443
-0.024901
0.041090
-0.035149
-0.022386
0.043042
0.052867
0.004127
0.018359
0.002403
-0.033914
0.010157
0.043286
0.020939
-0.011014
-0.046743
0.001354
0.031444
0.030432
0.056195
0.027538
-0.006032
-0.021571
0.065644
0.102542
0.011564
0.060249
-0.045466
-0.029731
0.065381
0.053817
0.076939
0.127311
0.004401
0.016489
-0.009991
-0.028238
-0.166022
-0.101688
0.065500
-0.009248
-0.034270
-0.064465
-0.077503
-0.001167
-0.003666
0.000887
-0.063136
-0.012403
-0.039288
-0.023266
0.052106
-0.048515
-0.034788
0.017252
0.083821
-0.044155
0.040443
0.089118
-0.069745
-0.020324
0.051121
-0.100196
-0.117191
-0.082523
0.042375
0.075793
-0.064981
-0.150023
-0.101595
0.009677
0.017658
0.045718
-0.037798
0.041263
0.005478
-0.008667
-0.041380
0.019930
-0.042843
-0.029618
-0.000221
0.087361
-0.045301
-0.020600
0.066107
0.045912
-0.042563
-0.010552
0.048903
-0.015357
-0.050347
-0.008507
0.070742
-0.018643
0.008457
0.031990
0.039647
0.033776
-0.055398
0.030917
0.069064
0.037065
-0.054564
0.037584
0.091834
-0.006212
-0.033709
0.032700
-0.025749
0.054382
-0.044318
0.019356
0.018847
-0.085158
-0.035480
0.102050
-0.045281
-0.051659
-0.045017
-0.081063
0.037247
0.057543
-0.008785
-0.023592
-0.022147
0.054260
-0.067237
-0.022140
0.069917
0.005692
-0.044823
0.014789
0.055610
0.051927
0.033376
-0.033933
0.036850
-0.047763
-0.072889
-0.014041
0.055661
-0.100205
-0.201950
0.029432
0.064938
0.052468
0.090873
0.045322
0.020223
0.115502
0.109244
0.039421
0.055299
0.008407
-0.026674
-0.055151
0.006031
-0.012758
-0.006822
-0.020367
0.026255
-0.056993
-0.015575
-0.041886
0.013960
0.063751
0.016321
0.016550
-0.047015
-0.072890
-0.065193
0.023514
0.042073
0.050664
-0.030271
0.006581
0.022091
0.041193
-0.028614
0.010186
0.089717
-0.023424
0.000758
0.005445
0.006958
0.003519
0.061528
0.039010
-0.028975
-0.034438
0.005566
0.000378
0.004184
0.045305
0.041328
-0.015323
0.068779
0.006075
0.024998
0.005089
0.040453
-0.052865
0.025148
0.025361
0.028499
-0.051373
0.013409
0.049535
-0.008213
0.080392
-0.012766
0.037847
0.056902
0.005896
-0.042734
0.078351
0.064270
-0.003382
-0.049898
0.039201
-0.000162
0.029798
0.079533
0.017308
-0.017227
0.033031
0.077114
-0.011372
0.021407
0.036078
0.001733
-0.094943
-0.032240
0.079910
0.004265
-0.030941
0.014793
0.030940
0.072190
0.004728
-0.019008
0.094956
0.018462
0.044476
0.050605
-0.021981
0.015422
0.094938
0.030597
-0.002672
0.014953
0.058764
-0.042672
0.047410
0.006775
0.050434
0.105011
0.002508
0.086466
0.083102
0.100619
-0.047230
0.016599
0.068783
-0.048998
0.005981
-0.040748
-0.040647
-0.007908
0.014258
-0.024015
0.035313
0.033625
-0.016921
-0.031182
0.029736
-0.042515
0.007301
0.106139
-0.033042
0.118681
0.023031
0.000410
0.078972
-0.020250
-0.099726
0.057434
0.028540
0.041098
0.010626
0.029077
-0.001254
0.052296
0.028333
-0.047745
-0.018256
0.033096
0.034776
0.011970
0.059665
0.055376
0.059534
0.001376
-0.008244
-0.014870
0.005816
0.015583
0.004427
-0.011416
-0.029962
-0.030932
0.053116
-0.016108
0.046978
-0.029794
-0.030431
0.037167
0.015353
0.036495
-0.005919
0.048602
-0.029540
-0.014172
0.009916
0.017000
-0.017937
-0.024187
0.046547
0.009900
0.000799
0.035653
-0.035233
0.042715
-0.004442
-0.027079
-0.038152
0.003406
0.006173
-0.004767
0.018982
-0.017441
0.005840
-0.021838
0.061097
-0.001099
0.033542
0.000720
0.073164
-0.028317
-0.033505
0.036400
0.036569
0.031944
0.034122
-0.011848
0.015100
0.012828
0.031296
-0.023314
-0.005980
0.003616
-0.010339
0.062902
-0.003267
-0.056049
-0.010321
0.020399
-0.021350
0.027380
0.007501
-0.009533
-0.019769
0.057612
0.021967
0.064361
0.048669
0.034248
0.026735
-0.012808
0.052168
-0.004006
0.021022
-0.055384
0.044271
0.015870
0.004649
-0.096088
-0.026705
-0.009628
0.029754
-0.048273
-0.030731
-0.010877
-0.027841
-0.003265
-0.049433
-0.124453
-0.002150
-0.046052
0.037576
-0.011542
-0.012621
-0.019397
-0.043260
-0.015554
-0.016968
0.035007
-0.034862
0.043657
0.020385
-0.024222
0.019866
0.030739
0.042018
-0.049471
0.065178
-0.011451
0.039870
-0.004251
0.012359
0.005555
-0.124344
-0.001020
0.054435
0.036885
0.058201
-0.085112
0.003557
0.020046
0.026343
0.030052
-0.099820
-0.064636
-0.023523
-0.009991
0.010898
-0.026388
-0.028286
-0.010922
-0.034624
-0.038180
-0.024094
0.075266
0.065982
0.046459
-0.028114
-0.005824
-0.082386
-0.080877
0.024363
0.091546
-0.101554
-0.124000
-0.004950
0.043675
0.022891
-0.050673
-0.088520
-0.033633
-0.042551
-0.063169
-0.065251
-0.100904
-0.026464
0.013072
0.042004
0.021565
-0.018548
0.094505
0.039013
0.085354
0.013207
0.006839
0.026886
-0.028282
-0.000001
-0.049693
-0.046365
-0.007842
-0.046128
-0.024010
0.030475
0.048627
0.020031
-0.015820
-0.032967
0.041843
0.028365
0.044883
-0.038074
-0.001153
-0.050149
0.037491
0.021529
-0.015552
-0.001772
-0.038270
0.020474
0.027090
0.035868
-0.023893
-0.004177
0.073350
-0.052193
0.031039
0.031563
-0.010587
-0.012012
-0.034259
0.056105
-0.044613
-0.019588
0.051682
0.051351
0.071806
0.140522
0.023270
-0.042711
0.018357
0.092811
0.036205
-0.019140
-0.005462
-0.045445
-0.003408
-0.070278
0.002891
0.084764
0.024236
0.098115
0.031373
-0.022069
0.003175
-0.047718
-0.002302
0.009424
0.031094
0.007901
-0.000691
0.088049
0.013334
-0.019439
-0.015823
0.109181
0.045048
0.049734
-0.006900
-0.029165
-0.046910
-0.110218
0.049384
-0.036362
-0.058289
0.030932
-0.028534
0.115883
-0.002603
0.005831
-0.075202
0.004402
0.000236
0.043053
-0.045855
-0.070338
-0.083008
0.012678
0.024150
-0.007293
0.091950
0.043171
0.103648
-0.070081
0.005333
-0.016349
0.025285
0.005062
-0.003529
-0.045525
-0.030127
-0.012978
-0.012918
-0.012257
0.016651
0.033901
-0.046657
-0.002891
-0.020989
0.051568
0.021633
0.006334
-0.017210
0.035668
0.011766
0.066952
0.025082
0.023378
0.006890
0.001183
0.052446
0.086707
-0.057859
0.080696
0.071589
0.156621
0.029849
0.075425
-0.001524
0.046643
-0.010526
-0.026301
-0.018428
0.008633
0.011665
-0.041285
0.122474
0.118600
0.052090
-0.097853
-0.018052
-0.085372
-0.008466
0.021063
0.014126
0.051266
-0.048854
-0.047325
-0.000498
0.034404
0.002480
-0.001219
-0.004718
0.021130
0.064785
-0.023609
-0.016714
0.000246
-0.008106
0.003341
0.043818
-0.039927
0.036506
-0.021328
0.010798
0.023955
0.043216
-0.000114
-0.055002
0.029438
0.089977
0.112713
0.046545
-0.037978
0.027882
0.039221
0.023902
-0.038919
-0.076464
-0.090480
0.030358
0.002956
-0.048920
0.020754
0.058755
-0.025637
0.009793
-0.012482
0.044703
0.030034
0.041203
0.008608
0.075896
0.041104
0.016536
0.023304
0.113108
-0.135515
-0.005253
-0.067218
0.076013
0.024459
0.058582
0.042183
-0.011704
0.046886
-0.076294
0.017230
-0.036990
0.003101
0.060887
-0.034034
0.053068
-0.035742
0.033451
0.045859
-0.062194
0.009735
-0.067289
0.028537
0.027213
-0.023517
-0.028316
0.024126
-0.040844
-0.024964
-0.048078
-0.023803
0.021429
-0.045391
-0.003762
-0.015723
0.017794
-0.008054
0.017244
0.068687
-0.019420
0.031031
-0.017057
0.001266
0.012690
-0.000496
-0.028860
-0.017387
-0.023091
-0.040214
0.040323
-0.019016
-0.032623
-0.002223
-0.048610
-0.044788
0.010422
0.041724
0.043385
0.021075
0.060924
0.008215
-0.029290
0.055156
0.034730
0.072593
0.013588
-0.096360
-0.000790
0.057897
0.049590
0.025454
-0.001719
0.041184
-0.021188
-0.016541
-0.036834
0.031458
-0.042251
-0.005579
-0.030785
-0.062853
-0.028747
0.051208
-0.015794
-0.052873
0.041602
-0.053310
0.059059
0.041392
-0.007696
-0.001138
-0.021855
-0.041559
-0.004399
-0.027987
0.035650
-0.046349
-0.058385
-0.015108
0.029126
0.105684
-0.096149
0.022418
0.006440
0.078638
-0.073469
-0.026439
-0.040683
-0.071162
-0.030183
-0.064595
0.017851
0.034993
0.038961
0.015567
0.007696
-0.004582
0.058870
0.052187
0.023337
0.076528
0.026588
0.008369
0.036316
-0.014661
0.042435
-0.031145
0.047812
-0.009356
-0.062976
0.023017
0.003303
0.029763
-0.012151
0.006247
0.073947
0.061584
-0.042282
-0.037077
0.044265
0.053654
-0.002441
-0.031793
0.017326
-0.011081
0.011280
-0.045396
-0.054330
-0.032569
0.052573
0.048513
-0.105309
-0.042377
0.046417
-0.044096
-0.026502
-0.031045
-0.053667
0.031258
0.006050
-0.035842
0.036345
-0.028611
0.036077
0.046095
0.035576
0.014097
0.045486
0.023552
0.035347
-0.014131
-0.040449
-0.174443
-0.049851
-0.031347
0.054755
0.005401
-0.118239
-0.090872
0.049142
0.063418
-0.081887
-0.078559
0.032978
0.041851
0.082426
0.047421
0.036839
-0.002027
0.064494
-0.047197
0.087750
0.023056
-0.001220
0.027364
-0.004036
-0.050462
-0.027712
0.021811
0.007482
-0.041288
0.055568
0.034922
0.033435
0.002050
-0.043774
0.005452
-0.024991
0.043781
0.017133
0.028050
0.012270
0.065572
0.013314
-0.012427
0.060714
0.036910
-0.051274
-0.044698
0.071971
0.071042
-0.035704
0.035557
0.008733
-0.048362
0.035460
0.029836
-0.002959
0.006265
-0.029607
0.056204
0.070338
-0.061196
-0.038147
0.051753
0.022299
-0.019809
0.047467
0.022252
0.049059
-0.035096
-0.055741
0.039214
0.001073
-0.021975
-0.062569
0.009791
0.015872
-0.013895
-0.039963
-0.039146
0.070036
0.064287
-0.008268
0.063529
0.024925
0.007464
-0.031557
-0.045858
0.008336
0.016416
-0.017867
0.087253
0.073466
-0.002791
-0.023471
0.034566
0.016095
0.001351
0.074145
0.062724
0.019040
0.070165
-0.161295
-0.222997
0.020834
0.037042
-0.023333
-0.023171
-0.084781
0.109065
-0.023051
-0.064230
-0.013407
0.071927
0.104586
-0.023718
-0.060356
-0.036439
-0.053605
-0.058823
-0.047493
0.005627
0.080329
-0.037839
-0.052367
-0.000378
0.034451
-0.000380
0.063012
-0.030596
-0.012445
-0.025180
-0.028859
-0.011937
0.012804
0.069805
0.021156
-0.019649
-0.025898
0.038490
0.041691
0.027934
-0.041026
-0.018125
0.013511
-0.039119
0.014491
-0.014286
0.047065
0.057793
-0.009326
-0.007022
0.055571
0.013620
0.000812
0.062576
0.108643
0.074279
0.087530
0.111062
0.091424
0.032581
0.072852
-0.002550
0.063926
-0.041691
0.029462
0.079870
-0.013760
-0.058128
-0.099912
0.023312
0.010504
0.014070
0.019506
0.233881
0.142382
0.014167
-0.036552
0.041103
0.111462
0.090354
0.016393
0.006003
0.061637
0.080694
0.057747
0.000552
-0.055479
0.020794
0.012412
-0.032770
0.037300
0.031299
-0.012724
0.035173
-0.035115
0.015209
0.012221
-0.010188
-0.104894
0.024063
0.135269
0.125470
0.080808
-0.002500
0.054350
0.006311
-0.000232
0.004188
-0.046276
-0.029671
-0.027190
-0.025954
-0.094710
0.072813
-0.016317
0.000500
-0.016456
0.018320
0.036216
-0.048866
0.099499
0.072764
-0.004533
0.068432
-0.016646
0.052390
0.007529
-0.015816
0.011239
0.006924
-0.057773
0.070924
-0.105662
-0.002533
0.009320
0.056148
0.099830
0.010775
0.036504
0.026474
0.114220
0.111499
0.017026
-0.008852
-0.048341
0.117022
0.120914
0.042481
0.029755
0.021150
-0.034326
-0.035598
-0.032210
0.030538
-0.021837
-0.018241
-0.044353
-0.041683
-0.002614
-0.031613
0.006686
0.018258
-0.019841
0.049774
-0.021906
-0.019841
0.064323
0.036076
-0.052387
-0.038593
-0.005711
0.072591
-0.014404
-0.010061
0.020138
0.018527
-0.059904
-0.000436
0.042615
-0.031540
-0.049040
-0.064514
0.000349
0.045378
0.001872
0.011033
0.061108
0.044168
-0.048749
-0.007080
-0.004954
0.062127
0.055367
-0.003516
0.044342
0.038941
-0.013604
-0.026387
0.024659
-0.029106
0.022608
-0.045488
0.012911
-0.004786
-0.009926
-0.024341
0.023847
-0.032399
0.013303
-0.056810
-0.019669
0.000603
0.033256
0.015323
-0.048279
-0.017370
0.002147
-0.013624
-0.003032
-0.042900
-0.014696
0.011020
-0.030343
-0.075077
-0.129042
0.003623
0.054224
0.073405
-0.067502
-0.048482
0.043196
-0.025125
0.025136
-0.020114
-0.015914
-0.045697
0.013869
-0.024622
0.034605
0.046300
0.031915
-0.034336
-0.046032
-0.052143
0.024593
0.029709
0.094834
0.023274
0.063400
0.028558
0.033040
-0.014361
-0.060516
-0.025198
-0.000239
0.016542
0.003893
0.022812
-0.130263
-0.082129
-0.037384
0.047748
0.040049
0.051999
0.024623
0.058698
0.032872
0.031842
0.076237
-0.018831
0.008288
0.079298
-0.008163
0.054298
0.073253
-0.013220
-0.002223
0.011678
0.166577
-0.000316
-0.009504
-0.003637
-0.018742
-0.008146
0.055798
-0.026420
-0.052072
0.010929
0.080057
0.023280
-0.068963
-0.073705
-0.000083
0.059853
0.027300
-0.035485
0.049756
-0.020398
0.019214
0.118946
0.098381
0.102314
-0.032520
0.018920
0.052836
0.031357
-0.041661
0.038333
0.155833
0.064696
0.076663
-0.065048
-0.103073
0.041747
0.090847
0.022356
0.076033
0.047421
-0.000908
0.093643
0.046077
0.025578
0.022037
0.042439
0.075999
0.046577
-0.045316
-0.074168
0.028964
-0.018871
0.018403
-0.038926
-0.023553
-0.050520
0.022200
-0.014402
0.037022
0.008536
-0.058744
0.059077
0.013042
0.050111
0.064750
0.052750
0.024867
-0.016122
0.080921
0.071493
0.054924
0.014050
0.007486
-0.023038
-0.027554
0.015569
-0.047838
-0.078219
-0.002709
0.046983
0.034167
-0.006035
-0.032557
0.014695
0.040455
0.034843
0.018270
0.061190
0.066470
0.042007
-0.019745
0.173145
0.040985
0.136164
0.063294
0.003834
0.032022
-0.037948
-0.005072
-0.030822
-0.004303
-0.050562
-0.063973
-0.009589
0.019369
-0.017249
0.038634
-0.047248
-0.011640
0.001767
0.050823
0.088360
0.095051
0.078401
0.005270
0.039648
0.163245
0.064829
-0.003875
0.042380
-0.038443
-0.087687
-0.032001
0.023767
0.008658
0.107128
0.007691
0.009544
0.009640
-0.093213
0.007618
0.018901
0.019715
-0.029956
-0.002695
-0.128505
-0.031373
-0.033240
-0.018932
0.013912
0.014720
0.042802
0.004810
0.097977
0.062900
-0.006563
0.071036
-0.026540
0.009220
-0.059853
-0.009704
-0.029479
0.021373
-0.019411
0.003030
-0.091936
-0.033409
-0.005084
0.057165
-0.022378
-0.045096
-0.035720
0.005795
0.029114
0.057537
0.042394
-0.023245
-0.013423
0.071480
-0.007098
0.040379
0.042351
-0.005134
0.025267
-0.082077
-0.052810
-0.053098
-0.048543
-0.031632
0.072078
-0.033232
0.009125
0.003788
-0.074232
-0.076075
-0.001997
0.005686
0.058773
0.091967
0.070915
-0.054566
0.021348
0.017785
-0.095838
-0.075557
-0.041889
0.019469
0.051120
-0.014343
-0.052555
0.010116
0.069408
-0.042926
-0.023573
0.021599
-0.035975
-0.039529
-0.010259
0.003142
-0.004165
-0.089642
0.048176
-0.021386
0.059642
0.012593
-0.020236
-0.018734
0.051069
0.011100
0.044181
0.080239
0.060872
-0.076031
-0.045609
-0.068699
0.143211
0.067382
0.016498
0.023939
0.024214
0.078667
0.033025
-0.032520
-0.005492
-0.047844
-0.041448
-0.001737
-0.044404
0.052791
0.044802
0.028072
0.034340
0.038845
0.000200
0.019990
-0.015304
-0.008005
-0.068823
-0.053260
-0.065067
-0.039706
-0.048591
-0.030543
0.002879
-0.119926
-0.089650
-0.071064
-0.012733
0.011847
-0.076276
-0.011668
0.020217
0.014168
-0.091544
-0.066138
0.026382
-0.031586
-0.023562
0.006382
-0.014413
0.042869
0.013567
0.029896
0.017892
-0.017835
-0.014782
-0.049648
0.052794
0.041509
0.041057
-0.096160
-0.064625
-0.048826
0.006847
-0.012254
0.029125
0.037013
-0.022529
-0.004934
-0.012337
0.062047
0.025518
-0.013310
0.058523
0.055068
-0.011503
0.083091
0.023589
-0.058342
-0.023666
-0.024379
-0.038016
-0.040225
-0.038128
0.028381
-0.053464
-0.027596
-0.010485
-0.037835
0.050286
0.035859
0.000160
0.037702
0.069080
0.018962
0.034964
0.097017
0.025518
0.019164
0.059858
0.095432
0.060463
-0.011249
-0.042627
0.004702
0.042019
0.050997
0.011920
-0.007105
0.018979
-0.046958
-0.060542
0.032956
-0.022985
-0.034375
-0.021871
-0.047751
0.056681
0.044205
0.012279
0.057902
0.034294
0.017403
0.026068
-0.025396
0.100781
0.139154
0.050172
-0.062385
-0.029859
0.123147
0.058377
-0.025978
0.031268
-0.044118
0.065582
-0.000892
-0.060647
0.002124
0.000835
-0.083491
0.021860
-0.057792
0.016685
0.005125
0.098789
0.049392
0.056521
0.002368
-0.019790
-0.008109
0.000504
-0.074056
-0.000295
-0.050847
0.015178
-0.033213
0.006956
0.041936
-0.019678
-0.023460
-0.002748
-0.001186
-0.035377
0.020708
-0.039187
-0.001801
0.047321
0.029752
-0.084358
-0.024048
0.024320
-0.009013
-0.043236
-0.142553
0.088911
0.113715
-0.074813
-0.042516
0.015581
0.092669
-0.009889
-0.022650
0.013709
-0.036967
0.023596
-0.040542
0.049023
0.015049
-0.005828
0.090422
0.010198
0.002389
0.024900
-0.028959
0.069197
0.073655
-0.022916
0.004892
-0.057100
-0.028428
0.029214
0.047205
0.145403
0.039686
0.197898
0.204704
0.147767
0.005745
0.113297
0.007473
0.003618
0.002387
0.047641
0.019627
0.069024
0.065922
0.053617
-0.012976
0.000943
0.014651
0.046756
0.006377
0.092682
0.102180
-0.050489
-0.032034
-0.076749
-0.026242
-0.006170
-0.024067
0.042045
-0.028591
-0.042627
-0.036625
-0.050308
-0.038579
0.023186
0.050296
-0.022707
-0.019974
0.032986
-0.058214
-0.046671
-0.019592
-0.049558
-0.065307
0.006861
0.019643
-0.035063
-0.056261
-0.041797
-0.022495
-0.009011
0.033884
-0.028825
0.065919
0.080610
0.043884
0.096890
0.046637
0.041178
-0.070441
-0.002051
0.047672
-0.078403
0.072686
0.046924
-0.106402
-0.110638
-0.052380
-0.017739
-0.016238
-0.052793
-0.010134
-0.060919
-0.083547
0.002252
0.017209
0.011395
-0.008442
-0.006154
0.026776
0.027911
0.089466
0.003271
0.003797
-0.006375
-0.001619
0.033806
-0.041218
0.061638
0.008630
-0.023764
-0.070074
0.010323
-0.006312
-0.042349
0.009140
-0.020992
0.089779
0.088843
0.078865
0.027270
0.029537
0.010819
0.057058
-0.026779
-0.068250
0.027257
-0.062486
0.016400
0.084202
0.046693
0.011763
0.045098
0.006431
0.013690
-0.009091
0.097098
0.005519
0.003574
0.065556
0.007079
-0.050805
-0.038889
0.022156
-0.017075
-0.011280
-0.089135
-0.043687
0.013672
-0.027951
-0.060837
-0.007303
-0.015466
0.019838
0.056597
0.036495
0.032049
-0.052087
-0.040335
0.032437
0.016376
-0.002692
-0.006243
-0.027176
-0.009215
-0.015762
-0.121136
-0.054485
-0.041852
-0.065835
0.025081
-0.012177
0.039989
0.089182
0.046639
0.038290
0.107483
-0.033608
0.049583
-0.054389
0.039833
0.009529
-0.029390
-0.003696
0.007872
-0.164296
-0.081792
0.020173
0.008638
-0.033097
0.029614
0.025945
0.030736
-0.033858
0.009468
-0.038454
-0.055327
-0.028129
-0.030109
0.018165
0.046269
-0.021935
-0.001412
0.027342
0.043302
-0.015379
-0.043299
-0.058455
-0.024632
0.004542
0.058428
-0.011986
-0.055516
-0.017301
0.015323
-0.004396
-0.119173
0.187909
0.040981
-0.046922
0.051184
-0.026751
-0.038680
-0.030864
0.075748
0.020987
-0.065238
-0.016775
0.053969
0.049435
0.005479
-0.032560
-0.000203
-0.041777
-0.023938
0.074182
0.017624
0.036444
0.044901
-0.027702
-0.059271
-0.137798
-0.028133
-0.054610
0.012016
0.025703
-0.023125
-0.007108
0.038164
0.018598
-0.069722
-0.019858
0.010315
0.009105
0.105999
0.000971
-0.088381
-0.076266
-0.010246
-0.038576
-0.043674
-0.111128
-0.093266
0.027276
0.013024
-0.025572
-0.133568
0.014556
-0.066349
-0.016204
-0.022818
-0.060338
-0.074366
-0.062965
0.009464
-0.015107
0.021458
0.010992
-0.039732
-0.028170
0.007728
0.021221
-0.044422
0.022679
0.035121
-0.044472
-0.012768
-0.042607
-0.048688
-0.000343
-0.025136
-0.027418
0.022558
-0.021519
-0.047197
-0.063863
-0.012956
-0.043546
-0.033516
0.054007
0.028708
-0.020276
-0.004463
-0.015336
0.017657
-0.000977
0.064130
-0.002741
0.027515
0.021156
0.008377
-0.078547
0.019292
0.023904
-0.056915
-0.054217
0.018933
-0.009449
-0.076938
-0.034492
0.021876
0.004312
0.015213
-0.008464
0.005145
-0.003477
-0.029288
0.004183
0.017515
0.000845
-0.006544
0.040270
-0.014223
0.011521
0.018023
0.035835
-0.059993
-0.050909
-0.005986
-0.026864
-0.009505
-0.040848
0.109147
0.075567
0.040727
-0.060190
-0.028237
-0.037690
-0.056917
-0.053171
-0.024318
0.002765
-0.026847
0.076185
0.074598
-0.030853
0.039332
-0.013183
-0.039027
0.006619
-0.015984
0.094016
0.015848
0.021905
0.074708
-0.038435
-0.091664
0.032517
0.012674
-0.026762
-0.030685
0.008392
-0.036867
-0.053474
0.022411
0.007677
0.038249
0.017874
0.025655
0.022911
-0.002654
-0.043654
-0.026978
-0.022146
-0.037626
-0.038331
-0.001567
0.026972
-0.011118
-0.021533
-0.046931
-0.036545
0.005524
-0.028438
-0.015731
-0.050116
-0.035400
0.010276
0.029544
-0.030361
-0.013989
-0.021456
0.028655
-0.012745
0.019748
-0.024052
0.024833
-0.049999
0.024967
-0.028060
0.037573
0.041217
0.000073
-0.004802
-0.011541
-0.051849
-0.044774
0.002086
0.000006
0.017854
0.030290
-0.005390
-0.030208
0.005017
0.029331
0.014669
-0.008245
-0.032294
0.032689
0.026454
0.017444
-0.021151
-0.015375
-0.035601
-0.028297
0.026260
-0.018346
0.021698
-0.047300
0.040585
-0.002441
0.023073
0.007535
-0.016758
-0.024026
0.027136
0.040522
0.010759
0.012820
0.001116
-0.045568
-0.009056
-0.029428
0.020667
0.011453
-0.013744
0.029842
-0.053593
-0.027851
-0.009597
-0.051789
-0.007187
0.015137
0.043658
-0.053882
0.037826
0.037950
-0.024434
-0.025943
-0.038985
0.033846
0.037146
0.030501
0.022284
-0.019874
-0.023549
0.030230
-0.042896
-0.014612
-0.040394
-0.036654
-0.023565
0.003595
0.021734
0.029236
0.023547
-0.046988
0.017852
-0.039269
-0.025580
-0.041523
-0.036156
-0.031728
-0.024105
0.024410
0.001571
0.003558
0.027638
-0.043962
0.039440
-0.031657
0.032825
0.003686
-0.015424
0.021016
0.013138
0.014343
0.029829
0.021075
0.042161
0.023781
-0.027885
-0.025406
0.032268
-0.054624
-0.042111
0.034048
-0.010601
-0.001388
-0.019343
0.013939
0.021084
-0.007173
-0.005731
0.042140
0.023951
0.020032
0.020646
0.018634
-0.031170
0.009340
-0.049393
-0.011859
-0.044250
-0.006118
0.042468
0.016201
-0.010790
-0.029495
0.035344
0.033500
-0.040865
-0.024268
0.002671
-0.034374
0.030129
-0.019668
-0.044602
-0.012217
-0.002709
0.006117
-0.008882
0.001707
-0.006765
0.014512
-0.010830
0.007351
-0.053366
0.036320
-0.013590
0.013901
-0.053167
-0.045488
0.003877
-0.018025
-0.012466
-0.005779
0.013893
0.026076
-0.024588
-0.001092
0.010955
0.025695
0.000881
-0.053994
-0.018837
-0.048825
-0.033748
0.028816
-0.015215
-0.051061
-0.030929
0.040140
-0.003768
-0.038273
0.044220
-0.022344
0.006436
-0.024628
0.032152
-0.024904
0.036738
-0.018162
-0.037910
0.000032
-0.042163
0.020724
0.033642
-0.019811
0.038950
-0.044167
0.019716
0.037732
-0.038571
0.033909
-0.032424
0.014020
-0.020798
-0.030246
-0.037888
-0.049842
0.001873
-0.014929
0.016296
-0.005078
0.027280
0.031150
0.014413
-0.016458
0.017330
0.024178
-0.012094
-0.029423
-0.030424
0.024040
-0.046066
-0.043800
-0.031633
-0.022376
-0.050045
-0.055134
0.030292
-0.049979
-0.021806
-0.007032
0.004966
-0.059030
-0.046053
0.017101
-0.052031
-0.014899
-0.036926
-0.054375
-0.034791
0.025837
0.038269
-0.003614
0.018891
0.040214
0.018465
0.029356
0.020042
-0.057385
-0.015391
0.017204
-0.042309
-0.032785
-0.008543
-0.036096
-0.050036
0.019718
0.033028
0.006219
0.018008
-0.049127
-0.018764
0.039586
-0.000997
-0.047497
-0.026532
0.006311
0.032824
0.038955
-0.009803
0.015807
-0.007229
-0.017235
-0.043878
0.004258
-0.031157
0.023925
-0.019746
-0.014224
-0.044375
-0.008528
0.021099
-0.054150
-0.032796
0.009213
0.042983
-0.044258
-0.036078
-0.014809
0.038256
-0.049668
-0.000160
0.014414
-0.003881
-0.049490
0.026789
0.008916
0.027098
0.007487
0.021509
0.037713
-0.056867
0.021395
0.042357
0.029375
-0.035719
0.031319
0.008048
0.001399
-0.024805
-0.005992
0.045432
-0.022145
-0.028319
-0.051508
-0.033218
-0.004475
-0.046351
0.038792
-0.018888
0.018983
0.017279
-0.012457
-0.033489
-0.011895
-0.031433
0.023607
-0.005779
-0.046491
-0.026485
-0.047212
0.018761
0.039750
-0.035800
-0.017586
0.036323
-0.031873
0.039867
0.020000
0.028841
-0.036599
0.003719
0.032079
-0.053240
0.033330
-0.040837
-0.045791
-0.028370
0.003964
-0.039314
-0.026321
-0.051060
0.016701
0.014860
-0.013753
0.012506
-0.037169
0.014734
-0.030101
-0.031774
-0.014040
0.001762
-0.001613
-0.033766
0.044177
0.016772
0.007966
0.034911
0.035324
0.017712
-0.048539
-0.039634
0.046648
-0.052402
-0.036368
-0.049439
-0.055039
0.029089
0.066382
-0.018267
0.009039
0.020523
0.004599
0.008697
0.016861
0.069562
0.014497
0.060938
-0.046697
0.031339
0.069127
-0.005306
0.010714
-0.022786
-0.057944
0.011582
-0.041937
0.008991
0.032959
0.038137
-0.005214
-0.079695
0.008518
0.021334
0.013831
0.025527
0.022525
-0.024973
-0.008914
0.011347
-0.009319
0.058528
0.027374
-0.053568
-0.072427
0.062718
0.025041
0.092443
-0.006933
-0.033487
0.087701
0.064390
0.104873
0.004678
0.079575
0.057133
0.104154
0.127190
-0.028043
0.027505
-0.052944
-0.039270
-0.058254
0.054848
-0.074431
-0.015408
0.010472
-0.072595
-0.036400
0.052334
-0.024411
0.040081
0.035593
0.004346
-0.013872
-0.000101
-0.009775
-0.052672
-0.024710
-0.030169
0.007089
-0.033431
0.005528
-0.003973
0.002552
0.001975
0.059703
0.034952
-0.001746
-0.004573
0.018361
-0.004290
0.001627
0.052702
-0.051827
0.035117
-0.032489
-0.016304
0.043917
0.000798
-0.034299
-0.010350
-0.001525
0.046980
0.014693
-0.008102
-0.029334
0.001942
0.057454
-0.003254
0.054615
0.002922
0.059379
-0.032431
-0.001388
0.043901
0.028568
-0.065278
0.022677
-0.003677
-0.007296
0.001458
0.029080
-0.011747
0.040714
0.051568
0.000629
-0.052786
0.047143
0.007187
-0.043017
0.085115
-0.006824
0.020557
0.050671
-0.019329
0.016865
0.033202
-0.087919
-0.026746
0.063338
-0.064023
-0.045954
0.089009
-0.000312
-0.119193
-0.176864
0.174130
0.020485
-0.046577
-0.034905
-0.001224
0.181148
0.018993
0.078131
0.001942
0.066231
0.173733
-0.010897
0.000473
-0.002322
-0.052071
-0.050069
0.092399
0.067396
-0.003363
0.017163
-0.003598
0.013841
0.044775
0.044782
0.045909
-0.013688
0.014536
0.018610
-0.030386
-0.038867
0.012885
-0.011981
0.046176
0.027736
-0.010535
-0.021978
0.009999
0.010359
0.069906
-0.033770
0.008974
0.004480
0.010347
0.034795
0.067685
0.065491
0.056748
0.036466
-0.018133
-0.005929
0.037644
-0.004491
0.071931
-0.006646
-0.052105
0.002500
0.026257
0.040591
-0.119747
-0.088633
0.038112
-0.010910
0.048323
-0.004209
-0.056694
0.014621
0.001056
-0.111496
-0.062682
-0.092314
-0.047686
0.078557
0.074649
0.005279
-0.038816
0.031071
0.103486
0.084063
-0.028117
-0.039836
0.031256
-0.039959
0.036358
-0.048326
-0.031443
0.005179
0.036119
0.016723
0.048195
-0.024474
0.013654
-0.037654
-0.062090
0.024585
-0.010615
0.008989
-0.077624
0.132059
0.113397
0.059509
0.030283
-0.018573
0.013967
0.014639
-0.047434
0.106795
0.044054
0.030331
0.019462
-0.021560
-0.028894
-0.045685
-0.064022
-0.072388
-0.000187
-0.074613
0.079496
0.044124
0.074601
0.009113
0.032903
0.016722
0.024112
-0.046815
-0.217623
-0.161940
-0.052561
0.018368
-0.039134
-0.090724
-0.057920
-0.025944
0.000294
0.056242
-0.029216
-0.025962
0.073716
-0.011101
-0.062626
-0.011869
0.070426
-0.012037
0.020474
-0.066445
-0.063852
0.072235
-0.019106
-0.027401
0.015013
-0.029715
0.053480
0.030140
-0.013378
-0.044741
-0.034734
0.054601
0.056966
-0.021098
0.024205
-0.024330
0.021818
0.042298
0.037991
-0.017221
0.059270
0.049992
-0.049630
0.037859
-0.010797
0.060611
0.041407
0.056380
-0.045367
0.016627
0.028435
0.024504
0.002839
0.005829
-0.052304
-0.053062
0.015864
-0.030881
0.052638
-0.043338
-0.011513
-0.023485
0.093599
0.010483
0.085560
0.007222
0.063522
0.014480
-0.004528
0.097382
0.042775
0.079452
0.010758
0.017512
-0.037004
-0.034040
0.062087
0.020358
0.040893
-0.020630
-0.023748
-0.005207
-0.040688
-0.030518
0.017838
-0.014169
-0.004652
0.022896
0.067703
-0.015995
-0.026493
0.040507
0.042759
0.068282
0.022162
0.065976
0.048990
-0.010495
-0.026189
0.028685
0.097900
0.077589
-0.031535
0.033254
-0.009229
-0.028981
0.061098
0.065395
0.057415
0.009958
-0.074888
-0.007809
-0.002656
-0.003942
-0.012517
-0.005497
-0.031366
0.046708
0.005987
0.061102
0.006260
0.056145
0.060817
0.039134
-0.057534
-0.035672
0.009201
-0.015169
-0.013406
-0.029482
0.016979
-0.016627
-0.058741
0.060157
0.001069
-0.011459
0.026563
-0.014495
-0.000431
-0.002519
0.002527
-0.020458
-0.094208
-0.047288
-0.057599
-0.045858
-0.092270
0.045813
-0.030223
-0.132580
-0.172232
0.020159
0.039736
-0.005796
0.006629
-0.022436
-0.087087
-0.036903
0.025229
-0.039602
0.055011
0.088829
-0.093326
-0.045870
0.014958
0.036974
-0.011181
0.009028
-0.015940
0.054272
-0.009902
-0.047337
-0.028745
-0.078388
-0.103423
-0.004387
-0.006632
0.145763
0.002698
-0.030852
-0.159573
-0.015581
-0.060584
-0.073465
-0.047220
0.070486
0.002587
0.007174
0.028261
-0.000482
0.022961
0.039570
-0.075123
-0.009358
0.010562
0.072813
0.124627
-0.000185
0.031505
-0.004265
0.007726
-0.078454
0.008907
0.048530
-0.034901
0.016673
-0.043230
-0.003775
-0.019753
0.085980
0.033031
0.005066
0.027017
0.030440
-0.038830
0.027950
0.075229
-0.027657
-0.101230
-0.022544
-0.029400
-0.035406
-0.017487
-0.043515
-0.023816
-0.027374
-0.007459
-0.012628
-0.009379
0.051773
0.059167
0.050392
0.033271
0.062034
-0.056059
0.064642
-0.010630
0.023873
-0.012825
-0.014909
0.006808
-0.110493
-0.010353
-0.082461
-0.033023
-0.043541
0.014129
-0.045490
0.010629
-0.018300
0.009970
-0.027603
-0.036960
-0.019545
0.012684
0.038611
0.085910
0.028448
0.027609
-0.034842
0.066580
0.056487
-0.026169
-0.009472
-0.056403
-0.000481
-0.073470
-0.056529
-0.101731
-0.021274
-0.047672
-0.039863
0.035220
0.139544
0.084813
-0.163121
-0.071675
0.052163
0.006070
-0.041888
-0.218526
-0.038465
0.015688
0.006587
0.035418
-0.030297
-0.040727
-0.021258
0.019465
0.049422
0.072858
0.106247
0.024793
-0.018590
0.014479
-0.010719
-0.003584
0.061202
0.028292
0.002389
-0.030163
-0.003860
0.003196
0.016553
-0.015993
0.021076
-0.100260
0.009322
0.050352
0.033509
0.049286
0.017856
0.018198
0.019524
0.044698
0.003315
-0.007754
-0.087461
-0.023781
-0.022158
-0.062714
-0.109773
-0.005479
-0.030143
0.033094
0.060443
-0.023696
0.043786
0.016156
0.118655
0.080391
0.086924
0.070461
0.067449
0.009323
0.020705
0.032853
0.029763
0.044200
-0.008812
-0.042759
-0.015870
0.070259
0.011040
-0.004280
0.009980
0.026416
0.172930
0.101267
-0.003209
0.020388
-0.029690
0.023421
-0.013665
0.017125
-0.013171
0.041021
0.042255
-0.011145
0.061573
0.024664
0.019070
0.036870
0.053048
-0.016442
0.060510
-0.002355
-0.081368
0.019255
0.020868
-0.001458
-0.106547
0.004886
-0.087466
-0.142392
0.007901
0.076188
-0.042109
-0.002406
-0.017758
0.001312
-0.077705
-0.031602
0.029527
-0.001580
-0.013178
0.008410
-0.077105
-0.014012
0.066851
0.096115
0.080067
-0.008660
-0.002842
0.084292
0.009935
-0.010072
0.007482
-0.007887
-0.008263
0.039756
0.110127
0.023475
0.050683
0.031161
-0.002455
0.003961
-0.057870
0.028858
0.023698
-0.025153
-0.020414
-0.078528
0.054941
0.016009
-0.059186
-0.025654
-0.007174
-0.005948
-0.041482
0.026779
0.010505
0.035926
0.027626
0.005453
-0.034378
-0.006544
-0.048192
-0.039286
0.042573
0.034256
-0.002592
0.000301
0.019593
0.001513
-0.020102
0.085894
-0.019490
-0.051539
-0.019488
-0.040291
0.013853
-0.117769
-0.038335
0.001915
-0.081846
-0.097667
-0.041378
-0.017329
-0.000028
-0.059113
0.032026
-0.060560
0.010042
0.072705
-0.025260
0.018809
0.017321
0.043112
0.041931
0.092847
0.035999
-0.048516
0.027119
-0.010611
-0.005072
0.002147
-0.012698
-0.091890
-0.102495
-0.093360
-0.063055
0.004573
0.024520
0.009785
-0.031760
-0.050329
-0.040990
-0.045414
-0.044736
-0.008092
0.016650
-0.060599
-0.036638
0.029247
0.020324
0.056193
0.020269
0.064616
0.051954
-0.026237
-0.033439
-0.035325
0.036597
0.010910
-0.027531
-0.090320
0.064686
-0.138410
-0.179015
-0.172984
0.028693
-0.006754
-0.033745
-0.067191
0.008207
-0.051721
-0.057845
0.039511
0.039805
-0.009367
-0.006767
0.028397
0.001725
0.005167
0.067572
0.089529
-0.025753
0.057114
-0.005623
0.030026
-0.056000
0.016705
-0.031760
0.026186
-0.029305
-0.078814
-0.024161
0.036154
-0.019723
0.010756
0.033271
-0.032030
0.036066
-0.042366
-0.021446
-0.031327
-0.002972
-0.003869
-0.005679
-0.012111
0.013216
-0.024344
-0.011223
-0.050268
0.006646
0.051250
-0.029622
-0.001083
0.072150
-0.056834
-0.017599
-0.061839
-0.011705
-0.005409
-0.037552
0.008751
-0.097573
0.051083
-0.006269
0.027892
0.032248
-0.025418
0.036807
-0.033262
0.035846
0.005324
0.018805
0.025008
-0.000365
-0.004991
-0.023071
0.020529
-0.020900
0.079295
0.159920
0.076503
-0.009193
0.088299
0.076439
0.067062
0.094072
0.037411
-0.068729
0.020843
-0.009935
-0.005651
-0.047658
-0.016087
0.015290
-0.016523
0.011334
0.010165
0.116452
0.027866
0.101348
0.054347
-0.035690
-0.005146
0.001123
-0.000711
-0.022782
0.035029
-0.002906
-0.009504
-0.018804
-0.014166
-0.027304
0.021348
-0.023377
0.016044
-0.010708
-0.021943
0.004555
0.005267
0.043259
-0.008336
0.021160
-0.079527
-0.033538
0.023444
-0.018205
-0.032868
-0.043482
0.041967
-0.011652
-0.018156
-0.010456
0.015366
0.039949
-0.041795
0.079645
0.060675
0.020506
-0.000640
-0.045971
0.032146
-0.069013
0.011250
0.049556
-0.040864
-0.083640
0.003182
0.001569
0.073101
0.092643
0.143250
0.008017
0.031566
0.040226
-0.012323
0.033804
0.048867
-0.016122
0.031458
0.027092
0.050708
0.034451
-0.024903
0.005431
-0.031672
-0.005920
-0.033811
-0.038269
0.008562
0.020833
-0.001250
0.040097
0.040906
-0.076228
0.015837
0.039436
0.034535
-0.025185
-0.005500
-0.072405
0.173987
0.033446
0.004945
0.001569
0.062868
0.101228
0.003582
0.003627
0.002736
0.015490
0.052364
-0.036549
-0.003350
0.040230
-0.046585
-0.010500
0.014208
0.036092
0.008448
-0.003532
0.055704
0.018363
-0.055455
-0.040831
-0.014043
-0.074619
0.005252
0.019807
0.013842
-0.063819
-0.044114
0.015346
0.054994
-0.008004
-0.056739
-0.009011
0.010143
0.051486
-0.046544
-0.049972
0.012554
0.003334
-0.011893
-0.054068
-0.024395
0.029686
-0.028660
-0.044275
-0.025096
-0.021963
-0.000114
0.060544
0.009300
-0.005617
-0.055624
0.108450
0.020468
0.017732
-0.020851
-0.041370
0.039641
-0.050731
-0.011172
0.018609
0.053131
-0.012421
-0.019870
-0.030317
-0.020947
0.085703
0.113019
-0.007594
0.005283
-0.023377
0.005258
-0.048833
0.085184
0.065756
-0.066397
0.007840
-0.033266
0.032893
-0.019649
-0.000996
-0.014533
0.017397
0.045261
-0.024426
0.036619
0.000945
0.029580
0.009708
-0.023729
-0.008216
-0.048792
0.027587
0.066457
0.155905
0.022429
0.021869
-0.027976
0.007556
-0.015944
-0.040636
0.014003
-0.036054
-0.023081
0.008368
-0.064026
-0.057225
-0.033402
-0.007861
0.030169
0.033086
0.017580
0.074315
0.008191
0.025677
0.041575
0.043125
0.018376
0.028512
0.002069
-0.049773
-0.038967
-0.074221
0.001256
-0.020828
0.013382
-0.040708
-0.013745
-0.038288
0.094782
-0.015280
0.071076
0.079843
-0.028120
-0.006007
-0.088159
-0.066551
-0.087520
-0.084244
0.006971
0.038298
-0.012669
-0.005697
0.038249
0.006712
0.027409
0.014787
-0.011950
-0.051245
-0.017651
-0.059598
-0.041302
0.028921
0.037362
0.004176
-0.050429
0.029722
0.052772
0.006451
0.025599
-0.035085
-0.014539
0.023331
0.000941
-0.061835
-0.002018
0.011163
-0.005686
0.062516
-0.002776
0.025613
-0.045511
-0.028391
-0.043310
-0.030531
0.025741
0.018458
0.014972
-0.000977
-0.012526
-0.020643
0.019025
0.002037
-0.017468
0.018532
-0.006771
0.027005
0.007455
-0.028498
0.067402
-0.024518
0.021495
0.013930
0.047432
-0.001230
0.004685
0.000174
-0.061532
0.040386
0.048241
-0.041787
0.035260
0.013639
0.004567
-0.028635
0.020898
0.046927
0.032827
0.026034
-0.000949
-0.017610
-0.034220
0.055018
0.009965
-0.003152
0.004994
-0.020851
0.030372
-0.066907
0.030007
0.080328
0.023382
-0.019813
0.030633
-0.017382
-0.019370
-0.038091
-0.022868
-0.040282
0.050021
-0.058792
-0.024782
-0.020688
0.036789
0.038355
0.037612
0.017164
0.059496
-0.007950
0.049734
0.022225
0.012135
-0.043079
0.104819
0.042618
-0.034785
0.038124
-0.039338
-0.036320
0.032235
-0.020420
-0.031415
0.041543
0.021572
-0.003612
0.050583
-0.008650
0.041077
-0.073956
-0.024921
-0.001853
0.010625
0.033028
-0.044335
-0.032907
0.003239
0.028988
-0.082989
0.076916
0.079143
-0.026084
-0.006722
0.068040
-0.000969
0.014255
-0.009109
-0.037215
0.032618
0.113289
0.119178
0.115063
0.002420
0.036630
0.044384
-0.010202
0.058597
0.034290
0.030119
-0.037097
-0.076456
-0.041161
0.051100
-0.049128
0.038852
-0.046006
0.067591
0.030212
0.018541
0.071422
0.062736
0.080280
0.089132
0.224188
0.036570
0.051653
-0.034149
0.056715
0.092539
0.133074
0.080217
0.039588
0.003947
-0.103817
0.022288
0.015573
0.001483
0.012946
-0.050732
0.035650
-0.000623
-0.043869
0.000950
0.052120
0.029114
-0.032461
-0.061216
-0.029366
-0.057776
-0.011604
0.026985
0.002710
-0.007021
0.044993
-0.072674
-0.063905
0.069242
-0.029222
-0.019159
-0.030004
-0.021072
0.033891
0.038335
-0.039101
0.044291
-0.031032
0.027019
-0.005272
0.015240
-0.013640
-0.054485
0.060399
0.047382
0.060025
0.050659
0.012574
0.052858
0.046125
0.034565
0.012688
0.071703
-0.018299
-0.068613
-0.087252
0.005975
-0.086167
0.012165
-0.080497
-0.105484
-0.025232
-0.036617
-0.003363
0.009480
-0.023405
-0.059620
-0.017813
0.085210
0.088751
-0.041853
-0.010796
0.084592
-0.017955
0.040262
0.070346
0.053464
-0.022604
0.006811
-0.010202
-0.055304
0.058656
-0.120364
-0.037987
-0.039934
-0.065825
0.061280
0.069925
-0.063396
-0.168997
0.076490
0.035957
-0.002832
-0.093712
-0.041899
0.120598
0.040742
0.044666
0.059215
0.061284
0.126794
0.003982
0.029594
-0.004323
0.083265
-0.082683
-0.029848
0.062387
0.011934
-0.002400
-0.093164
0.053771
0.008537
-0.029905
0.002434
-0.062540
0.053074
-0.045944
0.030543
0.009571
-0.023687
-0.052807
-0.030291
0.057286
0.022426
0.008031
0.000958
0.027619
0.051868
0.068292
0.038758
0.018276
0.015408
-0.029079
0.042388
-0.005898
0.014725
-0.058307
-0.052419
-0.034400
0.033969
0.001781
-0.029136
-0.019059
0.108526
0.078600
-0.036857
0.056446
0.034804
0.039015
-0.012487
-0.045132
-0.009195
0.039571
-0.105565
-0.135823
-0.032639
0.055089
0.025983
0.001638
-0.010477
0.141293
-0.005327
-0.060600
0.025225
-0.023181
-0.033658
-0.033024
0.043964
0.018638
-0.044084
0.000389
-0.008229
0.066846
-0.012244
0.029507
-0.113650
0.002554
0.016390
0.045896
-0.014037
-0.059341
0.038130
0.075489
0.030417
-0.005767
0.020048
-0.055550
0.042013
0.115963
0.126302
-0.047128
-0.003446
-0.034491
-0.015827
0.001366
0.043859
-0.033553
0.006124
-0.041775
-0.023161
-0.028826
-0.030490
0.060086
0.011995
-0.048769
0.015802
-0.016533
0.038368
-0.022867
-0.016784
0.038416
-0.027438
-0.039915
-0.057155
-0.113710
-0.014026
0.037071
-0.001237
-0.049519
-0.158399
-0.033163
-0.014395
0.063562
0.013082
-0.044272
0.019744
0.053974
0.029577
0.096644
0.020015
0.007976
0.026347
-0.009688
0.110548
0.021032
0.028416
-0.041200
-0.017186
0.001223
0.015578
0.010958
-0.033743
0.037416
-0.016277
-0.038576
-0.048829
-0.027130
0.062784
0.004388
0.016652
-0.064826
-0.050561
-0.001716
0.031429
-0.034955
-0.062575
-0.022620
-0.015797
0.048183
-0.062116
-0.019755
0.007680
-0.055684
0.024132
0.049273
-0.068769
-0.002292
-0.000198
0.016233
-0.022559
0.028017
-0.009353
0.016552
0.068165
0.007686
-0.034339
-0.039653
-0.010208
0.052622
-0.016551
0.029276
-0.093055
0.005096
-0.022522
-0.066190
-0.022051
0.010043
-0.029022
0.034132
0.037173
0.036613
-0.021030
0.022266
-0.040881
0.005624
0.006499
0.032681
0.024231
0.033463
-0.027096
0.026528
0.052393
-0.011081
-0.012474
-0.004236
0.007090
0.052884
-0.025380
-0.020053
-0.068271
0.093101
-0.001140
-0.013839
-0.010904
0.118390
0.030801
-0.083791
-0.003007
-0.039442
0.021993
0.039499
-0.017040
-0.006953
0.082350
0.042447
0.053439
-0.020978
-0.040453
0.025446
-0.019827
-0.051669
0.042449
0.045805
0.000820
-0.060404
0.069044
0.039174
0.018753
-0.009232
0.048771
0.020573
0.004525
0.028145
0.023579
0.018369
-0.001840
-0.033319
0.016020
0.057912
0.019899
0.011779
0.016383
0.023234
-0.018895
-0.072082
-0.000363
0.024744
-0.032502
-0.000052
-0.025081
0.023124
0.084711
-0.022161
0.035295
0.019317
0.022476
0.070788
0.037654
-0.014686
0.050412
0.054466
0.046686
-0.091117
0.044281
0.013456
0.085919
0.061571
-0.037683
0.037292
0.035077
-0.063974
-0.107671
-0.025864
0.030513
0.000311
0.048235
0.121932
0.122172
0.053532
-0.083066
-0.013375
0.108439
0.035581
0.024422
-0.044205
-0.006430
-0.022836
-0.002343
0.052446
-0.025149
0.030030
-0.008434
0.012175
-0.020740
-0.007382
0.045289
-0.051414
-0.026192
0.005607
-0.045655
0.054226
0.025376
0.018146
0.032492
-0.051688
0.089488
0.037405
0.045628
0.035947
-0.018785
0.021034
0.010656
-0.027888
0.034682
0.033979
-0.056458
-0.045483
-0.016743
0.031254
-0.053863
-0.045580
0.029936
0.022509
0.040983
-0.024202
0.070878
-0.014822
-0.036463
-0.042394
-0.006040
0.051375
0.031253
0.053322
-0.029337
-0.017019
-0.018894
-0.000291
-0.003200
0.019577
-0.040590
-0.041767
0.023683
-0.040733
-0.070565
-0.015629
0.059799
-0.063293
-0.078051
-0.232704
-0.045904
-0.011575
0.069310
0.008332
-0.028801
0.043204
0.011838
-0.038507
-0.013439
-0.018362
-0.052468
-0.047848
0.049679
0.078033
-0.018332
-0.003611
-0.039852
-0.049472
0.003014
-0.076724
-0.006646
0.010603
-0.086142
-0.167647
0.025689
-0.004917
-0.080206
-0.009964
0.150347
0.224745
-0.210860
-0.014463
-0.035184
0.060812
0.153967
-0.146449
-0.001402
-0.081176
0.051938
0.024095
-0.105055
0.040826
0.014703
0.036022
-0.009165
-0.043494
-0.054594
-0.074937
-0.012394
0.006302
-0.036738
-0.055495
0.035251
0.001247
-0.025885
0.014048
-0.014694
-0.025115
-0.016336
0.032965
0.013118
0.059799
0.002178
-0.031285
0.057099
-0.007422
0.018590
-0.025438
-0.002587
0.053287
-0.035124
-0.019793
-0.030993
-0.016510
0.046275
-0.017102
0.027511
-0.004502
-0.040014
-0.056618
-0.041005
-0.012266
-0.027120
-0.062072
-0.030325
-0.062133
0.005246
-0.014109
0.035012
0.022922
-0.024716
0.010931
-0.009666
0.038247
-0.013469
-0.019523
-0.005721
0.068993
0.018911
0.075714
0.019524
0.064712
-0.062637
-0.046585
0.006900
-0.023577
0.033939
-0.072577
-0.042212
0.038127
-0.005206
0.024838
0.018571
0.066786
0.023645
0.052035
0.025325
-0.059039
0.014106
-0.035755
0.036478
0.022560
0.025672
0.035815
-0.017235
0.012354
0.062814
0.002072
-0.061311
-0.062232
-0.063553
-0.001451
-0.025296
0.023019
0.033521
0.025729
0.024134
0.016023
0.074830
-0.010417
0.064808
0.055797
-0.044965
-0.003853
-0.009073
0.047054
-0.090239
-0.016544
-0.059057
0.017771
-0.017990
-0.034409
-0.003080
-0.012944
0.056698
0.091152
0.011320
-0.004903
0.013646
0.097784
0.116865
0.069663
0.024471
0.027212
0.107713
0.059965
-0.011911
-0.017478
0.004509
0.053223
0.030023
0.086392
-0.014552
0.110048
0.080086
0.035428
0.009666
0.044535
0.051051
0.031677
0.008965
0.063168
-0.007932
0.003263
-0.025610
-0.029556
0.049974
0.042046
-0.024040
-0.028930
0.029729
-0.008610
0.035750
-0.003325
0.009975
-0.041620
0.039274
-0.060492
0.028993
0.028572
0.007969
-0.002928
-0.032782
-0.000584
-0.042185
-0.024276
-0.002524
0.045183
0.048135
0.052172
-0.014826
-0.007832
0.040612
0.011104
-0.024870
0.031233
-0.055381
0.015122
-0.060295
-0.045688
-0.037042
0.025437
-0.072982
-0.063988
-0.024305
-0.072739
0.054533
0.012590
0.024471
-0.031211
0.013458
-0.005806
-0.046576
-0.004731
0.064470
0.032672
-0.005183
0.014458
-0.000104
0.027291
0.058636
-0.013036
-0.045703
-0.025721
-0.030279
-0.013506
-0.037576
-0.014309
0.011925
-0.026245
-0.000468
0.038624
0.073924
0.047859
-0.049120
-0.082055
0.017513
0.057546
0.059080
0.005004
0.008653
0.082160
0.010543
0.041945
0.008046
-0.034101
0.068239
0.051990
0.038435
0.012884
-0.012288
-0.045026
-0.084733
-0.034271
-0.049682
-0.095896
-0.106688
-0.011013
-0.038435
-0.002716
0.074351
-0.062639
-0.027964
0.030028
0.018833
-0.040822
0.009966
0.006888
0.028907
-0.055355
-0.045689
0.036533
0.002903
-0.001516
0.017901
0.017133
0.023396
-0.005725
0.035144
0.035409
0.044435
-0.158089
-0.159746
0.028798
0.018209
0.085067
-0.181877
-0.098872
0.013355
-0.036353
0.043192
-0.075629
-0.012515
0.101296
0.052040
-0.017674
-0.128300
-0.035525
0.022497
-0.040875
-0.039180
-0.047995
0.054927
-0.001896
-0.020654
0.055618
0.026059
-0.089872
-0.099877
-0.091342
-0.066214
-0.091081
-0.265994
-0.202221
0.051642
-0.005843
-0.060475
-0.057523
-0.098759
-0.104834
-0.007416
-0.038880
-0.027671
0.020599
-0.037744
-0.020571
-0.016280
-0.005584
0.014985
-0.099051
-0.051632
0.000940
-0.024466
-0.013314
0.024788
-0.012820
0.019544
-0.040427
0.045843
0.018394
0.009885
0.005100
0.030294
0.030657
-0.041984
0.012383
-0.060618
0.046383
0.053762
0.039783
-0.007806
-0.011469
0.059103
-0.011121
0.038746
0.014564
-0.065532
0.000417
0.025495
0.004170
0.038680
-0.006645
0.057779
0.052449
-0.003314
-0.060988
0.054065
-0.015582
0.000111
0.027561
-0.097570
0.006301
-0.050581
-0.128340
0.060073
0.108198
-0.023026
-0.053868
-0.021161
-0.020820
0.030962
-0.072972
-0.010347
-0.060018
-0.032488
0.001589
0.068624
0.082150
0.038048
0.035467
-0.017526
0.087107
-0.009441
-0.036562
0.043944
-0.058544
-0.010035
-0.063654
-0.073606
0.072482
0.112392
-0.101199
-0.022243
0.091451
-0.006228
0.017095
-0.076488
0.007017
-0.083079
-0.044232
0.123386
-0.088008
-0.004557
-0.070773
-0.043393
0.058881
0.026914
0.070794
-0.024791
-0.119908
-0.030876
-0.025514
0.024384
-0.032974
-0.017044
-0.108582
0.077530
-0.006343
-0.028151
-0.059753
-0.002168
-0.063907
0.004943
0.009132
0.055399
0.117702
-0.066303
-0.035187
0.008939
0.006970
0.018592
-0.023983
0.068453
0.043820
-0.064115
-0.007999
0.009205
0.060858
-0.017532
-0.016814
-0.023782
0.032452
-0.007958
-0.035110
0.045223
0.005295
0.013772
-0.011621
0.058892
0.031308
-0.012243
-0.002986
0.011440
0.043139
0.051819
-0.053166
0.036621
-0.039495
-0.041753
0.004910
-0.026222
-0.021317
-0.043539
-0.068225
0.068457
0.118647
0.044389
-0.066878
0.050322
-0.012369
-0.046419
-0.132225
-0.081666
-0.012816
-0.044681
0.016536
-0.153613
-0.017593
0.071745
0.002938
-0.035733
-0.075959
0.031525
0.063833
-0.017109
-0.079913
0.065530
0.016860
0.061025
-0.054734
0.012131
-0.014862
0.036767
0.028570
-0.036580
0.054690
-0.212841
-0.187343
0.119006
0.060738
0.111946
-0.088252
-0.020718
-0.043253
0.012401
0.052994
-0.054529
-0.035534
0.013505
-0.015862
-0.078626
-0.023582
0.032849
0.020817
-0.096910
-0.097454
0.008589
0.027775
-0.026163
0.058526
0.074080
-0.066399
-0.021505
-0.002913
0.021988
-0.027139
-0.041574
0.076055
0.084035
-0.057805
0.135260
0.027200
-0.022553
0.014075
-0.041874
0.121526
0.016255
0.005354
0.043296
0.083575
0.063633
-0.030063
0.043013
-0.021277
0.067281
0.020983
-0.036175
-0.044589
0.014826
0.058397
0.070560
-0.028361
-0.042387
0.004975
0.039550
-0.031653
0.006655
0.052352
0.041987
0.023979
-0.058493
0.036503
0.058228
0.018266
-0.015552
-0.000052
-0.041460
0.027563
-0.038370
-0.013375
0.032371
-0.097111
0.003963
0.015665
0.011150
0.015357
0.029833
0.013280
0.033683
0.043868
0.002181
0.059722
0.038853
0.034775
-0.030366
-0.095111
-0.022039
-0.081268
-0.004914
-0.011832
0.048349
0.000049
0.018119
0.060543
0.039417
0.009523
-0.095314
0.010464
0.029126
-0.016358
0.087022
-0.054858
-0.026061
-0.005837
-0.014972
-0.016917
0.029318
0.011703
-0.004801
-0.021296
-0.052589
0.029511
-0.005517
0.026264
0.009155
-0.039587
0.058723
0.014976
-0.034104
0.004456
0.008155
-0.141492
-0.191735
-0.056946
0.062017
0.135464
-0.078931
-0.074268
-0.031221
-0.053656
-0.018760
-0.094499
-0.010211
0.045762
-0.015597
-0.084876
-0.021179
0.074399
-0.011199
-0.033188
-0.130422
0.016567
0.013984
0.021060
-0.059387
0.012736
0.025752
-0.045725
0.027694
0.009397
-0.008362
0.008124
0.037051
0.012941
0.012825
-0.022733
-0.041125
-0.004673
0.010441
-0.071560
0.045474
-0.020743
-0.007746
-0.000563
0.069076
-0.000123
0.027337
0.008220
0.056256
0.004834
-0.048477
-0.029597
-0.029221
0.036619
0.026817
-0.065718
-0.058033
0.018187
0.046942
0.008917
-0.037899
-0.045724
0.019346
-0.001866
0.016764
0.021153
-0.093252
-0.063964
-0.090460
-0.041850
0.017651
0.042277
0.055052
0.011663
0.024081
0.032068
-0.023318
-0.006917
0.079283
0.065280
0.052758
-0.118987
-0.084262
0.037498
0.022365
-0.000469
-0.041843
-0.059041
-0.046793
-0.084136
-0.099381
0.013589
-0.105883
-0.018684
-0.012837
-0.089611
0.024129
-0.081160
-0.099478
-0.047801
-0.027880
0.030248
0.077246
-0.010922
0.032191
-0.022298
0.060837
-0.002975
0.019884
-0.025789
0.054790
-0.040111
-0.026308
0.032309
-0.073892
-0.014105
0.034379
0.062995
0.001748
-0.039933
-0.008997
-0.014237
0.052783
-0.015207
0.001182
-0.029063
-0.040894
-0.011017
-0.015858
0.024635
0.012110
-0.033550
0.067214
-0.060796
-0.063501
0.036223
0.035250
-0.012289
-0.069986
-0.091713
-0.005825
-0.015938
-0.052098
0.052262
0.060709
-0.000615
-0.012140
0.020597
0.149911
-0.009892
0.012233
0.029750
0.007346
0.051803
0.050396
0.047209
0.015823
0.062172
0.020176
-0.080796
0.050250
0.013974
-0.071042
-0.115434
-0.080548
-0.046379
0.009640
-0.029525
-0.004872
0.019916
-0.048648
-0.020125
-0.041332
0.115579
-0.075361
-0.040202
-0.028436
-0.021981
-0.067567
-0.006808
0.138189
0.001640
0.037391
0.013906
0.027708
0.113984
0.037728
-0.048399
0.013939
-0.012301
-0.009513
0.042369
-0.005765
0.014711
-0.085447
-0.120036
-0.048834
-0.014454
-0.059027
-0.084729
-0.019749
-0.041782
-0.030387
-0.015843
0.055522
0.031339
0.067166
-0.001359
-0.019695
-0.019251
0.018667
0.043664
-0.022283
-0.003148
-0.042872
-0.017213
0.028581
-0.038213
-0.060444
-0.045536
-0.031716
-0.036980
0.018463
0.011970
-0.011256
-0.001234
0.035986
0.071682
0.045221
-0.002364
0.053518
0.016607
0.049587
0.037126
-0.115080
0.041036
0.014766
-0.090321
-0.089287
-0.094271
0.040344
0.001427
0.012697
0.003273
0.033272
-0.016186
-0.022314
-0.022456
0.025085
-0.040533
0.061082
0.034915
-0.019694
0.043320
0.038238
0.053789
0.007333
0.039822
0.006683
0.040066
-0.022850
0.022670
0.035545
-0.027880
0.013927
-0.011743
0.016066
-0.019684
-0.045768
-0.035849
0.042599
-0.048513
-0.032682
0.038469
0.054865
0.033900
-0.146484
0.049099
0.084387
-0.013607
-0.002447
-0.002038
0.059284
-0.001452
-0.071872
0.032335
0.005288
0.025867
-0.048342
-0.000985
-0.069131
0.001562
-0.026000
-0.031329
-0.050417
-0.040714
-0.056862
0.048808
-0.009125
-0.018401
0.019088
-0.016090
-0.017683
0.019300
-0.089265
-0.075897
-0.029858
0.069728
0.014349
0.016242
0.094252
-0.006923
0.006848
0.007072
0.035926
0.079921
-0.034111
0.092228
-0.027410
0.018480
0.002169
-0.039051
0.031753
0.040247
0.035952
-0.043959
0.048384
0.046408
0.047243
-0.040002
-0.012892
0.048010
0.018226
0.036349
0.020508
-0.032470
0.010453
-0.017382
0.009263
-0.045787
0.054180
0.016714
-0.018023
-0.004289
-0.025768
0.013620
-0.006147
0.068847
0.088828
0.063120
-0.007966
0.040105
0.030247
0.021122
0.050894
-0.021147
-0.026151
-0.005216
0.040018
-0.012584
0.022201
-0.012006
0.001882
0.015697
0.028764
0.006085
-0.005007
-0.037002
0.017880
0.017324
0.054072
0.057024
0.065051
0.042607
-0.015741
-0.006015
-0.013117
0.032312
0.030538
0.037548
0.031613
0.042875
-0.017455
-0.044078
-0.026636
-0.015622
0.043325
-0.038842
-0.051683
-0.008118
0.048186
0.045309
-0.061782
0.038124
0.024569
-0.016276
-0.007007
-0.037397
0.009366
0.016841
-0.025014
-0.044362
-0.088913
0.086510
0.016987
-0.032281
0.009624
-0.020083
0.045266
0.005344
0.037072
-0.010547
-0.011399
-0.011888
-0.054666
0.007497
0.038150
-0.064086
-0.103755
-0.127077
0.009573
0.002098
-0.057054
-0.031559
0.012921
-0.004036
-0.033502
0.049855
0.003708
-0.053000
-0.089020
0.029517
0.051233
0.014294
-0.045507
-0.052193
-0.067921
-0.060780
0.011350
0.023280
0.001445
-0.037385
-0.042025
-0.050531
0.023072
-0.003686
0.041487
-0.012588
0.021265
0.004374
0.031000
0.038858
0.117738
0.056409
-0.006943
-0.054152
0.130635
-0.024766
0.026997
0.029368
-0.022468
-0.067083
-0.082206
-0.043573
-0.006166
-0.003683
0.039664
0.004066
-0.067512
-0.044397
0.049655
0.083412
0.004779
0.014081
-0.009168
0.030028
0.028219
0.061025
0.041173
0.147114
-0.039180
0.001768
0.052170
0.095439
0.001652
0.015344
0.024838
0.027427
-0.030080
-0.082408
-0.102514
0.035896
0.004304
-0.016209
0.051399
-0.007677
-0.000213
0.054464
0.047438
0.052553
0.082669
0.035933
0.088577
-0.025852
-0.036077
-0.033007
-0.029447
0.017546
0.058135
-0.047905
0.013089
0.005889
-0.037681
-0.033077
0.006277
0.021768
0.001146
-0.055096
-0.017959
-0.047895
0.003565
0.013352
-0.046738
-0.010576
0.062544
-0.007472
0.005000
0.066119
0.065685
0.031045
-0.002371
-0.023017
-0.006605
-0.094481
-0.044311
0.026383
0.010703
-0.047422
-0.015235
0.024683
0.046708
0.029045
0.009617
0.098237
0.037507
-0.009235
0.000427
0.109446
0.041804
0.069322
-0.056385
0.033274
0.065857
0.067191
0.027049
-0.058233
0.022611
-0.093223
-0.085403
0.019770
0.076665
-0.021291
-0.058165
-0.051117
-0.026525
0.060530
0.037260
0.047558
0.067761
0.060760
-0.018835
0.000326
0.164356
-0.004722
-0.003524
0.018669
0.004803
-0.108151
-0.085578
-0.046180
0.005364
0.033255
0.021654
0.098618
0.005320
-0.030888
-0.007276
0.000865
-0.037713
0.038310
-0.012599
-0.024700
-0.036581
0.043152
0.040088
-0.023589
-0.009583
0.033597
0.047171
-0.020452
0.090256
-0.026658
0.032477
-0.034061
-0.057259
-0.025419
0.035203
0.038051
-0.008934
-0.073947
-0.019439
-0.036815
0.001170
-0.013562
-0.031522
0.008291
-0.086116
0.024557
-0.004250
0.022972
0.019026
0.000359
0.044938
0.054826
0.011908
0.045505
0.044308
0.006337
-0.084694
0.037601
0.012248
0.017636
-0.094736
-0.107001
-0.049937
-0.006973
0.012217
-0.025794
-0.044203
-0.093597
-0.034634
-0.008784
0.009340
0.013585
0.030386
0.008021
-0.108588
0.007903
0.097767
-0.026593
0.010400
-0.123717
-0.049496
-0.006471
0.000453
-0.062793
-0.033164
0.057647
-0.000877
0.007318
-0.060823
-0.073545
-0.017804
-0.038473
-0.032074
-0.056794
-0.033919
-0.051842
-0.053507
0.047986
0.068454
0.040286
-0.020279
0.043342
-0.022669
-0.012670
0.104528
0.121415
-0.005555
-0.133301
-0.058593
0.078972
0.039909
-0.082822
-0.008053
-0.036103
-0.010506
-0.016736
-0.067471
-0.018675
-0.035808
-0.010884
-0.002351
0.000627
-0.024313
0.023565
0.020765
0.057027
0.028438
-0.041180
-0.053553
0.016334
0.071085
-0.010169
-0.093675
-0.151494
-0.072850
-0.026360
-0.003618
-0.015957
-0.078619
-0.059190
-0.009673
-0.029712
0.045226
-0.018966
-0.046626
-0.052507
-0.030279
-0.064217
0.038032
-0.052418
-0.013224
0.043244
-0.019730
0.025735
-0.013768
0.021291
0.065302
-0.057518
-0.012789
-0.030217
-0.048425
-0.027884
0.027829
-0.051677
-0.044926
0.001090
-0.018228
-0.046942
0.056910
-0.044194
0.011374
-0.001240
0.027787
-0.014708
-0.006178
-0.004816
-0.023478
0.050582
0.014762
0.022323
0.068292
0.058215
0.007705
-0.006012
0.022160
-0.011149
-0.002347
-0.034262
0.011462
-0.119517
-0.043027
-0.033669
0.003526
0.031115
0.061934
-0.028892
0.060498
0.021942
0.044918
0.033872
0.097315
0.020109
0.057573
-0.039802
0.047667
0.044939
-0.002110
-0.075591
-0.070749
-0.026946
0.050620
0.032594
0.008704
-0.024516
-0.024231
0.016752
0.024329
0.039001
0.039682
-0.005943
-0.056709
0.034058
-0.029605
-0.024045
0.016492
-0.015253
-0.031663
0.015471
-0.031748
0.030438
0.125731
0.076457
-0.014628
-0.087094
0.095927
0.060104
-0.020485
0.020691
-0.023805
-0.008705
-0.003549
-0.035921
-0.013372
-0.020573
-0.061728
0.048634
-0.003185
-0.046072
-0.001365
0.004006
0.033204
0.057117
0.033391
0.009933
0.043651
-0.047865
0.010108
-0.056987
0.002876
-0.053985
0.069621
-0.007037
-0.075705
0.000457
-0.052116
-0.012882
-0.029736
-0.043671
0.044999
0.041962
-0.054592
-0.049244
0.001591
-0.021577
-0.014423
-0.002041
-0.021630
-0.029264
0.021087
-0.105847
-0.062246
-0.024775
-0.011809
-0.062258
-0.032706
0.033959
0.052320
-0.038605
-0.003895
-0.023706
-0.032281
-0.038317
-0.033053
0.001557
-0.048594
-0.029633
-0.033577
-0.048087
-0.026851
0.029045
0.049088
0.010314
0.062689
0.008101
-0.057495
-0.139429
0.047771
0.074455
0.067557
-0.066617
-0.129246
0.005828
-0.000610
0.064667
-0.004464
0.025368
-0.035113
0.118070
0.086137
0.027500
0.041826
-0.033149
-0.018795
0.018126
-0.005096
-0.017389
-0.051466
-0.042925
-0.012609
0.030291
0.041483
-0.021602
0.001252
0.031399
0.059025
0.001464
0.031136
0.018524
-0.000003
0.001635
-0.025220
0.059095
-0.008358
-0.004111
0.027777
0.064687
0.026378
0.028794
0.040075
-0.057292
-0.016377
0.056044
0.063606
-0.030034
-0.030841
0.034372
0.073086
0.058254
0.045387
0.003093
-0.021147
0.037632
0.036498
0.001732
0.098837
-0.012579
-0.076307
-0.040674
-0.064881
0.027733
0.058532
0.015344
0.038411
0.029783
-0.011861
-0.004716
0.064996
0.020657
-0.031683
-0.008034
0.022166
0.001868
-0.023643
0.005202
0.085987
-0.016627
0.031334
0.031100
0.007960
0.087028
-0.095823
-0.048117
0.020129
0.034349
-0.018072
-0.009770
0.022708
0.032525
-0.017618
-0.012102
0.021959
0.006245
0.025773
0.008261
0.060592
-0.001202
-0.232111
-0.144630
0.222112
0.067672
-0.045201
-0.111031
-0.011803
0.150591
0.066304
0.072937
0.012708
0.037708
0.226599
-0.005693
-0.049766
0.004576
-0.059930
-0.028488
-0.018049
-0.029275
-0.068201
-0.088815
-0.070069
0.021070
-0.088823
-0.003331
-0.027019
0.008221
0.032620
0.011716
-0.038920
-0.039056
0.055663
0.054969
0.013810
-0.033300
-0.038293
0.037340
-0.006141
0.041159
-0.007660
0.029550
-0.021599
0.038307
-0.034006
0.027487
0.020295
-0.061735
0.040345
-0.022089
0.053223
0.094951
0.044829
0.083781
0.103280
-0.005295
0.022025
0.081301
0.031486
-0.014517
-0.072478
-0.088912
0.060949
0.073633
0.037690
0.059355
-0.066419
0.012532
-0.019814
-0.041847
0.038881
-0.002817
-0.020779
0.139984
0.145829
-0.063311
-0.058610
0.011444
0.066620
0.079304
-0.033157
-0.003793
0.058780
-0.015801
0.005518
0.008037
-0.045200
-0.012071
-0.016258
-0.001674
-0.016982
-0.022928
-0.039500
-0.030628
0.016946
-0.005489
-0.025377
-0.028555
-0.096616
0.027792
0.082880
-0.009346
0.098637
0.030080
0.015375
0.010464
-0.005813
0.112867
0.047927
0.036419
-0.023902
-0.073586
-0.065505
-0.053380
-0.038249
-0.087834
-0.066787
-0.057806
0.008738
-0.009029
-0.021715
0.002240
0.026596
0.013580
0.066916
-0.037190
-0.221985
-0.142670
-0.014926
0.073900
-0.025154
-0.076674
-0.002169
-0.079231
0.003949
-0.022815
0.056526
0.023835
-0.030645
0.056343
-0.004892
0.016441
-0.013201
-0.044660
-0.024930
-0.002066
0.075834
-0.005781
0.000614
-0.030183
0.005305
0.020598
0.073708
-0.022046
-0.019529
0.003509
-0.072442
0.033846
-0.000020
-0.037790
0.019961
0.004856
0.018424
-0.018599
0.037822
-0.038625
-0.005543
-0.040039
-0.027252
-0.027677
0.018322
0.020172
-0.037301
-0.014948
-0.053929
0.027731
-0.037204
0.063661
0.005420
-0.000607
0.004286
0.000325
0.025860
-0.030150
0.011723
0.007691
-0.069594
-0.015894
0.010648
-0.004117
0.068951
0.007333
0.040005
0.006728
0.071938
0.054111
0.049340
0.035961
-0.021544
0.030562
0.014966
0.033523
0.083301
0.033449
0.039812
0.016971
0.007927
0.051583
-0.019503
0.012096
-0.064414
-0.016925
-0.048921
-0.011893
0.016635
-0.032416
0.035032
0.028817
-0.036670
-0.012979
0.014125
0.055317
-0.024952
-0.073601
-0.199026
-0.030854
0.004960
0.022392
-0.057392
0.027433
0.053068
0.007686
0.034896
0.031740
-0.009416
-0.025339
-0.069304
-0.016571
-0.002183
-0.087150
-0.061625
-0.061958
0.009019
-0.037259
0.022305
0.032047
-0.045754
-0.007779
-0.051760
0.016142
-0.011448
0.060191
-0.034277
-0.034044
-0.000663
-0.023678
0.012221
-0.031120
-0.061738
-0.018237
0.075052
0.023986
0.010711
-0.033987
0.054900
0.030937
-0.002919
0.032544
-0.015481
0.019361
0.006515
0.017831
0.037987
0.020863
0.046956
0.051718
0.100169
-0.005832
0.080571
0.026430
0.052500
-0.007069
-0.004552
0.003465
-0.034219
0.030499
0.008560
0.014393
-0.123443
-0.036480
-0.011614
0.041821
-0.033787
0.019407
0.011088
-0.004684
0.029536
0.015486
0.049448
0.098727
0.079889
0.015968
0.037930
0.037525
0.053948
0.028647
0.087457
-0.102132
0.082713
0.025591
-0.024621
-0.056050
-0.038461
-0.024605
-0.017814
-0.037431
0.001371
0.085695
-0.053810
-0.007718
0.030212
-0.031722
0.013077
0.028938
0.054399
0.022831
0.019802
-0.010642
-0.065329
0.037560
-0.029664
0.037267
-0.025451
0.001795
0.021380
-0.002292
-0.020543
-0.028379
0.026523
0.022621
0.065943
-0.019646
-0.027691
0.050386
0.053201
0.059382
0.069507
0.017052
0.051583
0.021006
-0.026289
-0.015651
-0.073186
0.011725
0.054059
-0.059900
0.033521
0.014452
-0.036811
0.047613
-0.024608
0.012267
-0.042076
0.058899
-0.009400
-0.059561
0.047827
0.125852
-0.002429
0.000445
-0.020679
0.015067
0.005160
0.035641
0.039586
0.015928
-0.066745
0.035466
-0.008788
0.046057
-0.027221
0.020849
-0.077416
-0.036287
-0.026071
-0.059522
-0.016478
0.007198
0.063650
-0.050324
-0.013671
0.049723
0.059940
-0.072353
-0.096992
0.047426
0.029465
0.033045
0.022023
-0.094311
-0.042431
0.050598
-0.085732
0.001392
-0.021116
-0.018303
0.101060
-0.090829
0.033180
0.059161
-0.042552
-0.078963
-0.025096
0.006552
0.028248
0.000285
-0.019193
0.072008
-0.047554
-0.025331
-0.003339
-0.038779
0.019787
0.040612
0.000143
0.076529
0.002655
0.046842
0.016880
0.033134
0.014032
-0.029147
0.024780
-0.000252
0.042073
0.053133
0.048594
-0.010581
0.047099
0.019805
0.065509
-0.034655
-0.002355
-0.000322
0.042541
0.005789
0.003126
0.004336
0.016547
0.075975
-0.068517
-0.038063
-0.016696
0.030658
-0.058839
-0.058421
0.018342
-0.005986
-0.027587
-0.023079
-0.000294
0.058122
-0.018812
0.036062
0.081180
-0.043845
-0.014531
0.125331
0.056298
-0.079914
-0.029642
-0.070015
0.021736
-0.156046
-0.060490
-0.006155
-0.026862
0.010456
-0.071677
-0.025672
0.010388
0.019541
-0.015453
-0.125195
0.035672
-0.030466
0.035326
-0.041048
0.001007
0.052130
0.024174
-0.033243
0.060572
0.044808
0.052633
0.032452
0.045591
-0.021994
0.136009
0.078515
-0.012755
-0.029141
-0.092883
-0.004839
-0.031205
0.011700
0.026314
-0.063407
0.046970
0.020528
0.082602
0.010209
0.058244
-0.051194
-0.026453
0.007743
-0.024472
-0.052369
0.003152
0.008991
-0.001685
-0.009203
0.016670
0.035077
-0.017948
0.006471
0.039918
-0.071406
-0.050091
-0.061624
0.056243
-0.060398
0.087985
-0.040452
-0.012465
-0.004494
-0.090111
-0.128153
0.038171
0.047525
-0.043951
-0.061606
-0.077782
0.019521
0.057695
-0.010245
-0.009823
-0.087629
0.012577
0.038071
0.002099
0.004602
0.045417
0.012404
0.008107
0.045939
0.007163
0.026321
-0.058757
-0.018544
0.025541
0.007626
0.003375
0.007793
0.047721
0.023789
-0.024175
0.015736
0.042666
0.043541
0.066591
0.037948
0.012858
0.022508
-0.010556
0.047250
0.019457
-0.027147
0.027110
0.000009
-0.005784
0.033128
0.042439
0.017175
-0.022178
-0.003023
0.012562
0.019714
-0.016649
0.050084
0.004648
0.053053
0.031709
-0.004854
-0.004550
0.128965
0.029564
0.023158
0.024279
0.057963
0.000692
0.012012
0.039536
0.047447
0.019065
-0.026282
-0.036226
0.035954
-0.058772
0.003799
0.055257
-0.037744
0.050440
0.014021
-0.000841
-0.032278
-0.017730
0.043114
-0.018172
0.045528
0.042346
-0.005168
0.017987
0.001357
0.110649
0.034946
0.094529
-0.008153
0.037540
0.045480
-0.002212
0.066673
-0.051620
0.020745
0.029895
0.039508
0.004632
0.045728
-0.077821
-0.002364
-0.011214
-0.016322
0.021578
-0.016670
-0.014078
0.053459
-0.021245
0.032431
0.086496
0.015922
-0.024544
0.057940
0.016263
0.009843
0.020515
0.034913
0.005362
0.019367
0.003774
0.014020
0.005478
0.041843
0.025086
-0.037453
0.002657
0.014562
-0.002624
-0.013327
-0.056402
0.045939
0.066154
0.046815
-0.029902
0.073129
0.050223
0.052470
0.006579
0.049476
-0.080846
-0.045017
-0.021981
-0.024980
0.029810
-0.042711
0.063413
0.064929
0.050374
-0.004358
0.127294
0.082524
-0.057287
0.007077
0.000492
0.014274
-0.001006
0.006767
-0.037203
0.040060
0.032398
-0.005414
0.013433
-0.024183
-0.037466
-0.073988
-0.059141
0.016493
0.066591
0.043766
-0.010126
0.059781
0.044760
0.042979
-0.012390
0.133359
0.102691
0.024169
-0.067166
-0.137488
0.126833
0.096690
-0.034726
-0.020701
-0.060790
0.000948
0.037703
0.006978
-0.006665
-0.016915
0.006558
0.027661
-0.014916
0.023617
0.038217
0.013937
-0.043217
-0.004504
0.008090
0.028069
0.022896
-0.011319
0.050155
-0.006677
0.027631
-0.026562
0.022716
0.009947
0.017437
-0.000233
0.007520
-0.024059
-0.043537
0.000829
-0.000656
-0.027668
-0.058288
0.018416
0.067896
0.025251
-0.025865
0.008493
-0.020866
-0.064617
0.028721
-0.077563
-0.021602
-0.003424
0.021659
-0.031558
-0.017209
0.011750
0.016549
-0.086957
-0.030315
-0.036515
-0.039551
0.009602
-0.003286
-0.012075
-0.098336
-0.055937
-0.003943
-0.013960
-0.026058
-0.111553
-0.061636
-0.030900
-0.055648
0.014651
-0.033752
0.000162
0.079170
-0.094027
-0.126001
0.108902
0.080849
-0.046990
-0.151590
-0.097973
0.012480
0.015995
0.059227
0.003555
0.053676
-0.037585
-0.024892
-0.026788
-0.062672
0.097189
-0.026046
-0.004755
-0.010366
0.085360
0.086216
0.016168
0.084119
0.011805
0.028884
-0.090646
0.028405
0.044126
-0.006026
-0.018319
-0.104113
0.057187
-0.002975
0.038441
0.021631
0.009936
-0.006609
0.038836
0.011045
0.000224
-0.012529
0.044116
-0.001202
0.051492
0.027558
0.055397
-0.054405
0.006548
-0.049667
-0.008291
-0.041681
0.034310
0.028953
-0.000775
-0.030830
0.025775
-0.016273
-0.057269
-0.036392
-0.039082
0.062583
-0.031957
0.033569
-0.071842
-0.049129
0.013940
-0.059578
-0.057307
-0.018700
-0.030218
-0.014239
-0.082692
-0.050634
0.036111
0.038039
-0.146168
-0.056833
0.031051
-0.020502
0.087345
-0.013726
-0.101190
-0.038410
0.014055
0.030945
-0.023943
0.025740
-0.009116
0.009658
0.009415
0.050497
0.065151
0.022527
-0.009308
0.019062
-0.000286
-0.096368
-0.013261
0.044655
-0.029010
-0.011767
-0.075524
-0.051696
0.029908
-0.006095
0.032494
-0.036610
-0.057761
0.003915
0.072003
0.030127
-0.009351
-0.003685
-0.005055
0.072244
0.054741
-0.059422
-0.024473
0.006758
0.010866
-0.030772
0.047029
-0.041401
0.004345
0.004539
-0.034177
0.000831
-0.070830
0.040985
0.005679
-0.014887
0.023984
0.003971
-0.010610
-0.016757
-0.131196
-0.023410
-0.008015
0.039522
-0.059683
-0.016419
-0.061594
0.029204
0.011350
0.048261
0.144190
0.027932
-0.050005
0.013656
0.119532
0.127718
0.037191
0.004193
0.063622
0.094694
0.020212
-0.019253
-0.021016
-0.003028
-0.002634
0.054945
0.001822
0.027802
0.020377
0.011614
0.042343
0.006669
0.039408
0.028733
0.043391
0.023514
-0.027619
-0.039335
0.020515
-0.015834
-0.017443
-0.010908
-0.001650
-0.016334
0.016807
-0.021332
0.016611
0.000815
0.016341
-0.039689
0.013727
0.020336
-0.006345
0.001871
-0.008084
-0.030051
-0.051062
0.028870
-0.036639
0.030306
-0.029485
0.008838
-0.027153
-0.010720
-0.018136
-0.027859
0.036117
-0.025490
-0.050347
-0.005918
-0.023655
0.058256
-0.000829
0.054501
-0.013813
-0.030076
0.056499
0.008734
-0.016085
-0.007974
-0.006098
0.002907
-0.018824
0.017262
-0.016554
0.035813
0.010738
-0.007318
0.025040
-0.000698
0.028726
-0.040176
0.038193
0.035157
0.035550
0.023540
-0.009898
-0.002468
0.008222
-0.023459
0.045379
-0.046521
0.039281
0.049469
0.003345
0.022775
0.054984
0.044794
0.034400
0.105073
0.011409
0.042048
0.047616
0.026183
0.001007
-0.017490
-0.063134
-0.060604
-0.052593
0.025090
0.004654
-0.048095
-0.041566
-0.024253
-0.007712
0.018498
-0.018649
0.060197
-0.022612
-0.009068
-0.014430
0.053729
0.051116
0.031596
0.029761
0.003038
-0.021401
-0.056233
0.029780
0.003629
-0.061073
0.033179
-0.034915
0.043734
-0.027498
-0.067173
0.000032
-0.048044
0.047668
0.016523
0.021542
-0.140638
-0.005256
0.018450
0.043400
-0.037899
-0.099669
0.077423
-0.008541
0.020437
-0.024795
-0.013964
0.078098
0.009024
0.056811
-0.008819
0.014356
-0.010755
-0.056956
0.051707
0.015629
-0.051544
-0.111991
-0.115642
-0.106357
-0.036201
-0.175774
-0.161945
-0.045674
0.004297
0.037009
-0.078787
0.002365
-0.024175
-0.016637
-0.078819
0.021378
0.019659
0.091037
0.019023
0.083773
0.012496
-0.026883
-0.047094
0.066855
-0.029643
0.013582
0.035507
-0.031803
-0.004255
-0.045420
0.022018
-0.024619
0.036539
0.005276
-0.010572
0.003033
-0.014529
0.069999
-0.008162
-0.020882
-0.014446
-0.004701
-0.040511
0.055094
0.006979
-0.012641
-0.000847
0.019043
-0.009489
-0.012285
0.030312
0.026860
-0.004886
-0.008652
-0.027359
-0.032943
-0.057718
0.069470
0.003750
0.064504
0.003960
-0.002987
0.040827
0.003931
-0.015140
0.021652
0.002875
-0.006418
-0.013959
0.003727
0.094395
-0.016122
-0.033896
-0.162545
0.161506
0.026378
0.045429
0.042885
0.060723
0.029955
0.029434
-0.033131
0.001857
0.056597
0.009356
-0.015063
-0.039754
0.115140
-0.029826
0.040524
-0.049475
0.005526
0.020460
-0.051042
-0.044484
0.070807
-0.057019
-0.138651
0.076257
0.063942
-0.013636
0.084006
-0.030081
-0.053876
0.011715
-0.015101
-0.033368
0.028498
0.000648
-0.032664
-0.046088
-0.051979
0.027793
-0.038185
-0.206182
0.082936
-0.022741
-0.020272
-0.044493
0.017226
0.004280
-0.041006
-0.008179
0.017670
-0.087310
0.000269
0.027210
-0.015680
-0.038339
0.006510
0.052495
0.031994
-0.007039
0.028615
0.041015
-0.015344
0.037431
-0.009163
-0.013003
-0.017505
-0.010810
0.057146
0.015680
-0.024780
-0.089028
-0.023052
-0.039138
-0.011983
0.025651
-0.049116
-0.004829
0.021735
0.013866
0.007547
0.079462
0.020735
0.054318
0.048646
-0.025173
0.039029
0.009136
-0.096542
0.011467
0.029348
0.044848
0.059120
-0.072441
0.018430
0.029337
0.005287
0.086602
0.094354
-0.051884
0.169877
0.098830
-0.037884
0.022119
-0.023704
0.015789
-0.014823
-0.008693
-0.022214
-0.002624
0.024349
0.038953
0.011201
0.022245
0.004516
0.061973
-0.034981
-0.034201
-0.023801
0.064717
0.058402
-0.079741
-0.013753
0.017998
-0.017002
0.035131
-0.058140
-0.078815
0.042579
-0.044824
-0.015920
0.040378
-0.084067
0.046920
-0.022022
-0.017050
-0.061222
-0.025627
-0.039335
0.029110
0.043901
0.025084
0.061215
0.028486
0.039354
0.004439
-0.060399
-0.054032
-0.040620
-0.052920
0.017488
-0.055778
-0.001643
0.057990
-0.016528
-0.002000
0.051607
0.041702
0.030936
0.030385
0.102820
-0.014608
-0.030110
0.065070
0.022255
0.110467
0.003425
-0.027882
-0.006141
0.024239
0.110005
-0.012434
0.015305
0.011767
0.110840
0.100603
0.100723
0.010538
0.011817
-0.010772
-0.029893
0.046521
0.024506
-0.020656
-0.015200
0.017955
-0.036926
0.033548
0.013306
0.008059
-0.003783
0.039081
-0.056058
0.023018
0.003190
0.018462
-0.039712
-0.021835
-0.038819
0.012083
-0.008997
-0.009537
-0.016027
0.017729
0.057734
-0.009311
0.030412
-0.038372
0.017232
-0.004891
0.035583
-0.027103
-0.045921
0.002141
0.044883
-0.016311
0.043410
-0.063975
-0.015203
-0.033166
-0.068329
-0.032612
0.024700
-0.012428
-0.130639
-0.041501
0.015334
-0.007617
0.010917
0.048371
0.047106
-0.043338
0.036380
0.034542
-0.001600
0.016967
-0.059273
0.024275
-0.022514
-0.006257
0.054987
0.003021
0.051625
-0.019565
0.067033
0.011490
-0.077290
0.003570
0.020753
-0.045734
-0.010888
-0.010832
-0.065384
-0.012894
-0.055123
-0.024852
0.014524
-0.102136
-0.051741
-0.038042
-0.086948
-0.026658
0.001932
0.018690
0.021668
0.065228
0.032045
0.023589
0.044457
0.071642
0.013671
-0.036671
-0.087448
0.006794
0.010654
-0.022085
-0.046117
-0.005473
-0.088923
0.035995
0.022637
0.008994
-0.035152
-0.057112
0.072797
-0.030481
0.012451
-0.000955
-0.032590
-0.045508
0.008547
-0.013638
0.045730
0.009139
-0.057856
0.043966
0.053840
0.048348
-0.021683
0.067172
0.013675
-0.055649
0.022699
0.016236
-0.021109
0.014755
0.028659
0.026536
-0.067685
-0.043010
-0.038252
-0.008307
-0.033057
0.000868
0.030824
0.035649
0.023729
0.071254
0.046151
0.012012
-0.052934
-0.010615
0.107900
0.004418
-0.033627
0.004281
0.017496
0.037599
0.126187
0.065865
0.028022
0.026148
0.059985
0.021515
0.096199
0.016137
0.054667
-0.034593
-0.066738
-0.000628
0.006170
-0.041673
0.106649
0.062033
-0.002408
-0.082847
-0.113619
0.038920
0.093953
0.011733
0.039411
-0.007561
-0.065086
-0.032782
-0.056829
0.051655
0.037944
0.006101
-0.051903
-0.001273
0.023825
-0.043211
-0.026359
-0.020668
0.029136
-0.036660
-0.037495
0.023180
0.024335
0.013955
0.028351
0.023507
0.033647
-0.057124
0.023939
0.007562
-0.019703
-0.019925
-0.050427
0.017923
0.002384
0.013144
-0.055760
0.062561
0.033927
-0.032435
-0.006264
-0.031239
0.052198
-0.056293
-0.017656
0.016783
0.009624
0.007626
0.030420
0.048225
-0.094989
0.004173
0.080647
0.158684
0.083676
-0.079820
-0.077613
0.035636
-0.044715
0.004112
0.005268
-0.062050
0.121611
-0.042856
-0.052886
-0.031709
-0.010064
0.017627
-0.051057
-0.015112
0.006479
-0.047407
0.015348
-0.022653
0.055225
-0.035893
0.061486
0.136098
0.102267
-0.171376
-0.081127
-0.073274
-0.033646
0.021419
-0.063429
0.031291
-0.039828
0.034141
0.008963
-0.050666
0.062487
-0.016239
0.044027
0.020586
0.072947
0.112715
-0.067531
0.044672
0.010688
-0.003202
-0.124143
0.023993
0.076475
-0.038169
-0.066840
-0.019443
0.012836
-0.019748
-0.014734
-0.001452
-0.037009
-0.005642
-0.010185
-0.038105
0.053132
0.012330
-0.061154
0.007084
0.026438
-0.008501
-0.029442
0.008929
-0.017718
-0.026932
-0.066236
-0.001750
0.033415
0.020742
0.017219
-0.040751
-0.056771
-0.047821
0.007696
-0.003847
0.005186
0.000201
-0.058456
0.028864
-0.006442
0.009526
0.087181
0.003735
-0.022112
-0.039371
-0.078043
-0.000316
-0.070181
-0.059248
0.002107
-0.008352
-0.099095
-0.030638
-0.007691
-0.013378
-0.032046
0.022795
-0.064931
-0.155243
0.011025
-0.003666
0.061868
-0.069219
-0.009302
0.020648
0.055750
-0.014739
0.023488
0.060247
-0.000994
0.023543
0.038916
-0.022217
0.044739
-0.041849
0.023465
-0.043935
-0.090238
-0.087119
0.037925
0.017699
-0.029511
0.036532
0.009368
0.020543
0.064347
-0.024341
0.030615
-0.001390
0.035077
-0.027428
0.021914
-0.026196
0.018817
0.022684
-0.051059
-0.000323
-0.041514
-0.043385
-0.023656
-0.005052
-0.069244
0.006571
-0.010698
0.034398
0.018580
-0.019343
-0.022862
-0.037093
0.098421
0.071262
-0.040496
0.001119
0.023129
0.025430
-0.067650
-0.075825
-0.033681
0.006505
-0.029201
-0.087461
0.103764
0.025072
0.029412
-0.010745
-0.031556
0.040372
-0.026247
-0.047979
-0.082156
-0.093409
-0.109244
0.009277
-0.064358
0.041324
0.060403
-0.008628
-0.011199
-0.036533
-0.003492
-0.038776
0.034683
-0.044594
0.007079
-0.046793
-0.021079
0.010158
-0.026904
-0.047711
-0.005588
0.002396
0.002969
0.023801
0.021126
0.024658
-0.039135
-0.043851
0.014830
-0.040297
0.047644
0.056778
0.020652
0.014077
0.055740
-0.018189
-0.011950
0.011550
-0.004142
0.002143
-0.029695
-0.045912
0.028399
-0.027382
0.026332
-0.017286
0.012160
0.004777
0.009291
0.051743
0.004840
-0.014708
-0.031254
0.006766
-0.027716
0.046782
0.039047
-0.006655
-0.073502
-0.025342
0.017668
-0.015293
0.007099
-0.017530
0.019277
-0.030924
0.026756
0.006965
0.041647
0.039345
0.007913
-0.019428
0.030877
-0.017377
-0.038034
0.045781
-0.020028
0.014228
0.054103
0.026750
0.014541
0.029094
0.067846
0.016388
0.013834
0.005889
-0.024041
-0.024423
-0.059574
-0.021119
0.015805
0.056850
-0.014846
-0.048421
0.011102
0.002878
-0.007755
0.020398
0.061153
0.042841
0.068735
-0.015511
0.059363
-0.058869
0.035762
-0.029634
0.050374
0.010601
-0.044473
0.014452
-0.032470
-0.010990
-0.050927
-0.022740
-0.075869
0.047470
0.002917
-0.006847
0.017078
-0.066272
0.021243
-0.032783
0.015951
0.000798
0.015323
0.052856
0.072004
-0.002481
0.014967
-0.045478
0.000523
-0.006154
0.036666
0.057784
-0.009360
0.033277
0.040214
0.038158
0.180901
0.087719
0.067224
0.001931
-0.004035
0.187844
0.011402
-0.017027
0.044928
-0.044179
0.112954
-0.036039
-0.002389
0.035811
-0.003526
0.000998
-0.033308
-0.097109
-0.039970
-0.068340
0.025327
-0.031519
-0.066551
-0.092770
0.038137
0.201066
0.134051
0.019207
-0.014311
0.092833
0.100760
0.150389
0.111758
0.037592
0.113155
-0.017505
0.038119
0.000175
-0.052436
-0.098299
0.006068
0.025828
-0.031810
0.027510
-0.040468
0.003392
-0.061076
-0.009622
-0.014364
-0.037054
-0.033630
-0.039313
-0.039775
0.061622
0.025948
0.012703
-0.028015
0.002731
0.036323
0.011979
0.044074
-0.067406
-0.015415
0.018693
0.033982
-0.044693
-0.004834
-0.028490
0.034767
0.012388
-0.000225
0.046932
-0.000609
0.054696
-0.039995
0.030628
0.005563
-0.014170
0.047876
0.087044
0.006629
0.081354
0.003391
-0.059847
0.101299
0.071252
0.147568
-0.100702
-0.011629
-0.021822
-0.003604
0.060607
-0.042785
0.028905
0.005679
-0.014458
0.029136
0.022112
0.053754
-0.014055
0.022757
0.058151
-0.033861
0.037854
0.043407
0.112840
0.136673
-0.035552
0.002953
0.062501
0.147967
0.109934
-0.024466
0.071375
0.025577
-0.007274
-0.019377
0.037115
0.063514
-0.069587
-0.048614
-0.050617
0.006416
-0.103902
-0.143494
0.022583
-0.001677
0.037745
-0.041190
0.030755
0.015175
-0.060277
0.003160
0.026992
-0.069205
-0.021535
-0.056453
0.048073
0.085581
-0.015735
-0.062375
-0.026803
-0.043907
0.012732
0.008286
-0.003667
0.028695
0.050174
0.023198
-0.047063
0.003420
0.043154
0.045700
0.056185
0.020242
0.015732
-0.032403
0.000003
-0.032262
-0.021615
-0.002930
-0.021943
0.054207
-0.004740
0.038470
0.038712
0.047945
0.001448
-0.006556
0.013452
-0.008149
-0.011443
0.017679
0.065671
0.012732
-0.036285
-0.050507
0.046863
-0.046008
0.074689
-0.044425
0.054912
0.047123
-0.009797
0.027100
0.005974
0.167874
0.086475
0.004263
-0.082535
-0.000323
0.022743
0.055016
-0.012693
0.011651
0.045517
0.022885
0.054728
-0.021913
0.031764
-0.042361
0.009799
0.058045
-0.033781
-0.013938
-0.013883
-0.032699
0.010777
0.006936
-0.033253
0.015775
-0.050172
0.055610
0.028705
0.049507
-0.008264
-0.084128
-0.100745
-0.026618
0.026678
0.018806
0.025286
-0.013094
0.027721
0.080077
0.171585
0.071156
0.078925
0.030053
-0.048176
0.011345
-0.031973
-0.032240
-0.044065
-0.042086
-0.023009
-0.054045
-0.005127
0.037321
-0.044933
0.027855
-0.004052
0.056947
-0.019171
0.048521
0.028641
0.021662
0.026902
-0.029766
-0.119956
-0.030932
-0.089488
0.058997
0.029186
-0.059388
0.062732
-0.034213
0.055844
0.146472
0.114538
0.018890
0.042417
0.055018
0.063986
0.116073
0.018043
0.005986
-0.018508
0.015207
-0.018939
-0.001548
0.007430
-0.009376
0.071713
0.005696
-0.005526
-0.047287
-0.008757
-0.020897
-0.061568
0.017307
0.006210
-0.015097
0.066228
0.035291
0.020959
0.017606
0.014357
0.035644
0.033893
0.047945
0.005993
0.045714
0.017546
0.040743
-0.015249
-0.013615
-0.001439
0.045973
-0.022291
0.030709
0.051326
-0.046922
-0.001760
0.035832
0.080215
0.039702
0.013845
0.025787
0.016562
0.098416
-0.064172
-0.105985
0.007197
-0.008740
-0.003874
0.044787
0.015062
0.006615
0.010770
-0.012304
0.022486
0.017207
0.042422
0.006993
0.016689
-0.039391
0.012042
-0.042292
0.004461
0.016810
-0.021205
0.020253
0.024745
-0.041775
0.015937
-0.024725
0.019450
0.042509
-0.010782
-0.001184
-0.053212
-0.040424
-0.110097
-0.021641
-0.009487
0.026565
-0.049455
-0.009997
0.033478
0.130317
0.073061
0.051925
0.089495
-0.033619
0.079328
-0.003875
0.018150
-0.051408
-0.089107
0.005205
0.001873
0.031067
-0.000346
-0.024501
0.060235
-0.039427
-0.042363
0.005747
0.031232
-0.015045
0.000230
0.039406
-0.025082
0.053038
0.021402
-0.003584
0.001482
-0.015268
0.041450
0.020365
-0.049954
-0.039373
0.062533
0.001241
-0.060388
-0.022223
0.038529
0.038298
-0.041658
0.018831
-0.003244
0.052101
-0.006452
0.006361
-0.120659
0.035992
0.071521
-0.056242
-0.070931
-0.003467
0.069227
-0.001654
0.055694
0.004228
0.076536
0.062617
-0.036089
0.027345
0.035578
-0.009370
-0.062619
0.045810
-0.020283
0.019046
-0.021577
-0.144889
-0.050678
0.004871
0.042973
-0.096272
-0.111440
-0.068514
0.080847
0.141931
-0.049073
0.020545
0.013143
0.054615
0.049722
0.085867
0.077064
-0.013008
-0.010874
-0.117738
0.095336
-0.005477
-0.074346
-0.000889
-0.067756
0.028632
-0.032634
-0.038445
-0.068867
-0.030203
0.052676
-0.041481
0.029463
-0.052821
0.037381
0.016253
-0.037087
0.011060
-0.025693
-0.021394
-0.063508
0.015249
-0.067925
-0.016521
-0.031846
-0.064753
-0.057266
-0.004336
-0.027443
-0.046811
0.047385
0.004472
0.066581
0.066540
0.064265
0.030268
0.016953
0.017989
-0.043374
0.068231
0.038078
-0.021433
-0.040183
0.036331
0.031667
0.015782
-0.044049
0.032835
-0.037634
-0.089802
0.010534
0.034070
0.029580
-0.045216
0.016596
-0.031893
0.016047
0.022808
-0.018673
0.049129
-0.008847
0.023410
0.034176
0.032665
0.069084
-0.028869
-0.054989
0.054858
0.015675
0.045094
-0.060930
0.060654
0.041520
-0.018003
-0.013486
0.070234
-0.032051
-0.003222
0.045945
-0.006713
-0.016343
-0.019361
-0.141677
-0.158735
0.183668
-0.057236
-0.057031
-0.018204
-0.071162
0.174571
-0.017440
-0.019774
0.032153
0.117467
0.003073
0.051516
0.023477
-0.018098
-0.061112
-0.113510
0.034455
0.051725
0.041901
-0.013800
-0.050311
0.020206
-0.031115
0.022334
-0.054298
0.029815
0.040459
-0.026125
0.048081
-0.052326
0.041569
0.042867
0.028816
-0.025424
0.017195
-0.050503
0.023127
-0.010456
0.005275
0.052801
-0.034994
0.024382
0.023614
-0.024811
-0.035174
0.033436
-0.002178
-0.010328
0.010620
0.073658
0.041837
0.028439
0.087760
-0.002535
-0.020740
0.074513
0.043717
-0.035181
-0.023954
-0.040759
-0.039059
-0.003315
0.015485
0.033128
0.009293
-0.077403
-0.019806
0.041137
0.007283
0.108633
0.054962
0.128724
0.048354
-0.020032
-0.003591
0.021729
0.098122
0.018719
0.003588
-0.009415
0.012160
0.084754
0.023242
-0.025171
-0.016964
0.010576
0.001605
-0.021489
-0.013609
0.027144
-0.024528
-0.060555
-0.048771
-0.019037
0.020610
0.010241
-0.164022
0.011900
-0.018165
0.034178
0.073073
-0.027682
0.013772
-0.054583
0.000627
0.009534
0.048665
-0.060306
-0.022088
-0.058627
-0.046530
0.013514
-0.024167
-0.017596
0.063024
0.009651
-0.026685
-0.041642
0.044849
0.047451
-0.036342
0.000223
0.030634
-0.023327
-0.054787
-0.082139
0.037280
0.021688
0.035987
-0.014939
-0.010021
0.009611
-0.010070
-0.036480
0.086545
0.041923
0.015566
0.059845
0.085540
0.061795
0.038320
-0.020829
0.006091
0.116216
0.138446
0.164483
0.014044
0.013485
-0.018335
0.007960
0.038159
0.030492
0.001028
0.045841
-0.033885
0.008194
0.072745
-0.009325
-0.028903
0.040437
0.038647
-0.052644
0.013597
0.014564
-0.042777
-0.019891
0.000156
-0.030080
-0.011156
-0.004663
0.005202
-0.001316
-0.006491
0.007381
-0.008820
-0.016215
0.025067
0.005718
0.063615
0.006713
-0.036347
0.026844
0.032400
0.004348
0.004120
0.000534
-0.012202
0.023071
-0.016733
-0.024857
-0.038629
0.065550
-0.024827
-0.086453
0.003250
0.005140
-0.010074
-0.056265
-0.010053
-0.064344
-0.011507
0.005126
0.049224
0.031467
0.029421
0.007389
0.029422
-0.012872
0.029178
0.009314
-0.020176
-0.052751
-0.011354
0.020354
-0.019899
0.031149
-0.067398
-0.022002
-0.002922
-0.029140
0.026746
-0.028377
-0.096402
-0.011405
0.010027
0.088726
-0.076223
0.018351
0.070383
-0.035081
0.047460
-0.001394
0.012668
0.031729
-0.028882
-0.034544
0.017261
0.034517
-0.041999
-0.034675
0.018850
-0.006617
0.019711
-0.024007
-0.038670
0.007891
-0.014627
0.033653
0.041881
-0.034420
-0.050476
0.090309
-0.023626
0.044084
0.012175
-0.027658
-0.002293
-0.015768
0.004665
0.022189
0.024227
-0.074512
0.036093
0.002491
-0.033509
0.011985
-0.024147
0.022042
0.020287
0.004168
-0.086310
-0.010721
0.086647
-0.000072
0.065653
-0.035883
0.101270
-0.010524
0.022639
0.068609
0.004905
0.032168
-0.072784
0.028332
0.058830
0.020009
0.067387
-0.078674
0.020792
0.010676
-0.025912
0.042885
-0.011908
-0.037797
0.041644
0.041605
0.107325
0.123043
0.078480
0.113533
0.118387
-0.105568
-0.023522
0.010355
0.023521
-0.089667
-0.040764
-0.024283
-0.068732
-0.009024
-0.065241
0.039110
0.043105
-0.003927
-0.045705
-0.055212
0.035500
0.081422
0.069881
0.027669
0.071195
-0.022452
0.029663
0.056577
0.037840
-0.038170
-0.011313
-0.003261
0.047690
-0.024697
0.007092
-0.011628
0.002975
-0.042791
0.019250
-0.001726
0.036056
-0.088852
0.028104
0.002378
-0.003431
-0.015150
-0.008178
0.000003
-0.016364
-0.001886
0.034028
0.005256
-0.009820
0.037124
-0.008353
0.014361
-0.003006
-0.031236
0.105728
0.055053
-0.129050
0.051012
0.081012
-0.045202
-0.033635
-0.053293
0.048840
-0.053646
-0.009131
-0.063148
0.021847
0.001724
-0.077129
-0.116631
0.022954
-0.026829
0.009500
-0.004146
0.038368
-0.009553
-0.036268
-0.010415
0.041226
0.027822
0.025313
-0.106948
0.064672
0.034961
0.011115
-0.071613
-0.047572
-0.013712
-0.008537
0.010958
-0.032873
0.015886
0.045378
-0.072776
-0.108303
-0.016745
-0.066556
-0.019315
0.003145
-0.138687
-0.014893
-0.022493
-0.011072
-0.002781
0.071275
-0.045892
0.009103
0.020126
-0.025516
0.005661
-0.095328
-0.077953
0.009594
-0.017432
-0.068283
-0.098228
0.004065
-0.029982
0.019520
-0.038724
-0.058043
0.007289
0.080543
0.016634
-0.042692
-0.094562
-0.040566
0.003756
-0.048287
0.007854
-0.052685
0.001249
0.008901
0.038391
0.048412
-0.001124
0.032825
-0.054119
0.012396
-0.014703
0.000778
0.001526
-0.030213
0.031260
0.010434
-0.014771
0.069722
0.006070
0.016733
0.019207
0.051691
-0.049837
-0.057565
-0.029769
-0.000236
-0.018953
-0.061104
0.106262
0.046463
0.003575
-0.079851
-0.014611
-0.053146
-0.017772
0.015324
-0.009912
0.017273
-0.044471
-0.023503
-0.055834
-0.013828
-0.057975
-0.078033
-0.003442
0.032084
-0.052823
0.045416
-0.044203
-0.011199
-0.015082
-0.017565
0.083206
-0.051843
0.003449
0.073953
0.008532
-0.089708
-0.081723
0.075540
0.033136
0.041764
-0.004123
-0.045946
0.045246
0.040984
-0.011920
0.118223
0.040168
-0.039771
-0.059329
-0.150142
0.041965
-0.026628
0.039694
0.034564
-0.014633
-0.043955
-0.039593
0.003098
0.067222
0.057021
-0.004731
-0.009233
-0.008245
0.059124
-0.014187
-0.045434
-0.026474
0.051652
-0.016187
0.026616
0.018415
-0.062051
0.035424
0.051044
-0.158637
-0.051663
-0.061341
0.045454
0.084878
0.007892
0.002698
-0.027292
0.009958
0.030377
0.048437
0.000558
-0.030923
-0.007348
0.031123
-0.038566
-0.036554
-0.059344
-0.014886
0.015982
-0.074812
0.042916
-0.013653
0.002975
-0.007998
-0.047638
0.030581
-0.070509
0.053356
0.059082
-0.025214
-0.000375
-0.062526
0.032765
0.061986
0.051855
-0.001693
0.010777
0.011314
-0.010830
-0.005038
0.035097
-0.036786
-0.023458
0.024779
0.014348
0.013012
-0.017694
-0.052994
0.041321
0.006021
-0.031859
0.016553
-0.055641
0.097832
0.009496
0.002265
-0.014461
0.021675
0.022722
0.024543
-0.032905
0.066402
-0.063975
0.045062
-0.008254
-0.003259
-0.006073
-0.017400
0.041342
0.012405
0.065793
-0.035978
0.049452
0.016612
-0.036120
0.029842
0.005261
0.001826
-0.006034
0.034934
-0.065307
0.010377
-0.026766
0.037853
0.061043
-0.040033
-0.016158
0.026520
0.013530
-0.041263
0.002824
0.022076
0.048140
0.062271
0.025069
0.013609
0.023048
0.010902
-0.013619
-0.036967
-0.029656
0.017913
0.015109
0.007646
-0.029469
-0.005676
0.008926
-0.023853
0.052327
0.043299
-0.064407
-0.016602
0.014443
0.001172
-0.006225
-0.070937
-0.041001
-0.027317
0.033049
0.025353
-0.027244
-0.029552
-0.012391
-0.021171
-0.043453
0.001739
-0.048137
-0.047852
-0.004769
-0.029205
0.032784
-0.034178
0.001614
-0.011271
-0.048348
0.011869
-0.034217
-0.014324
0.045226
-0.007000
-0.035406
0.042130
-0.021057
-0.047795
0.019692
0.001728
0.030963
-0.048416
0.048026
-0.036054
0.006344
0.014926
0.043437
-0.016601
0.037934
-0.000793
-0.028972
0.003147
0.035920
-0.003354
0.038208
-0.022913
0.019760
0.008405
-0.048835
0.044480
-0.046791
0.045698
0.033773
-0.012954
0.041862
-0.010602
-0.000253
0.030172
-0.033742
0.001634
0.034621
-0.003765
0.028802
-0.014972
-0.021671
-0.010026
0.039350
-0.014749
-0.046320
-0.018433
0.021568
-0.000787
-0.030857
-0.047922
-0.001003
-0.045385
0.028287
-0.032529
-0.023465
0.000570
0.034715
-0.046701
-0.035511
0.029776
0.018574
0.034841
0.015821
-0.015180
-0.031421
0.027083
0.042824
0.034974
0.025010
-0.048211
0.042073
0.015851
-0.030524
0.013321
-0.012846
0.006949
-0.025770
-0.047467
-0.035684
0.046863
0.027462
0.013520
0.001246
-0.027333
0.037716
-0.026815
-0.024215
0.002289
0.005808
-0.046458
-0.022550
-0.041973
-0.012417
0.017603
0.049830
-0.049181
0.014426
0.042644
-0.025697
0.034210
0.049805
0.041463
-0.002332
-0.010225
-0.019391
-0.033818
-0.031662
-0.046884
-0.027524
0.026272
-0.033871
-0.031797
-0.027501
-0.031133
-0.048296
-0.021887
-0.049665
0.006141
-0.039170
-0.033608
0.032722
0.031203
0.017444
0.015165
-0.032645
0.001211
-0.030293
0.002623
0.002993
-0.017743
0.043672
-0.031935
-0.011470
-0.014080
0.037429
-0.045252
0.021592
-0.034771
-0.048751
-0.034573
0.004132
0.034011
0.033493
-0.044513
-0.000427
0.012347
0.013082
-0.002351
0.026955
0.018036
-0.008581
-0.008973
-0.038912
0.029471
0.027680
-0.004519
-0.033527
0.038581
0.015586
-0.017204
0.045899
-0.025957
-0.043751
0.003724
0.038083
0.048521
0.026066
0.009448
-0.026238
-0.002447
0.040597
-0.024080
0.003938
-0.008467
0.026361
0.048070
-0.002531
0.021363
0.046103
-0.014320
0.040287
0.048409
-0.001927
0.021836
-0.024390
-0.046977
0.025151
0.022984
0.027084
0.023033
-0.035006
-0.049991
0.012919
-0.026918
0.024749
-0.040954
-0.006649
-0.046135
0.049255
-0.013525
-0.042175
-0.026024
-0.040977
0.015956
0.031178
0.020657
0.026915
-0.043595
-0.047379
0.016704
-0.020946
0.030724
-0.042548
-0.028689
0.047944
-0.029110
-0.002363
-0.008346
0.026637
-0.001738
-0.013672
-0.046073
0.018861
-0.014773
-0.023559
0.021142
0.015440
0.041162
-0.024604
0.034047
-0.003184
0.000187
0.022596
0.038852
-0.045283
0.019389
-0.002988
-0.010289
0.014321
0.037999
-0.024678
0.042769
-0.043419
0.046835
-0.045896
-0.019174
-0.019042
0.004912
-0.018819
-0.028086
0.019036
-0.005092
0.019561
-0.022510
0.040784
0.013440
-0.008708
-0.030928
0.048614
-0.045777
-0.015128
0.046226
-0.032129
-0.043742
-0.049166
-0.023767
0.032307
0.026440
0.037789
0.035234
0.012519
-0.026055
-0.024589
0.000332
0.028210
0.001499
0.040881
-0.031647
-0.021136
-0.042037
0.026075
-0.040221
-0.016071
-0.027581
-0.012327
0.030079
-0.043727
0.041853
0.000004
-0.022166
0.022928
-0.006424
-0.039318
-0.010554
-0.024660
0.018159
0.042501
-0.041744
0.014653
-0.011922
0.018770
-0.034159
0.034236
0.003816
-0.023228
-0.005523
0.021034
-0.004309
0.013569
-0.002787
0.046095
0.043067
-0.018648
0.024415
-0.021192
-0.003838
-0.011021
0.022875
-0.047707
-0.026056
-0.009984
-0.004712
-0.011806
-0.007021
0.017296
-0.035741
-0.000034
-0.006444
0.042670
-0.017323
-0.037159
-0.040742
0.009356
0.010365
0.010099
-0.025952
-0.014408
-0.000320
-0.008871
-0.046185
-0.015847
0.042713
-0.045186
-0.038781
-0.033082
0.022763
-0.005403
0.036959
-0.009750
-0.047409
0.037344
-0.036931
-0.025914
-0.032508
0.039812
0.011052
0.021235
-0.031186
0.004358
0.028045
-0.030502
-0.024664
0.036342
-0.042776
0.034211
-0.049765
-0.027047
0.037643
0.013460
0.001490
0.029645
-0.048447
0.013615
0.013162
0.008488
0.000354
-0.002680
0.037756
-0.035347
0.021817
0.002016
-0.015756
0.051282
-0.025662
0.046528
-0.016401
0.002186
0.084418
0.042063
0.002343
-0.069113
-0.029012
0.075676
-0.018208
0.019377
-0.011591
0.040168
0.022913
0.044126
-0.050470
-0.009782
0.046275
0.051159
0.021157
-0.044696
0.073946
0.026753
0.011698
0.039094
0.049949
0.065559
0.009175
0.008161
0.025860
0.028553
0.011692
-0.051478
0.034262
-0.011689
-0.045393
0.102466
-0.020542
-0.003949
-0.001262
0.014067
0.088705
-0.063500
-0.045949
0.027408
-0.009846
0.010607
0.010724
0.047239
-0.033966
-0.080538
0.158286
0.017494
0.040591
-0.007467
0.015061
0.003444
0.020989
0.005626
0.017819
0.038866
0.083883
0.130681
0.020402
0.011392
-0.118613
0.055600
-0.008487
-0.015322
-0.054919
-0.003862
0.015656
-0.042078
-0.064212
0.048796
-0.014561
0.015568
-0.040201
0.049930
0.043621
-0.006220
-0.027338
-0.052782
-0.012803
-0.001325
-0.047639
0.004442
-0.024536
0.040972
0.039808
0.025380
-0.013122
0.036167
0.034514
-0.020929
-0.025499
0.000818
0.035723
0.036869
-0.008905
0.006119
-0.062674
-0.046911
0.076908
0.021538
-0.031606
0.051521
-0.002337
-0.008464
-0.001581
0.039187
-0.012286
0.006230
0.006822
0.020400
-0.061510
0.064108
0.070345
0.057729
-0.009151
-0.126623
-0.064383
-0.041149
0.014151
0.036981
0.001718
-0.046518
-0.015673
0.073760
0.048639
-0.006377
0.013119
-0.003406
-0.038401
-0.012178
0.027727
0.012869
-0.026791
-0.035978
-0.044544
-0.047773
0.070671
