0.021351
0.094407
-0.015961
0.095920
0.028191
0.015567
-0.037873
-0.044479
-0.055574
0.017448
0.030330
0.033919
-0.009946
-0.003802
0.007071
0.049302
-0.014314
0.010730
0.025153
0.028746
0.028311
-0.043508
0.034054
0.079228
-0.018439
-0.037165
-0.056794
-0.020201
-0.001432
-0.022770
0.021818
0.045690
0.029912
-0.029495
-0.028294
0.016162
0.061411
0.069093
0.008853
-0.049948
-0.004120
0.059423
0.058866
-0.028888
0.043088
0.027062
-0.038442
0.067190
-0.019328
0.069712
0.057045
0.070742
0.047815
-0.058334
0.030208
0.047323
0.030456
-0.037755
-0.044342
0.005398
-0.030100
-0.016734
-0.029071
-0.048776
0.004313
0.053499
0.024256
0.056741
0.019542
-0.017663
0.058750
0.076624
-0.015667
-0.048772
0.074968
0.011790
0.042417
-0.010701
0.048282
-0.053433
-0.044882
-0.065336
-0.051028
0.029715
0.010237
0.024136
-0.046898
0.078954
0.022607
-0.026166
-0.037242
-0.013833
-0.010273
0.013195
0.035682
0.073721
0.046561
-0.011782
-0.002585
0.049156
0.025169
0.002622
0.026912
0.055972
-0.011962
0.053019
0.060126
0.007221
0.005102
0.021906
0.092901
0.030146
-0.024091
-0.044430
0.076690
-0.034238
-0.014650
-0.035612
-0.032405
0.077690
