-0.225238
-0.102342
0.010838
-0.212771
-0.180839
0.046755
0.097185
-0.033182
0.279025
-0.093337
0.410360
0.522845
0.274809
0.490630
0.227930
0.395260
0.476313
0.379580
0.255399
0.202239
0.187487
0.192869
0.469884
0.294074
0.247043
-0.251173
-0.075646
-0.106900
-0.146311
-0.115480
0.020488
-0.015620
0.339604
0.419353
0.266496
0.245240
0.302481
0.650409
0.473549
0.488659
0.335131
0.228144
0.492010
0.344447
0.048039
0.268436
0.220871
0.226978
-0.080903
0.075388
0.027636
-0.102833
-0.000061
-0.038796
-0.028041
0.284133
0.094540
0.531315
0.467641
0.170779
0.347218
0.643416
0.501033
0.644771
0.110049
0.453656
0.341014
0.520736
0.348834
-0.052834
-0.159581
0.196640
0.065442
0.120232
-0.161666
-0.009447
-0.002002
0.145734
0.275330
0.149009
0.142827
0.102346
0.144623
0.298717
0.402735
-0.020275
0.123396
0.205334
0.457386
0.483021
-0.029141
0.287630
0.096975
0.436799
0.127665
-0.216227
-0.078572
0.253811
0.068705
0.182986
-0.037304
0.101026
-0.042021
0.106063
-0.245691
0.332625
0.081667
0.231155
0.338321
0.071784
0.142726
0.490608
0.403627
0.323038
0.109865
0.205862
0.316748
0.285675
0.427634
0.259071
-0.168611
-0.162956
-0.037912
-0.124484
0.152724
0.171461
0.107616
-0.039675
-0.115735
0.166690
0.049125
0.152939
0.295019
0.266133
0.216423
-0.040580
0.094959
0.289127
0.227034
0.050460
-0.089308
0.154843
0.332841
0.244640
0.134018
0.147443
-0.029305
0.149910
-0.013801
-0.195411
